svm_type c_svc
kernel_type rbf
gamma 0.03125
nr_class 3
total_sv 63
rho 0.113362 -0.145064 -0.578955
label 3 2 1
nr_sv 15 30 18
SV
0.5975547486482728 0.4663891902110922 1:0.746165 2:-0.880991 3:-0.943771 4:-0.894608 5:-0.694017 6:-0.842074 7:-0.945351 8:-0.848783 9:-0.793815 10:-0.963014 11:-0.930975 12:-0.804395 13:-0.871098 14:0.63375 15:-0.958912 16:-0.284003 17:-0.028392 18:0.311065 19:-0.690237 20:-0.459666 21:0.254359 22:0.288949 23:-0.230449 24:-0.662566 25:0.0164063 26:-0.33434 27:0.726258 28:-0.938656 29:-0.549556 30:-0.414498 31:0.281129 32:-0.331853 33:-0.41698 34:-0.0366098 35:0.0586543 36:-0.00392387 37:-0.278702 38:0.429655 39:0.538177 40:0.727066 41:-0.0561675 42:0.383827 43:0.113699 44:0.207562 45:0.174676 46:-0.447725 47:0.651417 48:0.535268 49:-0.302097 50:-0.0493459 51:0.587217 52:0.677668 53:0.972277 54:0.444276 55:0.366286 56:-0.0336968 57:-0.269414 58:-0.076949 59:-0.290689 60:0.237962 61:-0.910714 62:0.0485012 63:-0.510426 64:0.0121741 65:-0.18447 66:0.832926 67:-0.0746626 68:1 69:0.167145 70:0.161008 71:-0.456316 72:-0.871374 73:0.120087 74:-0.260551 75:-0.503739 76:-1 77:-0.657257 78:-0.547187 79:0.802333 80:0.770058 81:0.405938 82:-0.554664 83:-0.254497 84:-0.369213 85:-0.293912 86:0.0685029 87:-0.317155 88:-0.0432608 89:0.191376 90:0.023919 91:0.521418 92:0.864858 93:0.168396 94:0.558097 95:-0.00602195 96:0.110899 97:-0.692209 98:-0.437709 99:0.635913 100:-0.42395 101:0.218805 102:0.327053 103:0.797086 104:-0.309186 105:0.872223 106:0.694226 107:-0.120156 108:-0.411436 109:0.472074 110:-0.404253 111:-1 112:0.82379 113:0.389389 114:0.916535 115:-0.132973 116:-0.426958 117:0.430002 118:0.857583 119:0.716526 120:-0.000715245 121:-0.532398 122:0.153302 123:0.0856912 124:-0.756579 125:1 126:0.449211 127:1 128:-0.455531 129:-0.554802 130:0.337687 131:0.801583 132:0.610464 133:-0.108733 134:-0.351081 135:0.25268 136:-1 137:-1 138:0.483295 139:0.570993 140:1 141:-0.510546 142:-0.394285 143:0.10562 144:0.74444 145:0.461686 146:0.0908137 147:-0.191381 148:-0.0673686 149:-0.909146 150:-1 151:0.815063 152:-0.0980022 153:0.71613 154:-0.719037 155:0.0787913 156:-0.040407 157:0.732638 158:0.646274 159:0.0121199 160:-0.0134974 161:0.248645 162:-0.738233 163:-0.576025 164:0.575286 165:0.1899 166:0.414813 167:-0.820361 168:-0.270171 169:-0.0663726 170:0.676864 171:0.240449 172:-0.0862563 173:0.384193 174:-0.0706728 175:-0.832414 176:-0.53203 177:0.0750467 178:-0.552506 179:0.173311 180:-0.788602 181:0.106632 182:-0.0142176 183:0.685901 184:0.0608829 185:-0.24363 186:0.603649 187:-0.465096 188:-0.407026 189:-0.52355 190:0.0281157 191:0.257104 192:0.302426 193:-0.762364 194:0.325005 195:0.196122 
0.5021318922024186 0.3837252135876645 1:0.787188 2:-0.837705 3:-1 4:-0.859711 5:-0.747024 6:-0.920644 7:-0.872434 8:-0.984866 9:-1 10:-0.954183 11:-0.904121 12:-0.628306 13:-0.898804 14:0.508403 15:-0.813083 16:-0.236359 17:0.305073 18:0.121407 19:-0.441726 20:0.250739 21:-0.348626 22:-0.218031 23:-0.0666443 24:-0.689811 25:-0.0177114 26:-0.546252 27:0.881223 28:-0.116536 29:-0.825865 30:-0.13206 31:0.382261 32:-0.211025 33:0.728614 34:-0.596757 35:-0.611306 36:0.342412 37:-0.286031 38:0.870972 39:0.0635211 40:1 41:0.747438 42:0.024371 43:0.430257 44:0.735341 45:-0.0823769 46:-1 47:-0.014141 48:0.612572 49:-0.20431 50:-0.40264 51:0.92285 52:0.173505 53:0.878791 54:0.973079 55:0.315631 56:-0.373539 57:-0.0883694 58:0.184528 59:0.94871 60:-0.0536771 61:0.296049 62:0.434401 63:-0.121832 64:0.823829 65:-0.0784361 66:0.803022 67:-0.11906 68:0.250418 69:-0.265268 70:0.413237 71:0.102285 72:0.151089 73:0.416573 74:0.378532 75:0.248421 76:-0.461053 77:0.587989 78:0.120315 79:0.646557 80:-0.610497 81:-0.108454 82:-0.604815 83:0.940639 84:0.0640509 85:-0.104149 86:0.146487 87:0.371507 88:0.261311 89:-0.697726 90:0.473341 91:0.889792 92:0.909263 93:0.720286 94:-0.513136 95:0.0380433 96:-0.0764535 97:-0.770528 98:0.412041 99:-0.856462 100:0.420866 101:0.415111 102:0.00598494 103:0.658553 104:-1 105:0.793596 106:1 107:-0.098525 108:-0.612225 109:-0.121947 110:-0.0260702 111:0.641775 112:-0.191107 113:-0.47834 114:0.480285 115:-0.408945 116:0.696264 117:0.244938 118:0.790163 119:1 120:0.0466384 121:-0.780942 122:-0.211123 123:0.381142 124:0.430526 125:0.0265404 126:0.108395 127:0.337775 128:-0.135384 129:0.895005 130:-0.420014 131:0.801332 132:0.823424 133:-0.0646446 134:-1 135:-0.18758 136:-0.298563 137:0.529219 138:-0.328859 139:0.196089 140:0.63838 141:-0.155249 142:1 143:-0.59433 144:0.799231 145:0.631056 146:-0.117039 147:-1 148:-0.507851 149:-0.699011 150:-0.0576263 151:-0.341657 152:-0.215906 153:0.564032 154:-0.550367 155:0.962913 156:-0.408994 157:0.804362 158:0.951328 159:-0.281729 160:-1 161:-0.374406 162:-0.675466 163:0.446228 164:0.0606265 165:0.235461 166:0.55785 167:-0.656738 168:0.143832 169:-0.468331 170:0.737579 171:1 172:-0.334213 173:-1 174:-0.426486 175:-0.491045 176:0.621819 177:-0.115212 178:-0.0139867 179:0.752941 180:-0.209691 181:0.625204 182:-0.432463 183:0.688916 184:1 185:-0.194966 186:-1 187:-0.653007 188:-0.45511 189:0.576706 190:0.0162654 191:0.0624774 192:0.788417 193:-0.420772 194:0.111688 195:-0.252293 
0.5776368285614042 0.4438962460496178 1:-0.84218 2:-0.958099 3:-0.948838 4:-0.967544 5:-0.737681 6:-0.89304 7:-0.924023 8:-0.895277 9:-0.909966 10:-0.917478 11:-0.841201 12:-0.714272 13:-0.854782 14:-1 15:-1 16:-0.322215 17:-0.289683 18:0.0884373 19:-0.464266 20:-0.289673 21:-0.189945 22:0.0017187 23:-0.221703 24:-0.394344 25:0.0647963 26:-0.14761 27:-0.643271 28:-1 29:-0.838976 30:-0.674084 31:0.471037 32:0.144592 33:0.202087 34:-0.241394 35:-0.167322 36:0.0500245 37:-0.283756 38:0.432954 39:0.761536 40:0.782431 41:0.605806 42:0.629477 43:1 44:0.719822 45:0.301795 46:-0.170781 47:0.536363 48:0.472544 49:-0.144975 50:-0.925269 51:0.797644 52:0.552028 53:0.633817 54:0.341037 55:1 56:1 57:0.824345 58:0.41981 59:0.0579965 60:0.51383 61:-0.255533 62:-0.114961 63:0.0665253 64:0.864521 65:0.557936 66:0.827137 67:-0.774453 68:0.0637245 69:0.222728 70:0.0203586 71:0.628208 72:-0.302119 73:0.758696 74:0.172405 75:0.141053 76:-0.244014 77:-0.433101 78:-0.0549269 79:0.840326 80:0.925246 81:-0.0559512 82:-0.12382 83:-0.219524 84:0.321738 85:0.0242193 86:0.277949 87:-0.718918 88:-0.397449 89:0.0838799 90:0.182406 91:0.312097 92:0.476453 93:1 94:1 95:0.744832 96:-1 97:-0.455641 98:1 99:0.21619 100:-0.325623 101:-0.232508 102:-0.705153 103:0.199582 104:-0.272589 105:0.976404 106:-0.567344 107:-0.465381 108:-0.701071 109:0.00446032 110:0.27314 111:-0.521939 112:0.23914 113:-0.408333 114:-0.0432572 115:-0.335214 116:0.313764 117:0.303362 118:0.918717 119:0.205798 120:0.0703683 121:-0.470896 122:-0.0548402 123:0.67433 124:-0.220362 125:0.683566 126:0.25943 127:0.1306 128:-0.274728 129:0.49291 130:-0.0575364 131:1 132:0.511584 133:-0.481565 134:0.676338 135:0.0431046 136:-0.0406314 137:-0.443801 138:-0.493822 139:0.373601 140:0.151716 141:0.136328 142:0.367929 143:-0.537228 144:1 145:0.323258 146:-0.370332 147:0.569487 148:-0.381592 149:-0.678563 150:-0.845643 151:-0.726858 152:0.0302642 153:-0.074685 154:0.0171431 155:0.466552 156:-0.229908 157:1 158:0.703828 159:-0.471225 160:0.666361 161:-0.412472 162:-0.457451 163:-0.783341 164:-0.292583 165:0.361311 166:-0.0783766 167:0.146653 168:-0.173861 169:-0.160647 170:0.994599 171:0.459341 172:-0.351395 173:0.862066 174:-0.553951 175:-0.475636 176:-0.958649 177:-0.577004 178:-0.0336352 179:0.357685 180:0.493579 181:0.110131 182:-0.190716 183:1 184:0.375293 185:-0.507824 186:0.944662 187:-0.6545 188:-0.545088 189:-0.996945 190:-0.476657 191:0.238316 192:0.241138 193:0.59065 194:-0.079883 195:0.206997 
0.7083881510511955 0.5598377558197234 1:1 2:-0.891929 3:-0.732927 4:-0.968671 5:-1 6:-1 7:-0.942138 8:-0.997425 9:-0.783497 10:-0.979492 11:-1 12:-1 13:-1 14:0.614739 15:-0.935279 16:0.85667 17:-0.519331 18:-1 19:-0.886645 20:-0.468367 21:-0.803768 22:0.49389 23:-0.593585 24:-1 25:-1 26:-1 27:0.662425 28:-0.679805 29:-0.148809 30:-1 31:-1 32:-0.709878 33:-1 34:-0.661269 35:0.277618 36:-0.74143 37:-0.763212 38:-1 39:0.033237 40:0.693349 41:0.0504163 42:0.0377967 43:-0.443112 44:-1 45:-0.398993 46:0.696085 47:0.434069 48:0.455915 49:0.0175124 50:-0.159311 51:0.0844422 52:0.970629 53:0.732577 54:0.829361 55:0.0551815 56:-0.234614 57:-0.249758 58:0.724528 59:0.60873 60:0.494122 61:-0.717029 62:-0.266296 63:0.695476 64:-0.154016 65:0.352622 66:0.692447 67:0.584743 68:-0.103063 69:-0.104578 70:-0.0468619 71:0.502552 72:0.0382631 73:0.300453 74:0.257794 75:-0.10913 76:0.207058 77:-0.516882 78:-0.473783 79:0.610132 80:0.118234 81:-0.371365 82:-0.287447 83:-0.338098 84:-0.117431 85:-0.694063 86:0.19935 87:-0.457708 88:0.0638632 89:-0.139376 90:-0.655647 91:-0.0596842 92:0.405716 93:-0.124548 94:-0.602445 95:-0.0326252 96:0.202262 97:0.0304547 98:-0.24717 99:-0.207688 100:-0.112142 101:0.0451355 102:0.114056 103:0.187563 104:-0.107836 105:0.381831 106:-0.58155 107:-0.417943 108:-0.272965 109:0.47858 110:0.210967 111:-0.249023 112:0.0684825 113:-0.28228 114:0.0560576 115:-0.0919158 116:0.211331 117:0.0409096 118:0.405105 119:0.0373905 120:-0.312986 121:-0.530148 122:0.161005 123:0.67073 124:0.0125482 125:0.237689 126:-0.0799345 127:-0.071848 128:0.23233 129:0.530668 130:-0.232316 131:0.315408 132:-0.430887 133:-0.713716 134:-0.441881 135:0.143525 136:0.0041564 137:0.101159 138:-0.258924 139:-0.0224419 140:0.133633 141:-0.100745 142:0.33687 143:-0.493303 144:0.419561 145:-1 146:-0.446932 147:-0.268787 148:-0.328958 149:-0.30401 150:-0.513597 151:-0.316678 152:-0.0445732 153:-0.954041 154:0.127852 155:0.137231 156:-0.552878 157:0.831605 158:-0.168671 159:-0.61523 160:-0.393519 161:-0.708312 162:-0.321878 163:-0.285449 164:-0.406803 165:0.059185 166:-1 167:0.227824 168:-0.33996 169:-0.498745 170:1 171:-0.262076 172:-0.821682 173:-0.476196 174:-0.681117 175:-0.879709 176:-0.374497 177:-0.568681 178:-0.393527 179:-1 180:-0.0744977 181:-0.296973 182:-0.77733 183:0.981176 184:-0.531129 185:-0.756079 186:-0.527741 187:-1 188:-1 189:-0.116508 190:-0.882573 191:-0.474162 192:-1 193:-0.382376 194:-0.66257 195:-0.512296 
0.09686481919188783 0.07421175382178313 1:0.72882 2:-0.900237 3:-0.928695 4:-0.945173 5:-0.69035 6:-0.808297 7:-0.874455 8:-0.93798 9:-0.950201 10:-0.931046 11:-0.885882 12:-0.719679 13:-0.896763 14:0.497855 15:-0.945356 16:-0.591884 17:-0.38635 18:0.272929 19:-0.031835 20:-0.0233475 21:-0.4238 22:-0.209826 23:-0.210542 24:-0.46682 25:0.000375281 26:-0.33971 27:0.589818 28:-0.64635 29:-0.98059 30:-0.713192 31:0.711135 32:0.774051 33:0.813664 34:-0.320782 35:-0.249716 36:0.272362 37:-0.229389 38:0.448985 39:0.512311 40:0.775192 41:-0.0407105 42:0.586681 43:-0.0643081 44:0.870959 45:0.312787 46:0.00926195 47:0.736988 48:0.405918 49:-0.120967 50:-0.264593 51:0.830852 52:0.842371 53:0.917288 54:0.74966 55:-0.254225 56:-0.266143 57:0.158943 58:0.369407 59:0.776753 60:0.52371 61:-0.249899 62:0.437077 63:1 64:0.812831 65:0.24408 66:0.994771 67:0.493567 68:-0.692029 69:-0.138385 70:-0.36929 71:-0.354271 72:0.572931 73:0.135473 74:0.147292 75:0.0745255 76:1 77:0.46611 78:-0.216325 79:0.77656 80:0.590853 81:-0.479365 82:-0.421237 83:-0.351377 84:-0.471534 85:0.203977 86:0.14428 87:0.0191747 88:0.0488519 89:0.546422 90:0.137398 91:0.378083 92:0.781165 93:0.452152 94:-0.299044 95:0.000860068 96:-0.30087 97:-0.78349 98:0.264309 99:-0.0427836 100:-0.171777 101:0.36639 102:0.599743 103:0.566305 104:-0.088931 105:0.868721 106:0.299631 107:-0.495569 108:-0.0869285 109:0.216737 110:0.0766182 111:0.095469 112:-0.0482859 113:0.150905 114:0.42369 115:0.727923 116:0.386181 117:0.0978148 118:0.848595 119:0.604136 120:-0.259036 121:-0.422954 122:0.0248779 123:0.536072 124:0.301402 125:-0.0356136 126:0.345697 127:0.190621 128:0.786695 129:0.773698 130:-0.489255 131:0.763227 132:0.381814 133:-0.305073 134:-0.213487 135:0.000252181 136:-0.0198476 137:0.346059 138:-0.266668 139:0.507792 140:0.337184 141:0.594109 142:0.754511 143:-0.448447 144:0.713967 145:0.268114 146:-0.248819 147:-0.265306 148:-0.352186 149:-0.536171 150:-0.134343 151:-0.133375 152:0.253139 153:0.331961 154:0.0717573 155:0.704605 156:-0.384602 157:0.74278 158:0.473167 159:-0.404572 160:-0.219172 161:-0.159006 162:-0.00747682 163:0.41041 164:0.128658 165:0.234464 166:-0.0961952 167:0.461404 168:0.14412 169:-0.518736 170:0.702128 171:0.352945 172:-0.438808 173:0.0311441 174:-0.148123 175:-0.137597 176:0.637699 177:-0.0605043 178:-0.0203612 179:0.432645 180:0.495188 181:0.200627 182:-0.396248 183:0.686522 184:0.195429 185:-0.509265 186:-0.0399827 187:-0.23672 188:-0.0605835 189:0.447005 190:0.152458 191:0.155508 192:0.299348 193:0.320581 194:0.420944 195:0.231066 
0.1709352385425831 0.1376262629636715 1:0.625273 2:-0.808281 3:-0.959554 4:-0.88379 5:-0.732365 6:-0.889146 7:-0.90947 8:-0.925316 9:-0.861746 10:-0.901248 11:-0.891748 12:-0.794595 13:-0.871933 14:0.503779 15:-0.89423 16:-0.349864 17:0.341958 18:-0.335817 19:-0.352469 20:-0.388077 21:-0.371476 22:0.154216 23:-0.272718 24:-0.592686 25:-0.104241 26:-0.199672 27:0.531721 28:-0.698523 29:-0.816442 30:-0.177727 31:0.255233 32:0.800482 33:-0.00876642 34:-0.0796027 35:-0.00456869 36:0.282178 37:-0.198521 38:0.41256 39:0.750879 40:0.789267 41:0.922052 42:0.475801 43:0.63393 44:-0.0626979 45:-0.136415 46:-0.318352 47:0.347611 48:-0.0413161 49:-0.0846047 50:-0.31305 51:0.485482 52:0.450353 53:0.820081 54:0.867734 55:0.527514 56:0.408223 57:-0.191345 58:0.233145 59:0.461377 60:0.324059 61:-0.958437 62:0.415682 63:0.0969528 64:-0.10315 65:0.121687 66:0.88696 67:0.741097 68:0.475742 69:0.712106 70:-0.182561 71:-0.264389 72:0.113353 73:0.167142 74:-0.315582 75:0.310163 76:-0.570617 77:-0.68276 78:-0.33167 79:0.80686 80:0.448085 81:-0.778965 82:-0.801624 83:0.432929 84:0.181757 85:-0.371585 86:-0.223674 87:0.190274 88:0.980899 89:-0.0291624 90:-0.28899 91:0.0782818 92:0.682755 93:0.230993 94:-0.465657 95:0.0493228 96:0.46567 97:0.22106 98:-0.173381 99:-0.0286599 100:-0.217809 101:0.862261 102:0.0150598 103:0.0940164 104:-0.349186 105:0.773016 106:0.856948 107:0.113729 108:0.219148 109:0.32694 110:-0.0658744 111:-0.169322 112:0.47811 113:0.147266 114:0.161821 115:-0.23753 116:0.122737 117:0.244057 118:0.818525 119:0.847202 120:-0.0246989 121:-0.11254 122:0.0107106 123:0.580142 124:0.230574 125:0.775189 126:0.0931904 127:-0.045931 128:-0.442782 129:0.364064 130:-0.089285 131:0.752531 132:0.892599 133:-0.21979 134:-0.0264712 135:0.0833745 136:0.200178 137:0.225222 138:0.480311 139:-0.3029 140:0.0784972 141:-0.292618 142:0.289246 143:-0.11369 144:0.743944 145:0.783793 146:-0.384006 147:0.0227341 148:-0.289871 149:-0.394125 150:-0.304504 151:0.453797 152:-0.550817 153:-0.245746 154:-0.486694 155:0.299607 156:-0.0341205 157:0.810008 158:1 159:-0.474018 160:-0.00883721 161:0.0204283 162:0.0612067 163:0.0959145 164:0.332389 165:-0.250974 166:-0.0767371 167:-0.745374 168:-0.319136 169:0.107388 170:0.783327 171:0.815861 172:-0.579945 173:0.128953 174:0.0405018 175:0.0791147 176:0.0291431 177:0.208177 178:-0.559916 179:0.302696 180:-0.424978 181:-0.107447 182:0.339188 183:0.828462 184:0.566508 185:-1 186:0.0384738 187:-0.0781646 188:0.10304 189:-0.253678 190:0.25129 191:-0.535905 192:0.167276 193:-0.595397 194:-0.432781 195:0.630289 
0.3040313676749465 0.23532460311878 1:0.839622 2:-0.83329 3:-0.909509 4:-1 5:-0.707525 6:-0.869556 7:-0.917557 8:-0.95097 9:-0.913187 10:-0.967355 11:-0.847922 12:-0.760336 13:-0.896798 14:0.535802 15:-0.89478 16:-0.430577 17:-0.496141 18:0.267311 19:-0.302648 20:-0.182048 21:-0.354333 22:-0.0442387 23:-0.331752 24:-0.376922 25:-0.15682 26:-0.161537 27:0.601045 28:-0.468789 29:-0.776548 30:-0.778131 31:0.47101 32:0.683946 33:0.439818 34:-0.241399 35:-0.363404 36:0.0565708 37:-0.128327 38:0.0353871 39:0.422305 40:0.839544 41:0.363727 42:-0.0649244 43:-0.252409 44:0.0649426 45:1 46:0.123701 47:0.325627 48:0.369303 49:-0.0440827 50:0.0149886 51:0.562555 52:0.705199 53:0.868817 54:0.823007 55:0.0677636 56:-0.269096 57:-0.0421166 58:0.993185 59:0.519814 60:0.628606 61:0.430627 62:0.264562 63:0.242535 64:0.0382661 65:0.184983 66:0.699099 67:0.348077 68:-0.0964172 69:-0.135899 70:0.132662 71:0.181941 72:0.196518 73:0.526276 74:0.268326 75:-0.0928916 76:-0.402253 77:-0.283126 78:-0.221424 79:0.810481 80:1 81:-0.598855 82:-0.904337 83:-0.570938 84:0.469666 85:0.378257 86:0.0913148 87:0.368982 88:0.22304 89:0.259409 90:-0.554593 91:0.340101 92:0.954375 93:0.705972 94:-0.766341 95:-0.0153104 96:-0.446103 97:1 98:0.0889262 99:-0.489962 100:0.253689 101:-0.259798 102:0.054729 103:-0.218466 104:-0.0852424 105:0.959386 106:0.557588 107:-1 108:-0.236151 109:-0.246726 110:0.580381 111:-0.419281 112:-0.384401 113:0.207877 114:-0.0781223 115:0.0673508 116:-0.102978 117:0.0381888 118:0.91337 119:0.659881 120:-0.848511 121:-0.599509 122:-0.440913 123:0.58481 124:-0.376763 125:-0.707502 126:0.253272 127:-0.497741 128:-0.0605768 129:-0.116352 130:-0.457197 131:0.861202 132:0.605195 133:-1 134:-0.530187 135:-0.9355 136:0.0950726 137:-0.394367 138:-0.965203 139:0.323156 140:-0.338192 141:-0.353818 142:-0.229583 143:-0.677024 144:0.8149 145:0.559876 146:-1 147:-0.465887 148:-0.863704 149:-0.445835 150:-0.568393 151:-0.795858 152:0.0479411 153:-0.632607 154:-0.748669 155:-0.294563 156:-0.523656 157:0.82531 158:0.908513 159:-0.946018 160:-0.425199 161:-1 162:0.0221184 163:-0.510313 164:-0.45249 165:0.409393 166:-0.779911 167:-0.977148 168:-0.444441 169:-0.345247 170:0.761838 171:0.787534 172:-0.90374 173:-0.471036 174:-0.982502 175:-0.103152 176:-0.989349 177:-0.895473 178:-0.211723 179:-0.20273 180:-0.302164 181:-0.474441 182:-0.162051 183:0.749253 184:0.646393 185:-0.825834 186:-0.487406 187:-0.887623 188:-0.152382 189:-1 190:-1 191:0.0996376 192:-0.363186 193:-0.331934 194:-0.271773 195:-0.0473944 
0.06287127840280722 0.0591660999556114 1:0.764858 2:-0.958482 3:-0.964544 4:-0.840064 5:-0.739272 6:-0.943491 7:-0.927865 8:-0.898666 9:-0.904614 10:-0.845033 11:-0.880371 12:-0.849263 13:-0.925474 14:0.520813 15:-0.972007 16:-0.501149 17:0.228582 18:0.0880906 19:-0.560877 20:-0.024283 21:0.0773202 22:-0.050986 23:-0.149009 24:-0.557516 25:-0.388024 26:-0.497053 27:0.684587 28:-0.718821 29:-1 30:-0.461027 31:0.161559 32:-0.384262 33:0.0187172 34:-0.463229 35:-0.307628 36:0.00993213 37:-0.417945 38:0.0972131 39:0.715535 40:0.663443 41:0.185888 42:0.100979 43:0.240573 44:0.258003 45:-0.0538633 46:-0.456934 47:0.189324 48:0.290602 49:-0.395634 50:-0.116198 51:0.632888 52:0.701182 53:0.953098 54:0.572587 55:0.102653 56:0.325403 57:0.260985 58:0.0482295 59:0.455982 60:0.18207 61:-0.766321 62:-0.0957409 63:0.207938 64:0.0499498 65:0.0257221 66:0.857193 67:0.260332 68:0.139899 69:0.197398 70:0.491722 71:-0.0978424 72:0.0711117 73:0.240456 74:0.502607 75:0.532697 76:-0.708326 77:-0.680091 78:0.0529854 79:0.655876 80:-0.327251 81:0.167666 82:-0.609535 83:0.478625 84:-0.285468 85:-0.0241302 86:0.063647 87:-0.057352 88:0.0164737 89:-0.171909 90:0.00220615 91:0.127291 92:1 93:0.296832 94:-0.268719 95:0.0302069 96:0.0756699 97:-0.947297 98:0.30519 99:-0.127247 100:0.893149 101:0.82533 102:0.0929213 103:-0.205222 104:-0.104278 105:0.908266 106:0.257209 107:-0.0056137 108:-0.803714 109:-0.114767 110:-0.240902 111:0.37603 112:0.26837 113:0.141516 114:0.851256 115:0.377016 116:-0.227324 117:-0.194557 118:0.88757 119:0.464073 120:0.103626 121:-1 122:-0.210148 123:0.359117 124:0.407112 125:0.333201 126:0.330366 127:0.602499 128:0.399276 129:-0.118884 130:-0.603699 131:0.853618 132:0.116634 133:-0.240414 134:-0.941192 135:-0.361688 136:-0.506243 137:0.626499 138:-0.0266659 139:0.127094 140:0.64631 141:0.268716 142:0.0737061 143:-0.85569 144:0.87121 145:-0.242784 146:-0.323818 147:-0.727708 148:-0.443397 149:-0.682741 150:-0.0235518 151:0.202829 152:-0.420863 153:0.552161 154:-0.29511 155:0.14596 156:-0.822113 157:0.892453 158:-0.00463564 159:-0.458702 160:-0.787814 161:-0.302962 162:-0.583304 163:0.189671 164:0.256192 165:-0.537348 166:0.258547 167:-0.562543 168:-0.220486 169:-0.815377 170:0.819865 171:0.121626 172:-0.724778 173:-0.834491 174:-0.459316 175:-0.545593 176:-0.260993 177:0.341987 178:-0.840332 179:0.433159 180:-0.232858 181:0.323478 182:-1 183:0.745339 184:0.2939 185:-0.729794 186:-0.893428 187:-0.10348 188:-0.3353 189:0.175665 190:0.379286 191:-0.0372406 192:0.151172 193:-0.0571382 194:0.0919397 195:-0.678219 
0.3852195362517493 0.306847630317782 1:0.559669 2:-0.896438 3:-0.825095 4:-0.987302 5:-0.729066 6:-0.808452 7:-0.891854 8:-0.854079 9:-0.925341 10:-0.961194 11:-0.805851 12:-0.683877 13:-0.778725 14:0.415165 15:-0.947802 16:0.636696 17:-0.148368 18:0.369664 19:0.162101 20:-0.202741 21:0.152351 22:-0.264815 23:-0.183218 24:-0.424944 25:-0.149103 26:-0.0441933 27:0.7006 28:-0.15543 29:-0.225972 30:-0.585698 31:0.525369 32:0.19778 33:-0.283069 34:-0.283637 35:-0.118551 36:0.153991 37:-0.281197 38:0.147884 39:0.553429 40:0.696285 41:1 42:0.399839 43:0.759579 44:0.167809 45:-0.279176 46:-0.477046 47:0.421118 48:0.702764 49:-0.624341 50:0.270803 51:0.662332 52:0.747111 53:0.615129 54:0.17868 55:0.117187 56:-0.245275 57:0.892965 58:1 59:-0.0020627 60:0.605221 61:0.118724 62:0.648557 63:0.231068 64:-0.328522 65:0.415371 66:0.436052 67:0.236875 68:0.151105 69:-0.166463 70:0.339523 71:0.767546 72:0.100382 73:0.236633 74:0.367715 75:0.295768 76:0.154299 77:-0.350463 78:-0.362086 79:0.390814 80:0.92164 81:0.114035 82:-0.380466 83:-0.506611 84:-0.665826 85:0.100646 86:0.606222 87:0.0136821 88:-0.17262 89:0.238428 90:0.269454 91:1 92:0.578203 93:-0.236114 94:0.155573 95:-0.317601 96:0.379742 97:-0.0638119 98:-0.0180101 99:0.62853 100:0.304736 101:0.239527 102:0.211487 103:-0.0119045 104:0.0660217 105:0.730752 106:0.911509 107:0.226382 108:-0.301168 109:0.0767367 110:-0.410437 111:0.158971 112:0.29375 113:0.271721 114:-0.92712 115:1 116:0.407529 117:-0.157223 118:0.719833 119:0.901436 120:0.276444 121:-0.525384 122:-0.167808 123:0.320806 124:0.333195 125:0.533264 126:0.499969 127:-1 128:1 129:0.399591 130:-0.235444 131:0.698805 132:1 133:-0.17546 134:-0.15054 135:-0.28992 136:-0.276351 137:0.186199 138:0.0736462 139:0.402158 140:-0.562982 141:1 142:0.442767 143:-0.509669 144:0.694917 145:0.416627 146:0.0473319 147:-0.490752 148:-0.556683 149:-0.740392 150:-0.415836 151:0.36822 152:-0.746534 153:-0.408207 154:0.378412 155:1 156:-0.538741 157:0.534493 158:0.685068 159:0.114649 160:-0.238482 161:-0.236907 162:-0.403898 163:-0.154581 164:0.254921 165:-0.160867 166:-0.129536 167:0.181861 168:0.0782754 169:-0.477221 170:0.733058 171:0.818393 172:-0.123871 173:0.154982 174:-0.422434 175:-0.60354 176:-0.456137 177:0.147983 178:-0.00959521 179:-0.024702 180:1 181:-0.23217 182:-0.229779 183:0.649123 184:0.395963 185:-0.662955 186:-0.207343 187:-0.356287 188:-0.6243 189:-0.595478 190:0.215507 191:0.132669 192:-0.0638317 193:1 194:-0.431915 195:0.148658 
0.2312178838117978 0.1779164572129918 1:0.933099 2:-0.964511 3:-0.884637 4:-0.950851 5:-0.740115 6:-0.791424 7:-0.925865 8:-0.924484 9:-0.900753 10:-0.872788 11:-0.823575 12:-0.727667 13:-0.876966 14:0.619979 15:-0.94291 16:0.190014 17:-0.0591012 18:0.128992 19:0.0412449 20:-0.102375 21:-0.102574 22:-0.0370925 23:-0.0438984 24:-0.622551 25:-0.0677706 26:-0.0676449 27:0.727048 28:-0.384075 29:-0.227804 30:-0.570115 31:0.272368 32:0.914749 33:0.399994 34:-0.371361 35:-0.516933 36:0.348235 37:-0.145272 38:0.696311 39:0.724092 40:0.909308 41:0.646172 42:0.425628 43:0.220681 44:0.845597 45:-0.294921 46:-0.649651 47:0.693937 48:0.280835 49:0.0497585 50:-0.133891 51:0.551294 52:0.711903 53:0.752061 54:0.500221 55:0.306826 56:-0.320892 57:0.432144 58:0.950107 59:0.898746 60:0.362733 61:0.640297 62:0.864266 63:0.652846 64:0.163801 65:-0.0741415 66:0.84147 67:0.768408 68:0.38273 69:-0.449935 70:-0.949169 71:0.101556 72:0.73318 73:0.246836 74:0.210922 75:0.804289 76:-0.931883 77:0.114669 78:0.0668917 79:0.637084 80:-0.663917 81:0.213562 82:-0.628856 83:0.663786 84:0.250904 85:0.140109 86:0.639325 87:0.416994 88:0.276 89:-0.0471301 90:-0.0805776 91:0.398813 92:0.914219 93:0.661561 94:-0.407537 95:-0.0113252 96:0.151902 97:-0.498925 98:-0.402529 99:0.219118 100:-0.138209 101:0.958593 102:0.026625 103:-0.0496719 104:0.261117 105:0.654794 106:0.820649 107:0.426591 108:-0.573127 109:-0.219481 110:-0.131146 111:0.236957 112:-0.22177 113:-0.238851 114:0.647107 115:-0.372019 116:0.451694 117:0.223672 118:0.681458 119:0.803411 120:0.251559 121:-0.516599 122:-0.441309 123:0.435114 124:0.300351 125:-0.0842029 126:-0.0343636 127:-0.00923013 128:-0.387168 129:0.766689 130:0.0335996 131:0.756521 132:0.553716 133:-0.197919 134:-0.411548 135:-1 136:0.190078 137:0.345395 138:-0.369236 139:-0.242279 140:0.794222 141:0.0889915 142:0.517995 143:-0.315998 144:0.675004 145:0.384977 146:-0.219093 147:-0.439211 148:-1 149:-0.356048 150:-0.176788 151:-0.316288 152:-0.580901 153:1 154:-0.00920414 155:0.260366 156:-0.437066 157:0.69519 158:0.536238 159:-0.567711 160:-0.239902 161:-0.831538 162:-0.0864749 163:0.118939 164:-0.0243126 165:0.0416242 166:0.350342 167:0.042221 168:-0.333281 169:-0.472684 170:0.600383 171:0.378051 172:-0.589201 173:-0.3696 174:-1 175:-0.117038 176:0.335896 177:-0.341118 178:-0.200408 179:0.879151 180:0.834432 181:-0.28116 182:-0.695861 183:0.602587 184:0.529642 185:-0.821678 186:-0.775861 187:-0.610634 188:-0.327349 189:0.0893278 190:-0.133098 191:-0.259018 192:0.653308 193:0.380466 194:-0.49093 195:-0.451091 
0.2937005810611747 0.2392183572310267 1:0.826487 2:-0.892758 3:-0.945684 4:-0.824581 5:-0.695326 6:-0.894397 7:-0.939751 8:-0.955765 9:-0.820265 10:-0.833888 11:-0.894006 12:-0.78597 13:-0.850584 14:0.555285 15:-0.958976 16:-0.463693 17:0.915997 18:0.387412 19:-0.698634 20:-0.0319232 21:-0.319775 22:-0.117066 23:-0.00364152 24:-0.363395 25:-0.261892 26:-0.215684 27:0.823803 28:-0.45443 29:-0.98318 30:0.135122 31:0.488466 32:-0.138323 33:0.19573 34:-1 35:-0.0953217 36:0.155168 37:-0.276717 38:0.225403 39:0.598724 40:0.813353 41:-0.651256 42:0.742099 43:-0.0315044 44:0.687372 45:0.118785 46:-0.526624 47:0.601562 48:0.433957 49:-0.118708 50:-0.0839036 51:0.775099 52:0.764459 53:0.466215 54:0.297019 55:0.45851 56:-0.184995 57:0.754521 58:0.614619 59:0.20592 60:0.79717 61:0.659332 62:0.298903 63:0.419262 64:0.358734 65:0.245871 66:0.852811 67:0.345302 68:0.00613854 69:0.621728 70:-0.0184158 71:0.0518801 72:0.464954 73:-0.550502 74:0.452091 75:0.116958 76:0.714611 77:-0.417443 78:-0.380594 79:0.727809 80:0.291009 81:-0.233147 82:-0.010834 83:-0.0539372 84:0.0345984 85:0.375428 86:-1 87:0.381401 88:-0.023868 89:0.760849 90:-0.543365 91:0.406127 92:0.674341 93:-0.89948 94:0.357431 95:0.106226 96:0.72103 97:-0.00938766 98:0.0299648 99:0.274095 100:0.12945 101:0.139135 102:0.0258029 103:0.457695 104:-0.0291546 105:1 106:-0.193675 107:-0.482564 108:0.62154 109:0.00991008 110:-0.36341 111:-0.493498 112:0.00354847 113:0.235665 114:0.64604 115:0.324632 116:0.129864 117:0.193161 118:0.96859 119:0.329705 120:-0.46036 121:0.254811 122:-0.189546 123:0.335695 124:-0.16369 125:0.055143 126:0.412085 127:0.47652 128:0.309228 129:0.284438 130:-0.263485 131:0.840753 132:0.281021 133:-0.643752 134:0.409033 135:0.0911783 136:-0.727313 137:-0.140396 138:-0.497566 139:0.256653 140:0.8935 141:0.129646 142:0.308358 143:-0.355828 144:0.706046 145:-0.264757 146:-0.291148 147:0.389187 148:-0.0339274 149:-1 150:-0.359148 151:-0.739078 152:-0.672871 153:-0.18742 154:-0.260395 155:0.540184 156:-0.375333 157:0.693733 158:0.463529 159:-0.509111 160:0.378863 161:-0.0705412 162:-0.595919 163:-0.139463 164:-0.635115 165:-0.245944 166:0.262118 167:-0.104276 168:-0.339251 169:-0.294125 170:0.788009 171:0.32208 172:-0.765994 173:0.318182 174:-0.633259 175:-0.525069 176:0.102743 177:-1 178:-0.16953 179:0.877978 180:0.104965 181:0.102926 182:-0.496735 183:0.843444 184:0.0611097 185:-0.964909 186:-0.126493 187:-0.772401 188:-0.422982 189:0.100646 190:-0.201931 191:-0.152896 192:1 193:0.0801068 194:-0.460204 195:-0.358908 
0.7376933562284028 0.5659742823020557 1:0.491347 2:-0.874384 3:-0.910203 4:-0.936072 5:-0.78271 6:-0.869113 7:-0.971347 8:-0.885928 9:-0.858729 10:-0.906757 11:-0.859366 12:-0.73282 13:-0.905529 14:0.256811 15:-0.976445 16:-0.689138 17:0.0129658 18:-0.151521 19:-0.430244 20:-0.527365 21:-0.0895917 22:0.260786 23:-0.263744 24:-0.499613 25:-0.114878 26:-0.275517 27:0.478078 28:-0.705977 29:-0.973391 30:-0.407321 31:0.237463 32:-0.0215435 33:-0.387066 34:-0.278164 35:-0.237357 36:-0.118459 37:-0.16452 38:0.192753 39:0.430871 40:0.771076 41:0.492056 42:0.18066 43:-0.143346 44:-0.0754001 45:-1 46:-0.412078 47:-0.227791 48:-0.301221 49:-0.48319 50:-1 51:0.394201 52:0.550518 53:0.856371 54:1 55:-0.391166 56:-0.344438 57:-0.230399 58:0.898103 59:0.488772 60:0.227385 61:0.367749 62:0.276278 63:0.614867 64:-0.0352478 65:0.211938 66:0.633986 67:0.447343 68:0.142824 69:-0.581495 70:0.304763 71:0.281596 72:0.738342 73:0.429842 74:0.102449 75:0.307046 76:0.0182405 77:-0.395936 78:-0.458331 79:0.722475 80:0.119589 81:-0.183579 82:-0.383744 83:-0.0173741 84:-0.112306 85:-0.256158 86:0.131698 87:0.166155 88:0.340729 89:-0.198186 90:-0.0332484 91:0.35015 92:0.863975 93:0.605388 94:-1 95:0.288059 96:-0.0726109 97:0.139057 98:0.186578 99:-0.0246909 100:1 101:-0.394885 102:0.545642 103:-1 104:1 105:0.79698 106:0.684609 107:-0.974306 108:-0.112121 109:-0.116128 110:0.992387 111:-0.286605 112:-0.535041 113:0.591053 114:0.278639 115:0.818835 116:-0.824698 117:1 118:0.80447 119:0.754095 120:-0.735463 121:-0.263292 122:-0.362497 123:1 124:-0.0268133 125:-0.789984 126:0.880255 127:0.00342316 128:0.797704 129:-1 130:1 131:0.747461 132:0.628838 133:-0.943301 134:-0.2176 135:-0.655327 136:0.892808 137:-0.235893 138:-1 139:0.968868 140:0.404456 141:0.440456 142:-1 143:1 144:0.695463 145:0.46808 146:-0.915203 147:-0.120892 148:-0.793637 149:-0.0866314 150:-0.671065 151:-1 152:0.657356 153:-0.276652 154:0.0533907 155:-1 156:1 157:0.74159 158:0.75141 159:-1 160:-0.0976197 161:-0.876961 162:0.398538 163:-0.168495 164:-0.708933 165:0.560383 166:-0.811995 167:0.518741 168:-1 169:1 170:0.742543 171:0.790096 172:-1 173:-0.0643568 174:-0.915378 175:0.440636 176:-0.344622 177:-0.790642 178:0.464045 179:-0.40093 180:0.623337 181:-1 182:1 183:0.748921 184:0.545417 185:-0.683779 186:-0.227453 187:-0.524079 188:0.314862 189:-0.467923 190:-0.827323 191:0.242579 192:-0.00191858 193:0.221643 194:-0.793094 195:0.910693 
0.07708195844328354 0.05771748737438631 1:0.891018 2:-1 3:-0.848021 4:-0.927921 5:-0.729338 6:-0.804899 7:-0.900841 8:-0.959573 9:-0.943722 10:-0.928875 11:-0.830355 12:-0.804899 13:-0.869414 14:0.746965 15:-0.90285 16:0.38727 17:0.00373007 18:0.438878 19:-0.176973 20:-0.296115 21:-0.363533 22:-0.0945104 23:-0.144324 24:-0.389131 25:-0.389568 26:-0.173205 27:1 28:-0.218315 29:-0.839253 30:-0.195056 31:0.962564 32:-0.0269218 33:-0.445485 34:-0.572592 35:-0.0381403 36:-0.260426 37:0.020122 38:0.220533 39:0.668424 40:0.874999 41:0.343516 42:0.633856 43:0.728825 44:0.670914 45:0.599495 46:0.0686896 47:0.172391 48:0.637225 49:-0.829932 50:0.01892 51:0.896985 52:0.676673 53:0.818249 54:0.0283556 55:0.570879 56:-0.151468 57:0.878601 58:0.841901 59:0.24836 60:1 61:0.401537 62:0.274041 63:0.388519 64:0.224736 65:0.697648 66:0.93882 67:0.751644 68:0.333769 69:0.299644 70:-0.559197 71:0.28717 72:0.42647 73:0.572194 74:0.0540968 75:-0.135212 76:0.230763 77:-0.0389823 78:-0.19595 79:0.713497 80:-0.598992 81:0.004995 82:-0.462434 83:0.493906 84:0.338525 85:-0.174255 86:-0.0665987 87:0.134806 88:0.306428 89:0.696031 90:-0.177529 91:0.315713 92:0.703839 93:-0.239284 94:-0.00999378 95:-0.409914 96:0.319256 97:0.216131 98:0.0144276 99:-0.139273 100:-0.0844006 101:0.390362 102:0.18886 103:-0.0525156 104:0.06142 105:0.757441 106:0.509045 107:0.231077 108:-0.449732 109:-0.0147492 110:0.283267 111:0.0410518 112:0.258706 113:-1 114:0.191625 115:0.150942 116:0.601345 117:0.0853579 118:0.73583 119:0.674619 120:0.257754 121:-0.56609 122:-0.169781 123:0.591693 124:0.15124 125:0.390413 126:-0.648376 127:0.0950974 128:0.0711428 129:0.663508 130:-0.299134 131:0.726177 132:0.647543 133:-0.264158 134:-0.279749 135:-0.359773 136:-0.0811372 137:0.503059 138:0.0683681 139:-0.40863 140:0.345446 141:0.269148 142:0.471855 143:-0.600992 144:0.703413 145:0.542531 146:-0.204509 147:-0.350377 148:-0.514353 149:-0.564274 150:-0.236358 151:0.122976 152:-1 153:0.368104 154:0.00179596 155:0.282676 156:-0.53465 157:0.722182 158:0.873576 159:-0.262817 160:-0.465614 161:-0.330479 162:-0.298581 163:0.00597154 164:0.208941 165:-0.553247 166:0.334425 167:-0.00833361 168:-0.189759 169:-0.448266 170:0.643219 171:0.849749 172:-0.0904079 173:-0.349443 174:-0.438263 175:-0.261649 176:0.0597974 177:0.178717 178:-1 179:0.378813 180:0.651759 181:0.198655 182:-0.744054 183:0.660818 184:0.657948 185:-0.300492 186:-0.529536 187:-0.411101 188:-0.129097 189:0.219971 190:0.0624546 191:-0.624261 192:0.531436 193:0.136213 194:-0.114159 195:-0.229812 
0.0569761995152959 0.05427950346478932 1:0.807806 2:-0.830324 3:-0.833577 4:-0.981785 5:-0.69499 6:-0.738225 7:-0.802753 8:-0.918683 9:-0.97824 10:-0.889911 11:-0.848462 12:-0.731661 13:-0.884266 14:0.621052 15:-0.812912 16:0.357475 17:-0.336832 18:0.344653 19:-0.0491865 20:0.0918083 21:-0.438169 22:-0.267076 23:-0.000191242 24:-0.352897 25:-0.0896027 26:-0.296886 27:0.811885 28:-0.125135 29:-0.431534 30:-0.568899 31:0.907239 32:0.489679 33:0.218222 34:-0.788438 35:-0.320333 36:0.387644 37:-0.118088 38:0.100129 39:0.503208 40:0.856839 41:0.774392 42:0.593653 43:0.168032 44:0.927396 45:-0.12932 46:-0.255229 47:0.141396 48:0.438135 49:-0.224139 50:-0.349958 51:0.676313 52:0.821183 53:0.706167 54:0.996537 55:0.611506 56:-0.29754 57:-0.148408 58:0.492353 59:1 60:0.801445 61:0.352896 62:-0.307432 63:0.379149 64:0.17902 65:0.528122 66:0.726738 67:0.800046 68:0.784724 69:0.289126 70:-0.645407 71:-0.00918343 72:0.557959 73:0.333921 74:0.206152 75:-0.130435 76:-0.248919 77:-0.515422 78:-0.0331736 79:0.603075 80:0.325403 81:0.379234 82:-0.359806 83:-0.358254 84:0.353032 85:0.0939254 86:0.514036 87:0.127786 88:-0.0748338 89:-0.20894 90:-0.363156 91:0.570597 92:0.642964 93:-0.430151 94:0.350265 95:-0.276546 96:0.0150176 97:0.621247 98:0.0342977 99:0.324605 100:0.110964 101:0.315981 102:0.246513 103:0.276608 104:0.00692252 105:0.703057 106:0.732029 107:0.442653 108:-0.425901 109:-0.238357 110:0.477366 111:0.273308 112:0.112033 113:-0.410857 114:0.358145 115:0.412409 116:0.198798 117:0.174154 118:0.67366 119:0.70821 120:0.476492 121:-0.34611 122:-0.196831 123:0.739991 124:0.250604 125:0.372383 126:-0.191902 127:0.441738 128:0.406038 129:0.428655 130:-0.0554389 131:0.591243 132:0.676541 133:0.379029 134:-0.208438 135:-0.259803 136:0.276234 137:0.327271 138:-0.148731 139:-0.266749 140:0.692215 141:0.655716 142:0.336244 143:-0.393894 144:0.543346 145:0.435944 146:0.221603 147:-0.218563 148:-0.496667 149:-0.27806 150:-0.217449 151:0.0113108 152:-0.568662 153:0.261158 154:-0.127165 155:0.326947 156:-0.275934 157:0.774735 158:0.900069 159:-0.280745 160:-0.327275 161:-0.893938 162:0.0698641 163:0.239483 164:-0.189165 165:-0.154577 166:0.184233 167:0.0930632 168:-0.0260555 169:-0.251231 170:0.57598 171:0.663253 172:0.283033 173:-0.292574 174:-0.628922 175:0.0295312 176:-0.0256053 177:-0.0404413 178:-0.341694 179:0.285158 180:0.422931 181:0.444592 182:-0.0922619 183:0.59647 184:0.560012 185:0.152715 186:-0.572565 187:-0.626765 188:-0.170444 189:0.0675296 190:-0.016971 191:-0.156785 192:0.281601 193:0.526843 194:0.109377 195:0.232122 
0.2899288610673374 0.2200976941795456 1:0.926398 2:-0.869039 3:-0.938877 4:-0.905041 5:-0.695586 6:-0.891726 7:-1 8:-0.983688 9:-0.936799 10:-0.85653 11:-0.729755 12:-0.739021 13:-0.874877 14:0.572027 15:-0.908759 16:-0.48943 17:0.325925 18:0.503736 19:-0.779221 20:-0.187274 21:-0.610391 22:-0.0129534 23:-0.0791592 24:-0.239679 25:-0.17117 26:-0.39928 27:0.679386 28:-0.546849 29:-0.767787 30:-0.0838733 31:0.736145 32:-0.190251 33:1 34:-0.268055 35:-0.326345 36:0.15135 37:0.0346401 38:0.156786 39:0.50111 40:0.898106 41:0.443178 42:1 43:0.3786 44:0.554773 45:-0.128734 46:-0.70387 47:0.564463 48:0.314761 49:-0.462183 50:0.0310733 51:1 52:0.814081 53:0.826465 54:-0.0612676 55:0.703371 56:-0.161072 57:1 58:0.538373 59:-0.116597 60:0.874471 61:0.98789 62:0.725783 63:-0.180811 64:0.174291 65:0.240222 66:0.669337 67:-0.111172 68:0.73032 69:0.00795716 70:0.387845 71:0.285598 72:-0.19237 73:0.633336 74:0.199097 75:0.295082 76:-0.142166 77:-0.0843238 78:-0.29812 79:1 80:0.451397 81:-0.263102 82:0.0186318 83:0.133354 84:-0.671872 85:-0.932227 86:-0.561781 87:0.800693 88:0.0123009 89:0.174684 90:0.160572 91:0.39321 92:0.974078 93:0.453915 94:-0.163607 95:0.808636 96:0.045907 97:-0.505151 98:-0.32292 99:-1 100:0.704694 101:-0.139638 102:0.570981 103:0.234062 104:-0.149019 105:0.935094 106:0.343435 107:0.119513 108:1 109:0.137339 110:-0.74111 111:0.179522 112:-1 113:0.954043 114:-0.80831 115:0.548623 116:-0.276609 117:-0.0978565 118:1 119:0.662138 120:0.0437376 121:0.152594 122:-0.288279 123:0.30855 124:-0.081849 125:-0.462124 126:0.815995 127:-0.138741 128:0.639746 129:-0.247327 130:-0.336292 131:0.984776 132:0.490722 133:-0.262242 134:0.0710976 135:-0.296908 136:-0.585247 137:-0.0658471 138:-0.137125 139:0.54182 140:0.915266 141:0.0898954 142:0.147398 143:-0.590155 144:0.962822 145:0.265265 146:-0.324588 147:-0.153459 148:-0.381192 149:-0.63367 150:-0.47466 151:-0.0994292 152:-0.185662 153:0.848484 154:-0.201494 155:0.29611 156:-0.587545 157:0.988478 158:0.491225 159:-0.654406 160:-0.168308 161:-0.304995 162:-0.493454 163:-0.104911 164:-0.144172 165:-0.246374 166:0.543238 167:-0.26688 168:-0.0893067 169:-0.628186 170:0.848965 171:0.449267 172:-0.382564 173:-0.0713066 174:-0.342809 175:-0.351648 176:0.105891 177:-0.033516 178:-0.360488 179:0.568285 180:0.115273 181:0.176881 182:-0.468141 183:0.877739 184:0.50483 185:-0.612097 186:-0.584382 187:-0.0874355 188:-0.205368 189:-0.0934571 190:-0.0623063 191:-0.317937 192:0.539113 193:0.454492 194:0.15474 195:-0.189726 
-0 0.2960299431820705 1:-1 2:0.329594 3:0.499184 4:0.793598 5:0.73183 6:0.793234 7:0.587231 8:0.643426 9:0.587217 10:0.627188 11:0.57845 12:0.595903 13:0.571508 14:0.358188 15:0.524864 16:-0.496656 17:0.343134 18:0.550741 19:-0.0089841 20:0.121636 21:0.719393 22:-0.366941 23:0.0732367 24:-0.0373822 25:0.130485 26:0.127684 27:-0.859647 28:-0.153389 29:-0.0929028 30:-0.101711 31:0.316959 32:0.378806 33:-0.00893438 34:0.0584652 35:-0.537992 36:0.339433 37:-0.188863 38:0.131604 39:0.391491 40:-0.711477 41:0.428166 42:0.426496 43:0.00782907 44:0.512191 45:0.17225 46:-0.147829 47:0.484696 48:0.245692 49:0.229524 50:-0.740768 51:0.318952 52:0.0237476 53:-0.794044 54:0.07534 55:-0.100597 56:-0.399786 57:0.0286384 58:0.155483 59:0.103779 60:-0.0568984 61:-0.0817928 62:0.178 63:0.00217891 64:0.341001 65:-0.222311 66:-1 67:-0.231443 68:0.292492 69:-0.84514 70:-1 71:-1 72:-0.859485 73:-0.716739 74:-0.723192 75:-0.612114 76:-0.545553 77:-0.422813 78:-0.275372 79:-0.783368 80:0.715228 81:-0.0165302 82:-0.396002 83:0.285538 84:0.31165 85:0.701671 86:0.376593 87:0.263259 88:0.207698 89:-0.249953 90:-0.183188 91:-0.241885 92:-0.836583 93:0.103416 94:-0.260804 95:0.445841 96:0.526771 97:-0.243307 98:-0.251754 99:0.364591 100:0.196376 101:0.604603 102:0.448015 103:0.457708 104:0.0400056 105:-0.797418 106:-0.397803 107:0.216277 108:0.414571 109:0.657181 110:0.191437 111:0.241622 112:0.360846 113:-0.117507 114:-0.259638 115:-0.157647 116:0.263335 117:0.134718 118:-0.682191 119:0.463827 120:0.341097 121:-0.154384 122:0.128895 123:0.588055 124:0.0957679 125:0.629561 126:0.622373 127:0.233756 128:-0.174768 129:0.184521 130:-0.636257 131:-0.942515 132:-0.287372 133:-0.146537 134:-0.190368 135:0.131807 136:0.240799 137:0.219243 138:0.0603258 139:-0.309498 140:0.558621 141:0.100143 142:0.706392 143:-0.207486 144:-0.877838 145:0.4531 146:0.686557 147:0.617379 148:0.246268 149:-0.0288259 150:0.345656 151:0.193751 152:-0.129232 153:0.263224 154:-1 155:0.518595 156:-0.473035 157:-0.897091 158:-0.168346 159:0.145924 160:0.104389 161:0.349843 162:0.0377343 163:0.430993 164:0.738683 165:0.888437 166:-0.176961 167:-0.295573 168:0.05165 169:-0.458605 170:-0.813801 171:-0.0145025 172:0.702924 173:0.436036 174:0.394909 175:0.478848 176:0.612523 177:-0.00584458 178:-0.597798 179:-0.149176 180:-0.227684 181:0.280259 182:-0.0554378 183:-0.907342 184:-0.15786 185:-0.297532 186:1 187:0.248269 188:0.0778875 189:0.353309 190:0.471924 191:0.177888 192:0.00957194 193:-0.0767011 194:-0.282472 195:-0.485096 
-0 0.8935032613584666 1:0.612047 2:0.951228 3:0.841277 4:0.838119 5:0.970678 6:1 7:0.749736 8:0.748726 9:0.764898 10:0.768951 11:0.676458 12:0.741273 13:0.789978 14:0.734238 15:0.819967 16:0.306198 17:0.010158 18:0.141881 19:-0.0432375 20:0.126023 21:-0.339071 22:0.0140023 23:0.150735 24:-0.0875029 25:0.161315 26:0.13124 27:-0.88014 28:-0.216636 29:-0.182855 30:-0.156561 31:0.553791 32:0.1376 33:-0.146096 34:-0.137329 35:-0.153086 36:0.370722 37:-0.461165 38:-0.105617 39:0.246695 40:-0.750333 41:0.176193 42:0.133639 43:-0.0531328 44:0.337068 45:0.192285 46:0.0387351 47:0.454298 48:0.425645 49:0.0394719 50:0.41709 51:0.79989 52:0.00157956 53:-0.811677 54:0.264534 55:0.146018 56:-0.152723 57:0.0301229 58:0.0610726 59:0.188417 60:0.29107 61:-0.540208 62:-0.496962 63:-0.296706 64:-0.204515 65:0.0130482 66:-0.737972 67:-0.673102 68:-0.786533 69:-0.765815 70:-0.495398 71:-0.77104 72:-1 73:-0.643015 74:-0.662238 75:-0.42091 76:-0.460881 77:-0.740885 78:-0.484692 79:-0.735024 80:-0.0221397 81:-0.151707 82:-0.111303 83:0.177769 84:-0.143048 85:-9.98516e-05 86:0.158874 87:0.283911 88:0.113628 89:0.475757 90:0.272581 91:-0.74897 92:-1 93:-0.526586 94:-0.582233 95:-0.679287 96:-0.594134 97:-0.32343 98:-0.286077 99:-0.338038 100:-0.476672 101:-0.166083 102:-0.584052 103:-0.559418 104:-0.487864 105:-0.908737 106:-0.541075 107:-0.344896 108:-0.656515 109:0.0485011 110:-0.182541 111:-0.437669 112:-0.100918 113:0.23479 114:0.0950315 115:-0.484291 116:-0.257973 117:-0.176076 118:-0.66903 119:0.275962 120:0.235205 121:-0.318097 122:0.119362 123:0.674193 124:-0.00144887 125:0.105035 126:0.398902 127:0.219797 128:-0.549436 129:-0.139273 130:-0.765706 131:-0.966629 132:-0.567229 133:-0.568228 134:-0.305427 135:-0.206662 136:-0.066282 137:0.408836 138:0.53025 139:0.661099 140:-0.207462 141:-0.299775 142:0.366553 143:0.190607 144:-0.897292 145:-0.251513 146:0.294688 147:0.453028 148:0.309829 149:-0.183334 150:-0.0343574 151:-0.0668902 152:-0.258309 153:-0.565069 154:-0.506333 155:0.634466 156:-0.541425 157:-0.899875 158:0.499844 159:0.525585 160:0.391649 161:0.730514 162:0.483443 163:0.452916 164:0.371301 165:0.641305 166:-0.0488464 167:-0.464158 168:-0.306707 169:-0.358956 170:-0.843646 171:-0.324898 172:-0.0760506 173:0.246293 174:0.0508887 175:0.0997785 176:0.484363 177:0.015991 178:-0.304141 179:0.0110394 180:-0.586655 181:0.679016 182:-0.134863 183:-0.874454 184:-0.00597564 185:0.348227 186:0.631714 187:0.275143 188:-0.0235574 189:0.210888 190:0.526685 191:0.0420736 192:0.357825 193:-0.193543 194:-0.421007 195:-0.13217 
-0.07839137494415951 2 1:0.721636 2:0.781012 3:0.95958 4:0.775855 5:0.691724 6:0.379906 7:0.817608 8:0.92171 9:0.957229 10:0.973428 11:0.841429 12:0.852791 13:0.889396 14:0.801903 15:0.916403 16:0.0672349 17:0.570242 18:0.77129 19:0.0232192 20:-0.244399 21:-0.0107966 22:0.497028 23:0.219291 24:-0.0508946 25:0.221282 26:0.228251 27:-0.84606 28:-0.0910546 29:-0.043611 30:0.0556286 31:0.306082 32:1 33:0.609708 34:-0.680936 35:-0.169717 36:0.445901 37:-0.551936 38:-0.629682 39:-0.236977 40:-0.861229 41:-0.183558 42:-0.0795315 43:-0.533579 44:-0.203288 45:-0.349463 46:1 47:1 48:1 49:-0.242435 50:-0.396667 51:0.495612 52:0.921039 53:-0.795755 54:0.431183 55:0.273421 56:-0.115331 57:0.39376 58:0.682445 59:0.520207 60:0.69519 61:0.152452 62:0.535068 63:0.254259 64:0.105125 65:0.183503 66:-0.675925 67:-0.271885 68:-0.18512 69:-0.436734 70:-0.25081 71:-0.187697 72:-0.135417 73:-0.00862162 74:-0.155164 75:-0.196621 76:-0.826307 77:-0.786989 78:-0.779119 79:-0.791708 80:-0.00581356 81:-0.0986634 82:-0.47451 83:0.387742 84:0.855111 85:0.760754 86:0.630765 87:0.575214 88:0.295755 89:0.378332 90:-0.109559 91:-0.686651 92:-0.90446 93:-0.427032 94:-0.371891 95:0.19306 96:0.42718 97:-0.361053 98:0.191831 99:-0.105299 100:-0.272089 101:-0.0791415 102:-0.282496 103:-0.0952383 104:-0.406076 105:-0.870428 106:-0.473677 107:0.105664 108:0.0120704 109:0.466684 110:0.326614 111:0.000468123 112:0.31895 113:0.0844324 114:-0.0384677 115:-0.296328 116:0.0734976 117:-0.0435746 118:-0.7019 119:0.239496 120:0.332687 121:0.355226 122:0.0426235 123:0.447293 124:0.225714 125:0.701053 126:0.28989 127:0.140218 128:-0.0492628 129:0.60077 130:-0.153859 131:-0.821029 132:0.089716 133:0.466034 134:0.39511 135:0.54384 136:0.434907 137:0.18904 138:-0.191949 139:0.819278 140:0.311248 141:-0.00540409 142:0.534551 143:-0.172648 144:-0.865468 145:-0.00784664 146:0.374265 147:0.206521 148:-0.0376039 149:-0.431587 150:-0.330949 151:0.0147421 152:-0.029057 153:0.429714 154:-0.437426 155:0.30787 156:-0.174477 157:-0.939349 158:-0.446892 159:0.127609 160:0.132452 161:0.0115763 162:-0.393375 163:-0.188781 164:-0.173304 165:-0.584272 166:0.0175535 167:-0.148215 168:-0.137262 169:-0.175619 170:-0.803261 171:0.0429646 172:0.126389 173:0.0130502 174:-0.359241 175:-0.582028 176:-0.304402 177:-0.120756 178:-0.575473 179:-0.0669104 180:-0.514701 181:0.364188 182:0.105745 183:-0.768817 184:0.114902 185:0.353547 186:0.517889 187:0.444702 188:0.202065 189:0.546828 190:0.736459 191:0.442762 192:0.456793 193:0.302357 194:0.318454 195:0.242236 
-0.2812049774927166 0.7495247174800871 1:0.7767 2:0.880498 3:1 4:0.856114 5:1 6:0.902892 7:0.791068 8:0.961809 9:0.851148 10:0.798201 11:0.696493 12:0.762417 13:0.818989 14:0.74664 15:0.878998 16:0.149815 17:0.299797 18:0.639166 19:-0.334695 20:0.280749 21:-0.766361 22:-0.590662 23:0.0139884 24:-0.099557 25:0.128208 26:0.0929714 27:-0.893946 28:-0.320975 29:-0.236852 30:-0.144431 31:0.315086 32:0.494016 33:0.510861 34:0.142773 35:-0.0869734 36:-0.000787574 37:-0.463359 38:-0.294176 39:0.69759 40:-0.650343 41:0.793336 42:0.724337 43:0.155315 44:0.441368 45:0.308277 46:0.452192 47:0.79892 48:0.572474 49:0.190838 50:-0.355013 51:0.47297 52:0.342834 53:-0.803297 54:0.204276 55:0.0985971 56:-0.187713 57:0.292061 58:0.285698 59:0.187398 60:0.273872 61:-0.12926 62:0.192676 63:-0.393536 64:0.552653 65:-0.802417 66:-0.722324 67:-0.0997498 68:-0.254728 69:-0.761715 70:-0.587876 71:-0.70528 72:-0.628928 73:-0.326797 74:-0.401878 75:-0.5846 76:-0.475468 77:-0.387983 78:-0.319366 79:-0.80936 80:-0.814638 81:-0.267377 82:-0.312715 83:-0.379104 84:-0.98769 85:-1 86:-0.876408 87:-0.863904 88:-1 89:-1 90:-1 91:0.941697 92:-0.777268 93:0.546402 94:-0.239097 95:1 96:0.367501 97:0.478244 98:0.550579 99:1 100:0.480228 101:0.641964 102:0.503971 103:1 104:0.320691 105:-0.684007 106:-0.408629 107:-0.00363836 108:-0.660316 109:0.419841 110:0.286348 111:-0.181907 112:0.311307 113:-0.930099 114:0.263884 115:-0.236346 116:0.0728792 117:0.0649649 118:-0.698407 119:0.222187 120:0.262904 121:-0.404188 122:0.12029 123:0.56685 124:0.590911 125:0.623312 126:0.429878 127:0.307114 128:0.207408 129:0.333638 130:-0.151541 131:-0.81611 132:0.203852 133:0.389167 134:0.0289795 135:0.342719 136:0.594023 137:0.455926 138:-0.413552 139:-0.24262 140:0.0233465 141:0.02304 142:0.611697 143:-0.305255 144:-0.988157 145:-0.704443 146:-0.0367228 147:-0.0935078 148:-0.394397 149:-0.638221 150:-0.464037 151:-0.0799212 152:-0.241268 153:-0.0108222 154:-0.782641 155:0.603734 156:-0.418056 157:-0.942507 158:0.799741 159:0.375379 160:0.548151 161:0.692717 162:0.284623 163:0.534188 164:0.758371 165:1 166:0.301364 167:-0.0799544 168:0.348878 169:-0.265532 170:-0.861197 171:0.07066 172:0.33806 173:0.477772 174:0.261382 175:-0.0589276 176:-0.236751 177:-0.194805 178:0.146058 179:0.213732 180:0.40709 181:0.693579 182:-0.0620486 183:-0.956476 184:-0.536584 185:0.711916 186:0.480087 187:0.155927 188:-0.739829 189:0.192064 190:0.216501 191:-0.107542 192:0.121273 193:-0.0803379 194:0.197339 195:0.00806233 
-0.07148939393063483 0.1241159335813346 1:0.102433 2:0.784146 3:0.651338 4:0.92722 5:0.906338 6:0.813301 7:0.580337 8:0.432723 9:0.856972 10:0.863592 11:0.710703 12:0.678806 13:0.616297 14:0.525635 15:0.673942 16:-0.063784 17:0.365552 18:0.34754 19:0.415247 20:-0.799595 21:-0.921642 22:-0.578395 23:-0.784022 24:0.03291 25:0.173339 26:0.20722 27:-0.846803 28:0.0333737 29:-0.0283342 30:0.0461186 31:-0.0866068 32:0.236732 33:-0.300963 34:-0.770383 35:-0.273638 36:0.0480358 37:-0.300971 38:0.145558 39:-0.35349 40:-0.795728 41:0.106941 42:0.238609 43:-0.169911 44:0.0154251 45:0.0147144 46:0.352204 47:-0.00124121 48:0.273553 49:-0.242193 50:-0.221502 51:0.53674 52:0.514292 53:-0.753156 54:0.186365 55:-0.348674 56:-0.455726 57:0.253188 58:0.414692 59:0.287269 60:0.438903 61:0.346627 62:-0.46556 63:-0.418911 64:-1 65:-0.772019 66:-0.89661 67:-0.877444 68:-1 69:-0.848501 70:-0.616355 71:-0.654424 72:-0.684018 73:-0.472643 74:-0.70786 75:-0.738163 76:-0.313714 77:-0.54898 78:-0.261901 79:-0.778833 80:0.294207 81:-0.16292 82:-0.30226 83:0.116604 84:-0.201809 85:0.276223 86:0.0136716 87:0.0268311 88:-0.527562 89:-0.356006 90:-0.370408 91:0.607087 92:-0.905149 93:0.101097 94:0.0142824 95:0.468346 96:0.206866 97:0.172206 98:0.144768 99:0.487953 100:-0.0940713 101:0.226744 102:-0.043403 103:0.2094 104:-0.155669 105:-0.807134 106:-0.479316 107:-0.417798 108:-0.397836 109:0.49788 110:-0.317461 111:-0.214738 112:-0.0108812 113:-0.503771 114:-0.744467 115:-0.442277 116:0.216814 117:-0.0461844 118:-0.720268 119:0.168241 120:0.17304 121:-0.629431 122:-0.188212 123:0.367915 124:0.0581478 125:0.747032 126:0.287347 127:0.491183 128:0.109966 129:-0.0558956 130:-0.762236 131:-0.942543 132:-0.703733 133:-0.245418 134:-0.667625 135:-0.364339 136:0.439466 137:1 138:0.405416 139:0.408992 140:0.627735 141:-0.202388 142:0.183096 143:-0.69259 144:-0.77969 145:0.722156 146:0.742046 147:0.283175 148:0.0958462 149:-0.269483 150:0.278631 151:0.241123 152:-0.263483 153:0.109965 154:-0.216719 155:0.133634 156:-0.411969 157:-0.942883 158:-0.259764 159:0.335527 160:0.269329 161:0.34277 162:0.399181 163:0.456129 164:0.487009 165:0.741367 166:-0.341271 167:-0.431899 168:0.0839358 169:-0.205692 170:-0.78558 171:0.296521 172:0.644767 173:0.991473 174:-0.227062 175:0.0137556 176:0.285218 177:0.379843 178:0.209657 179:0.096765 180:-0.103783 181:0.586259 182:0.219863 183:-0.791888 184:0.77617 185:1 186:0.647694 187:0.46024 188:0.106585 189:0.140599 190:0.00110193 191:0.049582 192:0.365059 193:0.400963 194:0.538274 195:0.579045 
-0.05527933308994468 1.475032263295713 1:0.724302 2:0.759852 3:0.825893 4:0.848324 5:0.845269 6:0.961471 7:0.653446 8:0.355801 9:0.711657 10:0.729481 11:0.618634 12:0.582632 13:0.627745 14:0.528793 15:0.697638 16:0.382172 17:0.304257 18:0.745462 19:0.0130713 20:0.198575 21:0.65828 22:0.780955 23:-0.548378 24:-0.0479879 25:0.216499 26:0.217565 27:-0.857586 28:-0.104975 29:-0.0170501 30:0.0381557 31:-0.0451364 32:-1 33:-0.0417199 34:-0.083475 35:-0.0617357 36:-0.0396842 37:-0.210654 38:0.398626 39:0.683685 40:-0.679558 41:0.596142 42:0.700171 43:0.0625466 44:0.374422 45:0.19284 46:0.628427 47:0.709816 48:0.732145 49:0.776058 50:0.949236 51:0.346904 52:0.44473 53:-0.713372 54:0.314065 55:0.199974 56:-0.0754702 57:0.511941 58:0.688449 59:0.157155 60:0.240739 61:0.0829626 62:0.19496 63:0.0642806 64:0.305663 65:0.35158 66:-0.788287 67:-0.696125 68:-0.497298 69:-0.582 70:-0.427826 71:-0.451266 72:-0.336296 73:-0.0993928 74:-0.205161 75:-0.358441 76:-0.306912 77:-0.547995 78:-0.482688 79:-0.811259 80:-0.387671 81:-0.194776 82:-0.709341 83:0.115141 84:0.231055 85:0.0237443 86:0.325481 87:0.254992 88:0.0570701 89:0.305601 90:0.00578737 91:-0.195595 92:-0.764113 93:-0.0457516 94:-0.0992279 95:-0.156942 96:0.725643 97:0.370673 98:-0.154425 99:-0.0754354 100:-0.1624 101:-0.392395 102:-0.531456 103:0.117951 104:-0.131478 105:-0.75746 106:-0.737118 107:0.402203 108:-0.249911 109:0.416903 110:-0.0854143 111:-0.0260126 112:0.245212 113:-0.863412 114:0.547015 115:0.0213375 116:0.525207 117:0.480768 118:-0.60326 119:0.651471 120:0.755345 121:-0.453775 122:0.167471 123:0.489824 124:-0.171596 125:0.25833 126:0.368341 127:-0.00629373 128:-0.0615062 129:-0.0623778 130:-0.473948 131:-0.896239 132:-0.595558 133:-0.273172 134:-0.662983 135:-0.127723 136:0.108964 137:0.33815 138:0.284791 139:-0.450751 140:-0.331836 141:-0.243191 142:0.0703566 143:-0.182453 144:-0.868145 145:-0.00720445 146:0.313602 147:0.303063 148:0.074565 149:-0.198435 150:-0.062186 151:0.0945675 152:-0.377276 153:-0.403153 154:-0.686125 155:0.251388 156:0.154513 157:-0.858847 158:0.235388 159:0.429695 160:0.308849 161:0.452394 162:0.471512 163:0.266615 164:0.538725 165:0.65812 166:0.171823 167:0.050643 168:0.0107995 169:0.0264906 170:-0.805099 171:0.520635 172:0.608592 173:0.517934 174:0.17533 175:0.041724 176:-0.214522 177:-0.182867 178:0.0605008 179:-0.176756 180:-0.0652612 181:0.31583 182:0.123548 183:-0.847964 184:-0.65895 185:0.282244 186:-0.149076 187:-0.19854 188:0.0379299 189:0.0450375 190:0.243916 191:0.450794 192:0.33367 193:0.225303 194:-0.0825111 195:0.175431 
-0 0.0971295928249037 1:0.570896 2:0.584114 3:0.598653 4:0.747762 5:0.801602 6:0.714705 7:0.7031 8:0.862251 9:0.677936 10:0.726079 11:0.703431 12:0.72292 13:0.74094 14:0.645706 15:0.768317 16:0.452525 17:0.454678 18:0.905874 19:-0.901859 20:0.669028 21:-0.652436 22:-0.344424 23:0.29833 24:0.0884159 25:0.374212 26:0.294187 27:-0.806103 28:0.116591 29:0.165573 30:0.155241 31:0.501734 32:0.0540573 33:0.648638 34:-0.161942 35:0.0737224 36:0.4673 37:-0.303312 38:-0.303838 39:0.450567 40:-0.775932 41:0.00703093 42:-0.0432825 43:-0.461699 44:-0.0857343 45:0.335475 46:0.210371 47:0.0816302 48:0.431639 49:-0.144353 50:-0.201102 51:0.586316 52:0.655082 53:-0.787998 54:0.305067 55:0.218047 56:-0.0075488 57:0.555845 58:0.712432 59:0.563507 60:0.307394 61:0.230949 62:-0.686558 63:-0.0190583 64:0.073152 65:-0.805497 66:-0.752782 67:-0.271943 68:-0.336676 69:-0.714773 70:-0.691103 71:-0.947836 72:-0.841769 73:-0.682143 74:-0.579141 75:-0.34491 76:0.316684 77:-0.30247 78:-0.239289 79:-0.693023 80:0.116368 81:0.33517 82:-0.188053 83:0.130528 84:-0.232712 85:0.0270326 86:0.0619427 87:0.262492 88:0.273259 89:0.102922 90:-0.177458 91:0.533273 92:-0.780254 93:-0.0933058 94:-0.421871 95:0.0846121 96:0.159183 97:0.107994 98:0.212184 99:0.48968 100:0.339353 101:0.536255 102:0.194836 103:0.155669 104:-0.160657 105:-0.810615 106:-0.18678 107:0.46334 108:-0.256733 109:0.171024 110:0.513485 111:0.0493346 112:-0.0429838 113:-0.476215 114:-0.207763 115:-0.384228 116:0.0678758 117:-0.122229 118:-0.699998 119:0.099913 120:0.201784 121:-0.0119147 122:-0.0143099 123:0.550743 124:1 125:0.668209 126:0.266187 127:0.10002 128:-0.0556098 129:0.416585 130:-0.366168 131:-0.911848 132:-0.218212 133:0.152665 134:0.16913 135:0.265265 136:-0.0031346 137:-0.0358458 138:0.148305 139:0.53408 140:-0.0600103 141:-0.0546337 142:0.385559 143:0.00198081 144:-0.939545 145:-0.405202 146:0.355256 147:0.29268 148:-0.00664625 149:-0.358165 150:-0.195383 151:0.0984476 152:-0.521652 153:0.348892 154:-0.442158 155:0.417942 156:-0.230804 157:-0.859612 158:0.506535 159:0.118897 160:0.149203 161:0.503499 162:0.0853755 163:0.317345 164:0.436487 165:0.632542 166:-0.370649 167:-0.487643 168:0.0268339 169:-0.565656 170:-0.842213 171:-0.169182 172:0.0603282 173:-0.156286 174:0.9922 175:1 176:0.821114 177:0.795847 178:0.653268 179:0.550568 180:0.150398 181:0.118716 182:0.210496 183:-0.87312 184:-0.327221 185:0.406495 186:0.493071 187:0.10037 188:-0.186491 189:-0.211487 190:-0.368422 191:-0.259745 192:-0.188637 193:-0.563281 194:-0.592461 195:-0.0841609 
-0.7907117830200525 0.331857181882712 1:-0.964309 2:-0.317693 3:-0.243555 4:0.301532 5:0.139896 6:0.57821 7:0.223929 8:0.747304 9:0.707485 10:0.531818 11:0.453844 12:0.333439 13:0.462914 14:0.157797 15:0.342485 16:-0.448527 17:-0.500731 18:-0.0805313 19:1 20:-0.824878 21:0.565172 22:-0.843381 23:-0.0382513 24:-0.302353 25:0.112073 26:0.274022 27:-0.852124 28:-0.14087 29:-0.203905 30:0.102945 31:0.419912 32:-0.462174 33:-0.693827 34:1 35:1 36:0.632109 37:1 38:-0.344069 39:0.467491 40:-0.681764 41:0.64574 42:0.599886 43:-0.149653 44:0.106414 45:0.0590813 46:-0.164104 47:-1 48:-1 49:-1 50:-0.27971 51:-1 52:-1 53:-0.967722 54:-1 55:-1 56:-1 57:-1 58:-1 59:-1 60:-1 61:0.0623553 62:0.0324415 63:-0.0250903 64:1 65:0.858521 66:-0.799002 67:-0.446705 68:-0.417372 69:-0.539817 70:-0.296768 71:-0.680624 72:-0.797163 73:-1 74:-1 75:-0.851389 76:-0.410452 77:1 78:1 79:-0.64269 80:0.0103751 81:1 82:1 83:0.344863 84:0.609264 85:0.544646 86:0.726561 87:0.771602 88:1 89:1 90:0.717189 91:-0.00398622 92:-0.754503 93:0.560421 94:-0.883677 95:-1 96:-0.508629 97:-0.671566 98:-0.190643 99:-0.516425 100:-0.573039 101:-0.146754 102:-0.356992 103:0.308427 104:-0.0794555 105:-0.813875 106:-0.433957 107:0.696903 108:0.858557 109:-1 110:-0.0742275 111:-0.0872388 112:0.0775717 113:-0.549369 114:-0.95179 115:-1 116:-1 117:-1 118:-1 119:-1 120:-1 121:-0.259944 122:-1 123:-1 124:-0.36947 125:0.105548 126:0.554712 127:0.264282 128:0.497047 129:0.522143 130:-0.433199 131:-0.882744 132:-0.176985 133:-0.0273086 134:-0.322872 135:0.517239 136:0.17569 137:0.831875 138:0.711444 139:0.939639 140:0.537839 141:-0.141484 142:0.317847 143:-0.0895204 144:-0.791412 145:-0.0678212 146:0.567225 147:0.665797 148:1 149:1 150:1 151:0.19054 152:-0.551113 153:-0.605356 154:1 155:0.894166 156:0.100361 157:-0.847287 158:-1 159:0.192733 160:0.236034 161:0.213134 162:-0.189878 163:-1 164:-1 165:-1 166:-0.0332425 167:1 168:1 169:-0.195904 170:-1 171:0.178908 172:-0.113649 173:0.0594635 174:0.359647 175:-0.0263153 176:0.389339 177:-0.0781164 178:0.0610039 179:0.160359 180:-0.236894 181:0.455095 182:0.0431879 183:-0.857664 184:0.1326 185:-0.0312968 186:0.124257 187:-0.598521 188:0.378623 189:0.36354 190:0.220061 191:0.172136 192:0.151427 193:0.295813 194:0.346218 195:0.557036 
-0.3455515688090015 0.6502631659450021 1:0.391461 2:0.989715 3:0.797678 4:0.880216 5:0.861133 6:0.902161 7:0.790912 8:1 9:0.925173 10:0.897011 11:0.782244 12:0.809835 13:0.857621 14:0.845561 15:1 16:-0.0051828 17:-0.511766 18:-0.184769 19:-0.394504 20:-0.563985 21:-0.710975 22:-0.079474 23:-0.280574 24:-0.4156 25:-0.0196515 26:-0.204062 27:-0.977789 28:-0.572277 29:-0.497824 30:-0.425294 31:0.173325 32:-0.551474 33:-0.640317 34:0.230109 35:-0.192198 36:0.128777 37:-0.175163 38:-0.127265 39:0.41794 40:-0.724517 41:0.447943 42:0.432363 43:-0.157142 44:0.25692 45:0.162483 46:0.186992 47:0.298347 48:0.327681 49:0.160663 50:-0.89632 51:0.220437 52:0.818343 53:-0.752097 54:0.147449 55:-0.169689 56:-0.40217 57:-0.0209277 58:-0.00723673 59:-0.0583587 60:0.10369 61:0.492349 62:0.221099 63:-0.144943 64:0.263165 65:-0.216048 66:-0.750071 67:0.315098 68:0.516161 69:-0.26534 70:-0.0957581 71:-0.093288 72:-0.10517 73:0.278716 74:0.0497446 75:0.0861389 76:0.0889385 77:-0.0398475 78:0.0635322 79:-0.826621 80:-0.238526 81:-0.320479 82:-0.430981 83:-0.197408 84:0.291893 85:0.837593 86:0.812384 87:0.849296 88:0.527529 89:0.386156 90:0.245831 91:-0.107759 92:-0.861856 93:0.0443499 94:-0.693004 95:-0.287207 96:-0.244617 97:-1 98:-1 99:-0.435677 100:-1 101:-0.975457 102:-0.818651 103:-0.387608 104:-0.633167 105:-0.94123 106:-0.58184 107:-0.253617 108:-0.451043 109:1 110:0.464857 111:0.0924177 112:0.175167 113:-0.332145 114:-0.0988957 115:-0.178927 116:0.167912 117:0.172804 118:-0.677498 119:0.0351602 120:0.27552 121:-0.469575 122:-0.450479 123:0.186193 124:-0.198528 125:0.368296 126:0.245745 127:-0.542052 128:-0.779081 129:-0.509916 130:-0.886846 131:-1 132:-0.842595 133:-0.407414 134:-0.589818 135:-0.197993 136:-0.0314772 137:-0.029093 138:0.133906 139:-0.420019 140:0.576221 141:0.00712895 142:0.256687 143:-0.315738 144:-0.978437 145:-0.986521 146:-0.444538 147:-0.0748289 148:-0.0135031 149:-0.461737 150:-0.275776 151:0.236361 152:-0.144178 153:0.542358 154:-0.136874 155:0.675134 156:-0.10138 157:-0.912669 158:0.713549 159:0.515236 160:0.600404 161:0.749739 162:0.810475 163:0.76116 164:0.604342 165:0.769664 166:0.0833298 167:0.0919262 168:0.0723795 169:-0.0687227 170:-0.889125 171:-0.205928 172:0.329743 173:0.718739 174:0.891814 175:0.49086 176:0.50189 177:0.331444 178:-0.404646 179:-0.261509 180:-0.216207 181:-0.232609 182:-0.350101 183:-0.874775 184:-0.0173818 185:-0.345224 186:-0.393847 187:0.0575614 188:-0.15018 189:0.263089 190:0.549131 191:0.350475 192:-0.0946723 193:-0.694534 194:-0.628188 195:-0.736703 
-0 0.7717725826482171 1:0.377109 2:0.732603 3:0.945941 4:0.626298 5:0.791256 6:0.871276 7:0.722853 8:0.735417 9:0.906184 10:0.922932 11:0.852948 12:0.904165 13:0.896458 14:0.776384 15:0.880401 16:0.179849 17:0.121873 18:0.362173 19:0.113667 20:0.184305 21:-0.187975 22:-0.505361 23:0.381462 24:0.036934 25:0.256489 26:0.231815 27:-0.872699 28:-0.143811 29:-0.0533367 30:-0.0456424 31:0.254313 32:-0.0585381 33:0.0746671 34:-0.346383 35:-0.44583 36:0.495903 37:-0.237201 38:0.104485 39:0.332707 40:-0.753604 41:0.132368 42:0.0389968 43:-0.313507 44:0.155066 45:0.410172 46:-0.115035 47:0.204852 48:0.201762 49:-0.294792 50:-0.829386 51:0.349291 52:-0.0329297 53:-0.892535 54:-0.131652 55:-0.30319 56:-0.49065 57:0.0318094 58:0.243707 59:0.123744 60:0.420993 61:-0.495827 62:-0.650996 63:-0.487279 64:-0.0685884 65:-0.084201 66:-0.595976 67:0.432777 68:-0.477301 69:-0.208103 70:-0.115368 71:-0.020269 72:-0.0182913 73:0.124185 74:0.163545 75:-0.0618045 76:-0.801948 77:-0.281593 78:-0.174898 79:-0.80331 80:0.687365 81:0.0556341 82:-0.445651 83:0.82796 84:1 85:0.967004 86:0.813945 87:1 88:0.613745 89:0.650621 90:0.289321 91:0.0897519 92:-0.859253 93:-0.206481 94:-0.00446793 95:0.209589 96:0.146017 97:-0.770213 98:0.104461 99:-0.118798 100:-0.146124 101:0.118789 102:-0.068492 103:0.138016 104:-0.195028 105:-0.792073 106:-0.316459 107:-0.0617572 108:-0.209421 109:0.131383 110:0.425691 111:-0.0181035 112:0.51008 113:-0.23502 114:0.123494 115:-0.22844 116:0.0848062 117:-0.142207 118:-0.713427 119:0.165433 120:0.157218 121:-0.108219 122:0.189565 123:0.747932 124:0.103836 125:-0.096411 126:0.0491647 127:-0.00743992 128:-0.125928 129:0.508718 130:-0.111061 131:-0.808058 132:0.226894 133:0.288655 134:0.152137 135:0.188917 136:0.411587 137:0.44106 138:0.466947 139:0.758709 140:0.386301 141:0.138286 142:0.537257 143:-0.173978 144:-0.840117 145:-0.0988888 146:0.418375 147:0.317284 148:0.110523 149:-0.196928 150:-0.10187 151:0.203978 152:-0.203784 153:0.0316428 154:-0.759335 155:0.313413 156:-0.239586 157:-0.893949 158:0.268537 159:-0.314775 160:-0.273608 161:-0.385858 162:-0.63238 163:-0.475025 164:-0.36433 165:-0.55879 166:0.161217 167:-0.394188 168:-0.185203 169:-0.302877 170:-0.830443 171:-0.199448 172:-0.00718562 173:0.218915 174:-0.0874834 175:-0.191351 176:0.111618 177:-0.0171441 178:-0.313854 179:-0.012396 180:-0.153217 181:0.415323 182:-0.0445799 183:-0.840591 184:-0.374428 185:0.102827 186:-0.00212037 187:0.227161 188:-0.180427 189:0.159653 190:0.379289 191:0.318068 192:0.442999 193:0.234706 194:0.292042 195:0.470247 
-0 1.156335336752103 1:0.707683 2:0.733523 3:0.671498 4:0.73704 5:0.846787 6:0.479521 7:0.870252 8:0.732072 9:0.649852 10:0.711195 11:0.776872 12:0.819947 13:0.812845 14:0.744732 15:0.777748 16:0.394855 17:-0.026198 18:0.438726 19:0.0282297 20:-0.556907 21:-0.135381 22:0.572508 23:0.332497 24:0.125222 25:0.294802 26:0.174694 27:-0.861762 28:-0.0235958 29:-0.0233113 30:-0.00173901 31:0.691232 32:0.0291295 33:0.186503 34:-0.735903 35:0.0595826 36:0.367118 37:-0.669709 38:-0.19225 39:0.813442 40:-0.711974 41:0.293359 42:0.306702 43:-0.238013 44:0.134333 45:0.173993 46:0.648798 47:0.609017 48:0.511988 49:-0.264904 50:-0.310149 51:0.513929 52:0.517218 53:-0.787303 54:0.408622 55:0.347809 56:-0.16329 57:0.401189 58:0.47586 59:0.357874 60:0.48937 61:-0.194419 62:-0.0465492 63:0.117887 64:0.154184 65:0.101702 66:-0.637814 67:-0.156642 68:-0.24762 69:-0.314954 70:-0.0298162 71:-0.328393 72:-0.25365 73:0.0760605 74:0.0830109 75:0.192332 76:0.108353 77:-0.32286 78:-0.568737 79:-0.784106 80:-0.298515 81:-0.0447933 82:-0.186861 83:0.59382 84:0.594536 85:0.0866605 86:0.772361 87:0.80875 88:0.334413 89:0.155821 90:-0.0753322 91:-0.493317 92:-0.777989 93:-0.307044 94:-0.469302 95:-0.117542 96:0.283034 97:-0.234939 98:0.211393 99:-0.184934 100:-0.0711403 101:0.192821 102:0.055677 103:0.100768 104:-0.160903 105:-0.800712 106:-0.479257 107:0.136395 108:-0.313804 109:0.589227 110:0.442026 111:0.111774 112:0.302126 113:-0.206193 114:-0.382879 115:-0.319062 116:0.00278997 117:-0.126824 118:-0.699349 119:0.173582 120:0.32733 121:-0.089271 122:0.0674633 123:0.536733 124:0.246055 125:0.534051 126:0.367469 127:0.151732 128:-0.170432 129:0.452022 130:-0.385367 131:-0.827506 132:0.149169 133:0.318127 134:0.204062 135:0.299003 136:0.409335 137:0.714701 138:0.384874 139:0.293108 140:0.105001 141:0.196673 142:0.464823 143:-0.106446 144:-0.945993 145:-0.704212 146:0.258006 147:0.124591 148:0.105811 149:-0.206799 150:0.0923838 151:0.242726 152:-0.425962 153:-0.433774 154:-0.287187 155:0.462525 156:-0.487693 157:-0.953877 158:-0.213135 159:0.308068 160:0.51758 161:0.283727 162:-0.0826608 163:-0.196351 164:-0.100918 165:-0.31235 166:-0.135981 167:-1 168:-0.180279 169:-0.336834 170:-0.782329 171:-0.218855 172:0.0763377 173:0.0727697 174:0.100587 175:0.0189319 176:-0.222687 177:-0.335514 178:-0.532716 179:-0.1067 180:-0.134424 181:0.373941 182:-0.238844 183:-0.842177 184:0.110564 185:0.2626 186:0.149747 187:0.165806 188:0.113196 189:0.461649 190:-0.0972131 191:-0.0489229 192:0.191894 193:0.224114 194:0.305912 195:0.436133 
-0 1.34183364270187 1:0.135179 2:0.59243 3:0.449403 4:0.857569 5:0.366561 6:0.977012 7:0.32249 8:0.790642 9:0.629378 10:0.640333 11:0.491119 12:0.503965 13:0.483105 14:0.440547 15:0.484961 16:0.0738003 17:-0.182684 18:0.0994672 19:-0.0717638 20:-0.311393 21:0.265737 22:-0.699739 23:-0.158311 24:-0.262769 25:0.0369569 26:0.00712514 27:-0.87837 28:-0.113143 29:-0.143097 30:-0.0492915 31:0.363128 32:-0.147683 33:-0.0378388 34:-0.386496 35:-0.0857941 36:-1 37:-0.0462117 38:-0.453293 39:0.237009 40:-0.814043 41:-0.191252 42:-0.146118 43:-0.470308 44:-0.354089 45:-0.318068 46:0.355366 47:0.420212 48:0.142086 49:0.117746 50:-0.407179 51:0.258098 52:0.268754 53:-0.953855 54:-0.235144 55:-0.523303 56:-0.488288 57:-0.0298382 58:0.0870843 59:-0.0114887 60:0.11448 61:-0.244039 62:-0.974124 63:-0.358961 64:-0.372167 65:0.509574 66:-0.78244 67:0.310681 68:-0.281693 69:-0.236005 70:-0.303143 71:-0.227808 72:-0.121381 73:0.111343 74:0.0105875 75:-0.127886 76:-0.200765 77:0.121891 78:-0.0669839 79:-0.902771 80:0.039094 81:-0.0714923 82:-0.201377 83:0.415719 84:0.378686 85:0.329006 86:0.0855013 87:0.198307 88:0.0272807 89:0.0677983 90:-0.312664 91:-0.189283 92:-0.912009 93:-0.457665 94:-0.537657 95:-0.0198125 96:-0.0951246 97:-0.447911 98:0.116321 99:0.0136822 100:-0.109712 101:-0.00946733 102:-0.261881 103:-0.160841 104:-0.514568 105:-0.911424 106:-0.632736 107:-0.363487 108:-0.276954 109:0.380543 110:0.438896 111:-0.0160271 112:0.340652 113:-0.0182988 114:-0.475285 115:-0.691302 116:-0.160517 117:-0.371824 118:-0.772137 119:-0.0466961 120:-0.0819451 121:-0.0259558 122:0.126103 123:0.419317 124:-0.33247 125:0.473446 126:-0.035226 127:-0.4416 128:-1 129:-0.489956 130:-0.825615 131:-0.959353 132:-0.599545 133:-0.0450047 134:-0.135623 135:0.275358 136:0.110727 137:0.368644 138:0.0400411 139:0.314751 140:-0.122975 141:0.06118 142:0.515628 143:-0.355243 144:-0.932154 145:0.280156 146:0.582742 147:0.138858 148:-0.149573 149:-0.4778 150:-0.334258 151:-0.0167138 152:0.100326 153:0.0117727 154:0.100161 155:0.255995 156:0.329259 157:-0.927853 158:0.559343 159:0.429931 160:0.4699 161:0.531821 162:0.481976 163:0.556179 164:0.674071 165:0.684357 166:-0.0035639 167:-0.121237 168:-0.344538 169:-0.0708345 170:-0.863681 171:-0.393159 172:0.00537412 173:-0.04261 174:0.196842 175:-0.518656 176:-0.510091 177:-0.590343 178:-0.242007 179:0.27715 180:0.324709 181:0.473598 182:-0.235677 183:-0.905005 184:0.179725 185:0.470889 186:-0.0337756 187:0.609986 188:-0.246054 189:0.305688 190:-0.303785 191:-0.0836363 192:-0.21402 193:-0.250511 194:-0.869459 195:-0.628664 
-0.2716186650399083 0.6623474971608411 1:0.593561 2:0.701365 3:0.69932 4:0.727474 5:0.722664 6:0.667376 7:0.633935 8:0.507197 9:0.86428 10:0.856328 11:0.780882 12:0.823427 13:0.796903 14:0.666371 15:0.754546 16:-0.186489 17:-0.179011 18:0.144136 19:-0.237306 20:-0.8713 21:-0.870033 22:-0.0936966 23:0.108455 24:0.0537262 25:0.370848 26:0.357623 27:-0.81649 28:0.140972 29:0.186984 30:0.11311 31:0.190613 32:-0.258447 33:0.227664 34:-0.239113 35:-0.123913 36:-0.0999799 37:-0.782274 38:0.463224 39:-0.00979983 40:-0.853571 41:-0.186327 42:-0.214048 43:-0.440109 44:0.0381324 45:0.118364 46:-0.174049 47:0.197533 48:0.248416 49:-0.173435 50:-0.557339 51:0.560388 52:0.30954 53:-0.79925 54:0.311887 55:0.271517 56:-0.0752608 57:0.535996 58:0.489362 59:0.476849 60:0.78383 61:-0.355796 62:-0.414817 63:-0.0193114 64:0.20579 65:0.00963883 66:-0.577438 67:-0.0560533 68:-0.386626 69:-0.376988 70:-0.3348 71:-0.365025 72:-0.286081 73:0.0257488 74:-0.208333 75:-0.11351 76:-0.619047 77:-0.613725 78:-0.556684 79:-0.828368 80:-0.326779 81:0.146711 82:-0.365685 83:0.0465365 84:-1 85:-0.838463 86:-0.770253 87:-0.742245 88:-0.738385 89:-0.755171 90:-0.793785 91:-0.616014 92:-0.915823 93:-0.553447 94:-0.478808 95:-0.518185 96:-0.852442 97:-0.642429 98:0.0640408 99:0.732235 100:0.634566 101:0.707068 102:0.53195 103:0.475786 104:0.0480348 105:-0.761313 106:-1 107:-0.222666 108:-0.253968 109:0.419564 110:0.509505 111:-0.659639 112:0.0173453 113:0.640471 114:0.0281587 115:-0.336297 116:-0.0302115 117:-0.236323 118:-0.75016 119:-0.250882 120:-0.256725 121:-0.422014 122:0.0823665 123:0.264753 124:-0.311849 125:0.380438 126:0.127729 127:-0.195648 128:-0.87335 129:-0.244439 130:-0.78298 131:-0.962848 132:-0.578358 133:-0.192148 134:-0.0587099 135:0.40175 136:0.767045 137:0.728562 138:0.460278 139:0.654191 140:0.495714 141:0.26221 142:0.625376 143:-0.479041 144:-0.891017 145:-0.194109 146:0.411039 147:0.289136 148:-0.0213318 149:-0.157528 150:-0.00165658 151:0.347287 152:0.0192038 153:0.388962 154:-0.133821 155:0.718856 156:0.0957517 157:-0.787255 158:0.108919 159:0.506865 160:0.545857 161:0.747124 162:0.629595 163:1 164:0.785181 165:0.902155 166:-0.138802 167:-0.681137 168:-0.25667 169:-0.238673 170:-0.826591 171:0.0428947 172:0.161425 173:0.337728 174:0.895415 175:0.789408 176:1 177:0.72759 178:0.64742 179:0.454505 180:-0.0950293 181:0.221369 182:-0.118985 183:-0.881594 184:-0.109561 185:0.677871 186:0.216197 187:0.440536 188:0.0359025 189:-0.447137 190:-0.690351 191:-1 192:-0.467337 193:-1 194:-0.896344 195:-0.668376 
-0.3736432227895884 1.521368448851649 1:0.820541 2:0.77863 3:0.824776 4:0.754531 5:0.794618 6:0.810313 7:0.751779 8:0.916246 9:0.850505 10:0.880177 11:0.786235 12:0.787493 13:0.779202 14:0.600701 15:0.658205 16:-0.177923 17:0.0827978 18:0.662277 19:-0.187529 20:0.0970384 21:0.0191523 22:-0.578317 23:-0.000867029 24:-0.114095 25:0.156554 26:0.140328 27:-0.859314 28:-0.0757013 29:0.00683821 30:-0.0604948 31:0.717168 32:0.680284 33:0.991135 34:0.0606745 35:-0.0450634 36:0.316825 37:-0.336226 38:0.0289972 39:0.00159725 40:-0.852967 41:-0.260506 42:-0.174416 43:-0.486478 44:-0.106261 45:0.188797 46:0.307385 47:0.658387 48:0.513703 49:0.267512 50:0.12243 51:0.791634 52:-0.111645 53:-0.710205 54:0.154784 55:0.094428 56:-0.126056 57:0.376345 58:0.582623 59:0.595053 60:0.784466 61:0.112906 62:0.181981 63:0.0189525 64:-0.636367 65:-0.344371 66:-0.775146 67:0.496836 68:0.102359 69:-0.0370487 70:0.028029 71:-0.0309315 72:0.0881681 73:0.162313 74:0.11578 75:-0.0854074 76:-0.29602 77:-0.308935 78:-0.182419 79:-0.931707 80:-1 81:-1 82:-0.643805 83:-1 84:0.0182733 85:-0.0408587 86:-0.172233 87:-0.254627 88:-0.384718 89:-0.507674 90:-0.603353 91:0.280323 92:-0.817386 93:-0.187468 94:0.31775 95:0.471363 96:0.563517 97:0.317471 98:0.177529 99:0.314525 100:0.216497 101:0.464517 102:0.280118 103:0.320773 104:-0.0976472 105:-0.781977 106:-0.467783 107:0.0630212 108:-1 109:-0.292175 110:-0.885652 111:-0.83611 112:0.228178 113:-0.440253 114:-0.549774 115:-0.660473 116:-0.191946 117:-0.285721 118:-0.737103 119:0.0879583 120:0.153808 121:-0.044243 122:0.110417 123:0.966212 124:-1 125:-0.751976 126:-1 127:-0.185212 128:-0.168761 129:1 130:0.115312 131:-0.778001 132:0.375915 133:0.503781 134:0.235429 135:0.551028 136:0.312095 137:0.0607715 138:0.25501 139:-0.594893 140:-0.423724 141:-1 142:0.620146 143:-0.205094 144:-0.855694 145:0.174695 146:0.651019 147:0.606699 148:0.265895 149:-0.0718959 150:0.0250527 151:-0.0594163 152:-0.752011 153:-1 154:-0.853291 155:-0.392441 156:-1 157:-0.941151 158:-0.324125 159:-0.698006 160:-0.64111 161:-0.616303 162:-1 163:-0.636107 164:-0.115635 165:-0.114927 166:0.274825 167:-0.131449 168:-0.0939302 169:-1 170:-0.956566 171:-0.636246 172:0.416816 173:0.954463 174:0.0833756 175:-0.117088 176:-0.0924228 177:-0.133524 178:-0.511708 179:-0.445509 180:-0.550976 181:0.452992 182:-0.212892 183:-0.850311 184:0.0305968 185:0.399089 186:0.641599 187:0.165505 188:0.359941 189:0.252364 190:0.337519 191:0.327016 192:0.318998 193:0.197261 194:0.254014 195:0.404294 
-0.05418709428857327 0.4083317800108318 1:0.770965 2:0.779461 3:0.672904 4:0.86704 5:0.746103 6:0.605328 7:0.643637 8:0.82587 9:0.693486 10:0.721493 11:0.731453 12:0.761885 13:0.748234 14:0.64992 15:0.787219 16:0.231271 17:-0.231787 18:0.195065 19:0.197446 20:-0.107309 21:0.63668 22:-0.205666 23:0.224635 24:0.277318 25:0.447218 26:0.390361 27:-0.813618 28:0.0462268 29:0.174648 30:0.1596 31:-0.0329675 32:-0.647781 33:0.0102399 34:-0.130486 35:-0.470247 36:0.93933 37:-0.191107 38:-0.0711796 39:0.625775 40:-0.693152 41:0.435664 42:0.466882 43:-0.0380447 44:0.0311491 45:-0.0611879 46:0.0158498 47:0.724112 48:0.651657 49:0.489281 50:-0.575268 51:0.618936 52:0.324928 53:-0.751035 54:0.507085 55:0.297304 56:-0.228274 57:0.120084 58:0.34308 59:0.228115 60:0.404924 61:0.723436 62:0.254666 63:0.0740099 64:0.340748 65:0.137334 66:-0.855476 67:-0.147493 68:0.50627 69:-0.617399 70:-0.413839 71:-0.67307 72:-0.500669 73:-0.117456 74:-0.0149821 75:0.0133972 76:0.0327928 77:-0.21532 78:-0.0255128 79:-0.777416 80:0.317601 81:-0.45259 82:0.00233955 83:-0.0344404 84:0.0730447 85:0.347365 86:0.865073 87:0.767246 88:0.372404 89:-0.00514569 90:0.161528 91:0.0735715 92:-0.891179 93:-0.0627156 94:-0.406056 95:0.152421 96:0.67648 97:0.41935 98:-0.219761 99:0.447935 100:-0.0986474 101:0.416548 102:0.492427 103:0.565572 104:0.141836 105:-0.707219 106:-0.734662 107:-0.383818 108:-0.519064 109:0.279585 110:-0.256719 111:-0.82075 112:-0.279121 113:-0.640393 114:0.0518293 115:-0.282047 116:-0.0723039 117:-0.174377 118:-0.747142 119:-0.0479683 120:-0.0856123 121:0.00993229 122:0.201643 123:0.606618 124:-0.171909 125:0.181391 126:0.550969 127:0.40323 128:-0.0456614 129:0.33718 130:-0.26748 131:-0.852012 132:-0.108956 133:0.252299 134:-0.137478 135:0.182278 136:0.1491 137:-0.00997277 138:-0.00867298 139:0.151925 140:0.290924 141:-0.241065 142:0.0660802 143:-0.27059 144:-1 145:-0.8549 146:-0.432338 147:-0.144602 148:-0.256446 149:-0.424703 150:-0.0968613 151:0.0592562 152:-0.444548 153:0.165203 154:-0.290475 155:0.828625 156:-0.210305 157:-0.895406 158:0.174138 159:0.597695 160:0.527135 161:0.960248 162:0.514035 163:0.505087 164:0.669406 165:0.737909 166:0.197391 167:0.00554129 168:0.0184665 169:-0.441999 170:-0.865368 171:-0.0946801 172:0.3457 173:0.433551 174:0.170037 175:0.0293065 176:0.365142 177:-0.0409249 178:-0.749235 179:-0.312217 180:-0.298309 181:0.979495 182:0.243591 183:-0.872083 184:0.476601 185:0.266386 186:0.855298 187:-0.120452 188:-0.0941305 189:0.511205 190:0.654906 191:1 192:0.41704 193:0.163539 194:0.362241 195:0.0765284 
-0.09627113126091777 1.872830494918881 1:-0.437485 2:0.66968 3:0.646626 4:0.736926 5:0.563024 6:0.745761 7:0.767108 8:0.789166 9:0.701478 10:0.688501 11:0.727788 12:0.777451 13:0.839077 14:0.801117 15:0.924753 16:-0.288147 17:-0.638286 18:-0.366327 19:-0.474577 20:-0.507763 21:-0.123084 22:0.385685 23:-0.127634 24:-0.151284 25:0.102537 26:-0.0660556 27:-0.919959 28:-0.356401 29:-0.29384 30:-0.196765 31:0.929134 32:0.27822 33:0.28619 34:-0.17829 35:-0.322249 36:-0.924118 37:-0.605738 38:-0.266026 39:0.0517802 40:-0.796304 41:-0.207989 42:-0.268683 43:-0.597091 44:-0.323836 45:-0.328705 46:0.651087 47:0.790732 48:0.569238 49:0.0877216 50:-0.547621 51:0.291905 52:0.424609 53:-0.774004 54:0.271526 55:0.177687 56:-0.0772174 57:0.493313 58:0.645122 59:0.522588 60:0.558434 61:-0.417893 62:-0.500825 63:-0.406565 64:-0.10041 65:0.263139 66:-0.753262 67:-0.733225 68:-0.0754636 69:-0.398571 70:-0.209966 71:-0.384193 72:-0.402628 73:-0.339877 74:-0.518154 75:-0.575974 76:-0.144391 77:-0.462607 78:-0.348592 79:-0.83236 80:0.1291 81:-0.182536 82:-0.108497 83:-0.199726 84:0.0503835 85:0.0745697 86:0.0250546 87:0.343346 88:0.231651 89:0.212097 90:0.0688871 91:-0.210456 92:-0.853946 93:-0.341977 94:-0.594221 95:-0.701331 96:-0.450369 97:0.0382057 98:-0.379888 99:-0.689682 100:-0.743161 101:-0.483475 102:-0.137955 103:-0.108821 104:-0.387097 105:-0.875931 106:0.356945 107:0.995178 108:0.0465319 109:0.207797 110:0.424236 111:-0.515142 112:-0.236046 113:0.0332261 114:-0.644502 115:-0.815209 116:-0.376935 117:-0.486712 118:-0.761175 119:-0.00882656 120:-0.0136189 121:-0.139297 122:-0.0127368 123:0.401245 124:-0.174179 125:0.578453 126:0.108918 127:-0.764859 128:0.0673261 129:0.489174 130:-0.269636 131:-0.830729 132:-0.0261755 133:0.382567 134:0.334243 135:0.538981 136:-0.0780773 137:-0.0511098 138:0.198376 139:-0.159136 140:0.590029 141:-0.0349542 142:-0.0615261 143:-0.444747 144:-0.888609 145:-0.102592 146:0.536846 147:0.132044 148:-0.0834867 149:-0.348792 150:-0.128986 151:0.373233 152:0.0274285 153:0.0836701 154:-0.590214 155:0.448869 156:-0.184982 157:-0.7841 158:-0.60465 159:-0.179647 160:0.0237469 161:0.0983871 162:-0.422853 163:-0.321092 164:-0.0814766 165:-0.363833 166:0.0471741 167:-0.451717 168:-0.0409304 169:-0.0999579 170:-0.869153 171:-0.00230613 172:0.701094 173:0.362411 174:-0.099718 175:-0.0892171 176:0.527531 177:0.0149502 178:-0.48854 179:-0.205959 180:-0.172551 181:0.479332 182:0.180431 183:-0.853263 184:0.0394507 185:0.639838 186:0.617147 187:0.78143 188:0.737013 189:1 190:0.666036 191:0.366892 192:0.79309 193:0.727971 194:0.602027 195:0.507663 
-0.3332761107456371 0.8038859648115221 1:0.485109 2:0.668718 3:0.61672 4:0.69474 5:0.752548 6:0.843905 7:0.681911 8:0.813822 9:0.598849 10:0.578782 11:0.598672 12:0.693132 13:0.694855 14:0.617595 15:0.82893 16:-0.165344 17:-0.753084 18:-0.131793 19:-0.0742223 20:-0.982985 21:-0.945034 22:-1 23:-0.110799 24:-0.200512 25:0.0373678 26:-0.0383293 27:-0.909453 28:-0.324019 29:-0.249026 30:-0.145756 31:0.307402 32:-0.209026 33:0.353436 34:0.385334 35:0.495577 36:0.670992 37:0.045212 38:-0.115795 39:0.725481 40:-0.674291 41:0.371078 42:0.283956 43:-0.0422858 44:0.400855 45:0.297334 46:0.381831 47:0.518425 48:0.550795 49:0.124306 50:0.43152 51:0.748134 52:0.695096 53:-0.814622 54:0.262646 55:0.215623 56:-0.0435586 57:0.22029 58:0.403636 59:0.390712 60:0.312493 61:0.194101 62:-0.495518 63:0.00165277 64:0.144856 65:1 66:-0.641497 67:0.353471 68:0.305984 69:0.0487235 70:-0.0445766 71:-0.315357 72:-0.0767014 73:0.0426871 74:-0.0189449 75:0.03895 76:-0.7511 77:-0.60775 78:-0.238525 79:-0.711355 80:0.286609 81:0.371988 82:0.0861893 83:-0.357617 84:0.663499 85:0.908784 86:-0.0614291 87:-0.0230881 88:-0.242868 89:-0.342416 90:-0.28405 91:0.0686185 92:-0.784068 93:0.177046 94:-0.071334 95:-0.350357 96:0.0673214 97:-0.0478143 98:0.115252 99:-0.78502 100:-0.833635 101:-0.424466 102:-0.473058 103:0.0517577 104:-0.249494 105:-0.862189 106:0.104714 107:0.481542 108:0.263698 109:0.288445 110:0.167564 111:-0.0324783 112:0.858838 113:0.686912 114:0.141808 115:-0.449477 116:0.347422 117:0.461172 118:-0.581519 119:0.78951 120:1 121:0.0944039 122:0.154511 123:0.636015 124:0.192286 125:0.320749 126:0.700278 127:0.633114 128:0.246446 129:0.522828 130:-0.315983 131:-0.885711 132:-0.464604 133:0.125539 134:-0.322525 135:-0.10204 136:0.4844 137:0.637743 138:0.524495 139:0.862134 140:-0.419407 141:0.259186 142:0.613441 143:-0.276957 144:-0.940771 145:-0.00728543 146:0.917947 147:1 148:0.30155 149:-0.000443991 150:0.441782 151:1 152:0.365191 153:-0.39576 154:-0.460026 155:0.383328 156:-0.247453 157:-0.849243 158:0.283766 159:0.180493 160:-0.0777784 161:0.224353 162:-0.0427461 163:-0.119098 164:0.0532498 165:-0.0160902 166:0.464169 167:-0.611106 168:-0.57566 169:-0.390366 170:-0.774812 171:-0.702741 172:0.294528 173:-0.256651 174:-0.0240122 175:-0.317955 176:-0.476658 177:-0.833289 178:-0.84827 179:-0.705133 180:-1 181:0.59675 182:0.384177 183:-0.860804 184:-0.0593645 185:0.825132 186:0.0794996 187:0.262055 188:0.0328695 189:0.246519 190:0.753295 191:0.427613 192:0.521828 193:0.149319 194:0.33633 195:0.193688 
-0.332800175661994 0.476220311236394 1:-0.825745 2:-0.473667 3:-0.385005 4:0.809935 5:0.672457 6:0.709514 7:0.309757 8:0.193832 9:0.84146 10:0.950964 11:0.8933 12:0.884795 13:0.918922 14:0.840285 15:0.931074 16:-0.792112 17:-0.691313 18:-0.182311 19:-1 20:-0.32009 21:-1 22:-0.687144 23:-0.943076 24:-0.509877 25:-0.159386 26:-0.330872 27:-0.988359 28:-0.598812 29:-0.548524 30:-0.383968 31:0.916849 32:0.565151 33:-0.0748822 34:-0.726611 35:-0.804456 36:-0.215474 37:-0.417935 38:-0.111723 39:0.0874368 40:-0.836432 41:-0.206158 42:-0.154477 43:-0.472823 44:-0.111655 45:0.00612138 46:-0.178641 47:0.309707 48:0.216274 49:-0.316698 50:-0.628231 51:0.688185 52:0.498504 53:-0.771223 54:0.765105 55:0.3054 56:-0.0730786 57:0.506187 58:0.569806 59:0.512879 60:0.624584 61:0.971252 62:0.560753 63:0.610593 64:0.119744 65:-0.19877 66:-0.733547 67:-0.0211055 68:-0.063863 69:-0.489692 70:-0.484488 71:-0.384286 72:-0.331176 73:-0.253547 74:-0.444415 75:-0.74292 76:-0.659897 77:-0.624224 78:-0.282136 79:-0.617406 80:-0.0316399 81:0.0264488 82:-0.161462 83:0.525052 84:-0.421276 85:0.197878 86:0.261525 87:0.242085 88:0.169743 89:0.0434719 90:-0.205916 91:0.84867 92:-0.756503 93:0.728157 94:-0.218316 95:-0.180454 96:-0.189413 97:-0.125447 98:-0.0691549 99:-0.543276 100:-0.49335 101:-0.318099 102:-0.0798873 103:0.142501 104:-0.100144 105:-0.833651 106:-0.464887 107:0.00964777 108:-0.760455 109:-0.244998 110:-0.637402 111:-0.365827 112:-0.105026 113:-0.469772 114:-0.451724 115:-0.609483 116:0.113592 117:0.00818008 118:-0.66852 119:0.528151 120:0.680748 121:0.260335 122:0.330081 123:0.120629 124:0.393995 125:0.776881 126:0.391041 127:-0.122921 128:0.101515 129:0.20006 130:-0.262571 131:-0.877098 132:-0.147979 133:0.00292329 134:-0.370124 135:-0.00613202 136:0.412909 137:0.510167 138:1 139:0.0455761 140:0.406976 141:-0.634303 142:0.0570917 143:-0.513638 144:-0.895497 145:0.180354 146:0.360367 147:0.00624069 148:-0.111512 149:-0.498121 150:-0.349745 151:-0.218881 152:-0.554032 153:0.536558 154:-0.209529 155:0.869569 156:-0.208824 157:-0.882741 158:-0.343811 159:0.697794 160:0.516475 161:0.859106 162:0.665106 163:0.42194 164:0.508644 165:0.509102 166:1 167:0.611402 168:-0.0285387 169:0.045087 170:-0.841478 171:-0.112781 172:0.0571935 173:0.020078 174:0.224354 175:-0.0268902 176:0.0189404 177:0.0451883 178:0.0527804 179:0.258204 180:0.0981141 181:-0.146626 182:-0.480373 183:-1 184:-0.481126 185:0.0450817 186:0.101843 187:-0.184866 188:-0.0459303 189:-0.227087 190:-0.192608 191:-0.352756 192:-0.220369 193:-0.3772 194:-0.474658 195:-0.0687535 
-0.3886868048495185 0.6794851323289591 1:0.858515 2:0.887073 3:0.769678 4:0.907355 5:0.864828 6:0.746867 7:0.688381 8:0.687251 9:0.590993 10:0.571264 11:0.449241 12:0.474936 13:0.426307 14:0.13679 15:0.358359 16:-0.502226 17:-0.440992 18:0.224674 19:0.233374 20:0.349512 21:0.455569 22:-0.808704 23:-0.987451 24:0.183398 25:0.322545 26:0.262589 27:-0.828568 28:-0.0212559 29:0.0929948 30:0.298884 31:0.415264 32:0.226943 33:0.812344 34:-0.111965 35:-0.0841715 36:0.498232 37:-0.453667 38:0.115153 39:0.040192 40:-0.823705 41:-0.122566 42:-0.159991 43:-0.359508 44:0.0404429 45:0.293086 46:0.510017 47:0.617261 48:0.449338 49:-0.169807 50:0.0966402 51:0.841547 52:0.552461 53:-0.764774 54:0.155177 55:-0.117682 56:-0.407835 57:0.244698 58:0.478559 59:0.337928 60:-0.0125406 61:-0.915376 62:-0.820836 63:-0.166522 64:-0.753878 65:-1 66:-0.959273 67:-0.614736 68:-0.509074 69:-0.429822 70:-0.216091 71:-0.258178 72:-0.602826 73:-0.620592 74:-0.605239 75:-0.448482 76:0.21611 77:-0.0838172 78:-0.0786465 79:-0.87771 80:-0.625757 81:-0.592978 82:-0.0624253 83:0.61931 84:-0.566217 85:-0.162761 86:0.37511 87:0.787844 88:0.528792 89:0.492333 90:1 91:0.150684 92:-0.819966 93:-0.177116 94:0.453792 95:0.519131 96:0.798815 97:-0.174322 98:-0.313353 99:0.45491 100:0.05284 101:0.208976 102:0.0346473 103:0.206961 104:-0.189635 105:-0.862415 106:-0.397225 107:-0.112969 108:0.0852575 109:0.559409 110:0.174242 111:0.0894273 112:0.114364 113:0.0567794 114:0.727674 115:0.730291 116:1 117:0.761069 118:-0.564021 119:0.770904 120:0.872022 121:-0.00122588 122:0.35424 123:0.62254 124:-0.136891 125:0.388689 126:0.11364 127:-0.0182805 128:-0.205296 129:0.176856 130:-0.720321 131:-0.967873 132:-1 133:-0.489055 134:-0.713979 135:-0.205948 136:0.258488 137:0.467222 138:0.185103 139:-0.206569 140:-0.00942048 141:-0.241893 142:-0.0313953 143:-0.678004 144:-0.968063 145:-0.768205 146:0.324637 147:0.403747 148:0.23998 149:-0.0930055 150:0.251253 151:-0.0734185 152:-0.0441245 153:0.151856 154:-0.520359 155:0.29821 156:-0.222968 157:-0.956444 158:-0.187002 159:0.179032 160:0.556559 161:0.506883 162:0.280275 163:0.282049 164:0.0578437 165:0.125766 166:-0.195468 167:0.12199 168:-0.0933168 169:0.0713034 170:-0.820929 171:-0.205891 172:0.421357 173:0.454711 174:1 175:0.484876 176:0.478915 177:0.292459 178:0.0919953 179:0.333236 180:0.0343701 181:0.518753 182:-0.120941 183:-0.889587 184:-0.181108 185:-0.240985 186:-0.504641 187:-0.105238 188:-0.0385169 189:-0.98236 190:-0.970487 191:-0.664577 192:-0.326514 193:-0.785119 194:-0.812512 195:-0.492773 
-0 1.493976362379274 1:0.541434 2:1 3:0.733348 4:0.79052 5:0.731303 6:0.738255 7:0.54685 8:0.740025 9:0.804374 10:0.811822 11:0.715704 12:0.785946 13:0.778457 14:0.678392 15:0.786317 16:0.223366 17:0.0298924 18:0.287315 19:0.0470198 20:-0.358639 21:-0.490905 22:-0.260561 23:0.326899 24:-0.0226775 25:0.207578 26:0.160492 27:-0.870793 28:-0.109952 29:-0.00479915 30:-0.0174151 31:0.36383 32:-0.62294 33:-0.458731 34:-0.35598 35:-0.224687 36:-0.0214775 37:-0.483056 38:-0.495048 39:-0.233409 40:-0.847923 41:-0.130674 42:-0.225214 43:-0.433458 44:-0.146772 45:-0.107688 46:0.425059 47:0.0606127 48:0.218121 49:0.0886575 50:-0.456844 51:0.41975 52:0.399237 53:-0.852302 54:0.126301 55:-0.0401541 56:-0.319575 57:0.258022 58:0.348611 59:0.137106 60:0.236897 61:-0.225336 62:-0.441184 63:-0.325861 64:-0.789365 65:-0.0137698 66:-0.698712 67:0.0754392 68:-0.844234 69:-0.449857 70:-0.303069 71:-0.329261 72:-0.660792 73:-0.325595 74:-0.387431 75:-0.402593 76:-0.868876 77:-0.738874 78:-0.490611 79:-0.855002 80:-0.751331 81:-0.790637 82:-0.725716 83:0.61891 84:0.487966 85:0.686594 86:0.688526 87:0.682265 88:0.330692 89:0.375384 90:-0.0858729 91:-0.379189 92:-0.915013 93:-0.51941 94:-0.380238 95:-0.157339 96:-0.222702 97:-0.369763 98:0.49472 99:0.361901 100:0.245184 101:0.537673 102:0.372779 103:0.358674 104:-0.051556 105:-0.808106 106:-0.261085 107:0.186196 108:-0.0847386 109:0.197053 110:-0.0297617 111:-0.00938203 112:0.0747401 113:-0.197706 114:0.549296 115:-0.0597309 116:0.189175 117:-0.113193 118:-0.715818 119:0.161586 120:0.295351 121:-0.0930773 122:0.0972418 123:0.606503 124:-0.0679668 125:0.6158 126:0.545689 127:0.0309802 128:-0.0687345 129:0.727805 130:0.0977858 131:-0.788477 132:0.423244 133:0.725187 134:0.61174 135:0.76145 136:0.419157 137:-0.106795 138:-0.222238 139:-0.474873 140:0.126932 141:-0.393492 142:0.216977 143:-0.330655 144:-0.894396 145:-0.245763 146:0.361394 147:0.385486 148:0.172809 149:-0.194021 150:-0.0251097 151:0.194785 152:-0.675881 153:-0.416509 154:-0.657562 155:0.276996 156:-0.740759 157:-0.954397 158:-0.129742 159:-0.10865 160:-0.0707168 161:0.141179 162:-0.00969763 163:0.0018821 164:0.073079 165:-0.101544 166:-0.334076 167:-0.378853 168:-0.263838 169:-0.596974 170:-0.793791 171:-0.0759979 172:0.294359 173:-0.0898963 174:-0.02978 175:-0.0913711 176:0.0934382 177:0.014334 178:-0.484751 179:-0.3297 180:-0.19703 181:0.375036 182:-0.31064 183:-0.892835 184:-0.328224 185:0.270407 186:0.637147 187:0.302518 188:-0.0960309 189:0.123221 190:0.0687268 191:-0.174629 192:-0.0438679 193:-0.294626 194:-0.102181 195:0.0534974 
-0.08912799234208232 0.5637376134058203 1:0.276548 2:0.354312 3:0.314815 4:0.276021 5:0.788302 6:0.846487 7:0.755812 8:0.564273 9:0.656897 10:0.719705 11:0.670099 12:0.659692 13:0.644086 14:0.476618 15:0.669005 16:-0.173033 17:-0.377786 18:0.0884089 19:-0.405383 20:0.366281 21:-0.0417252 22:0.610239 23:0.21022 24:0.00371923 25:0.177809 26:0.138382 27:-0.881041 28:-0.127417 29:-0.0998219 30:-0.0789461 31:0.328194 32:-0.146591 33:0.229702 34:-0.366993 35:-0.115012 36:0.46723 37:-0.338004 38:0.374017 39:0.600016 40:-0.72702 41:0.364524 42:0.509381 43:-0.0153491 44:0.463693 45:0.508141 46:0.129766 47:0.271095 48:0.350739 49:-0.248394 50:1 51:0.612858 52:0.586657 53:-0.724109 54:0.461249 55:0.384215 56:-0.116406 57:0.639136 58:0.512994 59:0.532025 60:0.596171 61:0.185331 62:-0.003528 63:0.0948726 64:-0.00647076 65:0.413434 66:-0.759393 67:-0.272407 68:-0.494932 69:-0.383732 70:-0.241739 71:-0.401169 72:-0.18054 73:0.154658 74:0.0421507 75:-0.168337 76:-0.289411 77:-0.608931 78:-0.314978 79:-0.783115 80:-0.450929 81:0.18368 82:-0.145852 83:0.327002 84:0.647248 85:0.862469 86:1 87:0.906814 88:0.619467 89:0.413254 90:0.430029 91:0.279694 92:-0.857786 93:-0.0650816 94:0.0711131 95:0.151183 96:-0.0283848 97:0.753429 98:0.681289 99:0.373382 100:0.0470261 101:0.206955 102:-0.0234669 103:0.193033 104:-0.144793 105:-0.839819 106:-0.208454 107:-0.0875511 108:0.196012 109:0.588754 110:0.404837 111:0.100137 112:-0.590405 113:-0.341516 114:-0.150016 115:-0.250538 116:0.090069 117:-0.225851 118:-0.769125 119:-0.037891 120:0.0633381 121:0.0334492 122:0.0710532 123:0.713442 124:0.192508 125:0.481297 126:0.381027 127:0.341592 128:-0.0854165 129:0.491456 130:-0.219365 131:-0.836075 132:0.371026 133:0.502331 134:0.358479 135:0.581556 136:0.248085 137:0.249522 138:-0.0482801 139:0.0707146 140:-0.5865 141:0.0494888 142:0.515471 143:-0.257584 144:-0.890898 145:0.22047 146:0.54679 147:0.155983 148:-0.0532267 149:-0.253217 150:0.0162501 151:0.0966202 152:-0.323316 153:-0.17002 154:-0.307989 155:0.442894 156:-0.255532 157:-0.840902 158:0.32955 159:0.354575 160:0.275134 161:0.406896 162:0.012844 163:-0.11339 164:-0.140813 165:0.309244 166:0.0226485 167:-0.412068 168:-0.151213 169:-0.311132 170:-0.883206 171:-0.425837 172:-0.158118 173:0.0555049 174:-0.110935 175:-0.659437 176:-0.339459 177:-0.342136 178:-0.636188 179:-0.487955 180:-0.397877 181:0.532498 182:-0.259808 183:-0.879611 184:-0.274204 185:-0.475403 186:0.602702 187:-0.0321105 188:-0.455797 189:-0.00825803 190:0.214017 191:-0.152881 192:-0.0110701 193:-0.21723 194:-0.0425476 195:0.0210073 
-0.3487580326928078 0.1347906308474267 1:0.394582 2:0.703467 3:0.67245 4:0.910173 5:0.717178 6:0.46993 7:0.655916 8:0.873653 9:0.710339 10:0.765392 11:0.662827 12:0.635735 13:0.575036 14:0.483503 15:0.669812 16:-1 17:-1 18:-0.385966 19:-0.589208 20:-1 21:-0.633269 22:0.109858 23:-0.34053 24:-0.487867 25:-0.207123 26:-0.3361 27:-1 28:-0.64565 29:-0.421205 30:-0.394743 31:0.830412 32:0.68566 33:0.478984 34:-0.175163 35:0.377162 36:0.360358 37:-0.440724 38:-0.823688 39:0.478622 40:-0.742394 41:0.244713 42:0.352966 43:-0.163452 44:-0.0640422 45:0.0481822 46:0.572523 47:0.47264 48:0.189237 49:0.659014 50:0.293149 51:0.845144 52:0.157426 53:-0.845196 54:-0.0994725 55:-0.435452 56:-0.578826 57:-0.0822931 58:0.152533 59:-0.190318 60:-0.0489095 61:-1 62:-1 63:-0.414697 64:-0.0937798 65:0.194031 66:-0.633069 67:-0.368313 68:-0.590428 69:-1 70:-0.569711 71:-0.682185 72:-0.620638 73:-0.432882 74:-0.252368 75:-0.303851 76:-0.627493 77:-0.609238 78:-0.472538 79:-0.931773 80:-0.544641 81:-0.373266 82:-0.609751 83:-0.169799 84:-0.389064 85:-0.153098 86:-0.0397104 87:-0.214969 88:-0.274579 89:-0.591005 90:-0.713328 91:0.449591 92:-0.891966 93:-0.379403 94:-0.0728118 95:-0.38563 96:-0.417264 97:0.836067 98:0.210704 99:0.528931 100:0.385661 101:0.607794 102:0.385825 103:0.300413 104:-0.013948 105:-0.782854 106:-0.433768 107:0.572038 108:0.321946 109:0.0761339 110:0.784616 111:0.262777 112:0.083501 113:-0.294979 114:-0.426796 115:-0.7201 116:-0.337882 117:-0.612288 118:-0.814487 119:-0.479523 120:-0.458261 121:-0.388661 122:0.108626 123:0.705205 124:0.0874607 125:0.65846 126:0.272848 127:-0.554373 128:0.419291 129:-0.028687 130:-0.773515 131:-0.967841 132:-0.322335 133:0.0680194 134:-0.0761619 135:0.224775 136:0.810536 137:0.32396 138:0.273149 139:-0.15163 140:-0.115423 141:-0.558169 142:0.676023 143:0.149497 144:-0.932972 145:-0.281563 146:0.721165 147:0.954122 148:0.374914 149:0.385812 150:0.530204 151:0.083018 152:0.0956892 153:0.0957532 154:0.197094 155:0.107566 156:-0.475865 157:-0.779804 158:0.497942 159:0.511319 160:0.556365 161:0.964294 162:1 163:0.828937 164:1 165:0.850117 166:-0.562884 167:-0.179779 168:0.125926 169:0.0798055 170:-0.861392 171:0.00772955 172:0.202804 173:-0.809367 174:-0.118484 175:-0.376017 176:-0.484981 177:-0.455965 178:-0.689794 179:-0.767381 180:-0.869246 181:0.412143 182:-0.155058 183:-0.943292 184:-0.562711 185:0.380949 186:0.545651 187:-0.0687889 188:-0.572929 189:0.506623 190:0.240849 191:-0.658527 192:-0.759791 193:-0.902894 194:-0.722202 195:-0.633197 
-0.6239729069465089 1.099414713334374 1:0.633906 2:0.741008 3:0.646745 4:0.687817 5:0.841056 6:0.868839 7:0.567325 8:0.491515 9:0.555782 10:0.604419 11:0.56315 12:0.571735 13:0.570908 14:0.416717 15:0.575847 16:0.711881 17:0.219682 18:0.379013 19:0.412186 20:1 21:1 22:1 23:1 24:1 25:1 26:1 27:-0.602178 28:1 29:1 30:1 31:0.422612 32:-0.122816 33:-0.0332767 34:0.22013 35:-0.130741 36:-0.246501 37:-0.0526291 38:-0.0438224 39:-0.286352 40:-0.899905 41:-0.299548 42:-0.364632 43:-0.755552 44:-0.423692 45:-0.198935 46:0.652235 47:0.59953 48:0.511172 49:0.493047 50:-0.796465 51:0.501229 52:0.0280337 53:-0.9839 54:-0.320937 55:-0.290337 56:-0.478825 57:-0.0376124 58:0.280027 59:0.295119 60:0.502936 61:0.354837 62:-0.200827 63:-0.00653815 64:0.330653 65:0.0123717 66:-0.656904 67:0.0686144 68:0.571316 69:1 70:1 71:1 72:1 73:1 74:1 75:1 76:-0.490732 77:-0.845261 78:-0.415389 79:-0.829918 80:-0.12942 81:-0.618997 82:-0.396439 83:-0.0458003 84:-0.489473 85:-0.851347 86:-0.743442 87:-0.721287 88:-0.538861 89:-0.791068 90:-0.978563 91:0.454162 92:-0.842758 93:0.208773 94:-0.0948669 95:0.292517 96:-0.419932 97:-0.185671 98:0.0611433 99:-0.138824 100:0.328091 101:0.599153 102:0.420004 103:0.402218 104:0.0501227 105:-0.757898 106:-0.195225 107:-0.126564 108:-0.30071 109:0.803268 110:0.150225 111:-0.0375673 112:0.33547 113:0.141354 114:-0.0691121 115:-0.972004 116:-0.453315 117:-0.612897 118:-0.889049 119:-0.5902 120:-0.597193 121:-0.114718 122:0.0730569 123:0.618647 124:-0.280928 125:0.280647 126:0.255384 127:-0.105899 128:-0.389609 129:0.501135 130:0.114027 131:-0.761771 132:0.45503 133:1 134:1 135:1 136:0.801897 137:0.590776 138:0.185957 139:-0.337647 140:0.21667 141:-0.0442362 142:-0.0345618 143:-0.760544 144:-0.901285 145:0.179066 146:0.846442 147:0.748983 148:0.332144 149:-0.0139881 150:-0.072018 151:0.34931 152:-0.00148446 153:-0.335984 154:-0.154585 155:0.598271 156:-0.350137 157:-0.928382 158:0.405674 159:0.285299 160:-0.0426297 161:-0.0621246 162:-0.446956 163:-0.710978 164:-0.50429 165:-0.87866 166:0.137555 167:-0.0211477 168:-0.280299 169:-0.0951709 170:-0.711648 171:-0.250071 172:0.349134 173:0.223665 174:-0.12056 175:-0.203752 176:0.196095 177:0.000955498 178:0.215503 179:0.207702 180:0.03543 181:0.603419 182:-0.14575 183:-0.930895 184:-0.226205 185:-0.526704 186:0.25641 187:0.133616 188:-0.389447 189:0.541601 190:1 191:0.888942 192:0.87301 193:0.911191 194:1 195:0.997186 
-0.1833205794534991 1.262295026887448 1:0.64022 2:0.831717 3:0.725461 4:0.911117 5:0.884741 6:0.647747 7:0.606673 8:0.775771 9:0.913752 10:0.91307 11:0.77967 12:0.785727 13:0.790005 14:0.718755 15:0.791129 16:-0.0246142 17:-0.649983 18:-0.32559 19:0.348558 20:0.5648 21:-0.0961612 22:-0.696244 23:0.109556 24:-0.248076 25:0.0232471 26:-0.0911202 27:-0.917641 28:-0.189336 29:-0.133992 30:0.0295392 31:0.0992767 32:-0.291739 33:0.0206895 34:-0.65005 35:-0.596341 36:0.0816006 37:-0.440933 38:-0.640352 39:-0.518739 40:-0.916368 41:-0.479184 42:-0.381825 43:-0.571205 44:-0.162621 45:0.029045 46:0.658117 47:0.781168 48:0.400948 49:-0.241509 50:-0.295427 51:0.367756 52:0.157167 53:-0.797844 54:0.375099 55:0.354035 56:0.094942 57:0.726375 58:0.754397 59:0.465465 60:0.528674 61:0.022135 62:-0.815611 63:-0.516127 64:-0.825963 65:-0.940202 66:-0.772143 67:0.284292 68:-0.799686 69:-0.798578 70:-0.518421 71:-0.343497 72:-0.241246 73:-0.0268768 74:-0.105124 75:-0.257701 76:-0.86265 77:-0.708541 78:-0.460854 79:-0.739294 80:0.0755378 81:-0.517287 82:-0.461182 83:0.615903 84:0.707972 85:0.885882 86:0.714455 87:0.463182 88:0.213851 89:0.171215 90:0.165558 91:-0.821793 92:-0.870166 93:-0.437556 94:0.114688 95:0.268178 96:0.236259 97:-0.26237 98:-0.233681 99:-0.520906 100:-0.932469 101:-1 102:-1 103:-0.653496 104:-0.665814 105:-0.91935 106:-0.538745 107:-0.114804 108:-0.0105827 109:0.145256 110:-0.323223 111:0.417479 112:0.36624 113:-0.0853126 114:-0.381419 115:-0.551643 116:-0.335868 117:-0.516299 118:-0.783549 119:-0.0634581 120:0.0930649 121:-0.253663 122:-0.00388195 123:0.667497 124:0.0177142 125:0.414971 126:0.0449851 127:-0.0565406 128:-0.353723 129:0.37278 130:-0.44066 131:-0.900777 132:-0.235218 133:0.0307762 134:-0.227218 135:0.0771391 136:0.33118 137:0.517157 138:0.215718 139:0.69437 140:0.579096 141:-0.00163647 142:0.410179 143:-0.315077 144:-0.780985 145:0.606553 146:1 147:0.816951 148:0.260608 149:0.0230224 150:0.172253 151:0.211387 152:-0.117977 153:0.202468 154:-0.114255 155:0.756176 156:-0.310284 157:-0.883958 158:0.0532747 159:0.330589 160:0.444682 161:0.93846 162:0.968966 163:0.877812 164:0.599931 165:0.104238 166:-0.184573 167:-0.0237355 168:0.208849 169:-0.300727 170:-0.863662 171:-0.213458 172:0.428297 173:0.125996 174:-0.520403 175:-0.52839 176:-0.465393 177:-0.283364 178:-0.486044 179:-0.123714 180:-0.185808 181:0.359341 182:0.0736613 183:-0.856374 184:-0.508305 185:0.064092 186:-0.243778 187:0.140829 188:0.495507 189:0.286195 190:0.138861 191:-0.0947103 192:-0.0399824 193:-0.205469 194:-0.0549812 195:0.441816 
