svm_type c_svc
kernel_type rbf
gamma 0.00512821
nr_class 3
total_sv 53
rho 0.054169 -0.0455092 -0.916891
label 3 2 1
nr_sv 9 26 18
SV
0.05898573241053487 0.05307135466471727 1:5.2889 2:-0.0869416 3:-0.435254 4:-0.0807076 5:-0.104742 6:-0.170694 7:-0.354609 8:0.110917 9:0.317952 10:-0.187286 11:-0.219572 12:-0.206146 13:0.0110464 14:5.70775 15:-0.203865 16:-0.309742 17:-0.123193 18:-0.0527107 19:-0.475796 20:-0.475852 21:0.189168 22:0.175525 23:-0.034872 24:-0.146747 25:0.195135 26:-0.0435697 27:5.69119 28:-0.354831 29:-0.0880944 30:-0.039537 31:-0.31309 32:-0.471368 33:-0.544052 34:-0.00791781 35:0.110521 36:-0.161573 37:-0.0547485 38:0.119256 39:-0.0491588 40:5.53154 41:-0.423554 42:-0.123569 43:-0.00318643 44:-0.284133 45:-0.312447 46:-0.431076 47:0.0484298 48:0.0393235 49:-0.228605 50:0.0380166 51:-0.0598058 52:0.00315543 53:6.51772 54:-0.0790998 55:-0.0170708 56:-0.0745074 57:-0.734555 58:-0.724001 59:-0.825302 60:-0.460618 61:-0.556036 62:-0.185855 63:-0.583563 64:-0.248316 65:-0.41717 66:5.84573 67:-0.262254 68:0.349833 69:-0.168338 70:-0.217021 71:-0.624133 72:-0.945661 73:-0.350906 74:-0.563423 75:-0.635567 76:-0.450915 77:-0.283522 78:-0.361342 79:6.00814 80:0.413993 81:0.313629 82:-0.33185 83:-0.447912 84:-0.377974 85:-0.400256 86:-0.197505 87:-0.363897 88:-0.12966 89:0.0371587 90:0.0491315 91:0.094328 92:6.07648 93:0.0443676 94:0.35283 95:-0.282966 96:-0.262124 97:-0.543263 98:-0.604533 99:0.20485 100:-0.332732 101:-0.0317253 102:0.0830892 103:0.390736 104:-0.203828 105:6.09797 106:0.486342 107:-0.301697 108:-0.340087 109:-0.11052 110:-0.472695 111:-0.737418 112:0.429318 113:0.0872947 114:0.304002 115:-0.0748422 116:-0.58699 117:0.319793 118:6.06032 119:0.407259 120:-0.28146 121:-0.343448 122:-0.0560467 123:-0.727366 124:-0.722129 125:0.268276 126:0.0576704 127:0.471165 128:-0.250797 129:-0.666584 130:0.477227 131:6.00372 132:0.39751 133:-0.271769 134:-0.335117 135:-0.111447 136:-0.716383 137:-0.762249 138:0.193841 139:0.102729 140:0.403032 141:-0.338521 142:-0.614515 143:0.375256 144:5.90726 145:0.383948 146:-0.129924 147:-0.274436 148:-0.00248189 149:-0.557731 150:-0.711578 151:0.317825 152:-0.0200261 153:0.403744 154:-0.368766 155:-0.308951 156:0.200392 157:5.6768 158:0.343125 159:-0.109017 160:-0.154293 161:-0.00272328 162:-0.431796 163:-0.459126 164:0.240027 165:-0.0279762 166:0.285827 167:-0.324974 168:-0.169362 169:0.13204 170:5.53994 171:0.154217 172:-0.214618 173:0.0075512 174:-0.152781 175:-0.475842 176:-0.345579 177:-0.0382452 178:-0.228673 179:0.0425813 180:-0.472586 181:-0.116207 182:0.0898571 183:5.50198 184:0.138918 185:-0.251972 186:0.149701 187:-0.361899 188:-0.254885 189:-0.350651 190:-0.10094 191:0.0610451 192:0.0764939 193:-0.442001 194:0.142989 195:0.0222874 
0.2127048503582821 0.1917007052073614 1:5.39169 2:0.0557284 3:-0.633724 4:0.0411796 5:-0.312183 6:-0.449972 7:-0.0829945 8:-0.397239 9:-0.412477 10:-0.156861 11:-0.120453 12:0.48514 13:-0.0882031 14:5.35969 15:0.285884 16:-0.283828 17:0.0864032 18:-0.226104 19:-0.27195 20:0.170893 21:-0.299978 22:-0.249983 23:0.130439 24:-0.171427 25:0.157361 26:-0.230509 27:6.20933 28:0.36859 29:-0.337565 30:0.219675 31:-0.249297 32:-0.414012 33:-0.0393141 34:-0.427416 35:-0.409822 36:0.0611609 37:-0.062424 38:0.425628 39:-0.369509 40:6.57925 41:0.254963 42:-0.409913 43:0.300531 44:0.0927698 45:-0.476197 46:-0.684586 47:-0.50843 48:0.128022 49:-0.127468 50:-0.24211 51:0.356676 52:-0.387839 53:6.16145 54:0.435034 55:-0.063059 56:-0.493273 57:-0.592104 58:-0.505565 59:0.18084 60:-0.698267 61:-0.122751 62:-0.00674218 63:-0.311767 64:0.528561 65:-0.330336 66:5.72781 67:-0.297702 68:-0.121087 69:-0.455865 70:-0.0240951 71:-0.227966 72:-0.21618 73:-0.131163 74:-0.0662206 75:-0.0515661 76:-0.178113 77:0.633299 78:0.363072 79:5.40154 80:-0.559641 81:-0.10498 82:-0.375687 83:0.274437 84:-0.173379 85:-0.302383 86:-0.154995 87:-0.00806874 88:0.0645063 89:-0.433389 90:0.301613 91:0.242926 92:6.23829 93:0.44254 94:-0.533685 95:-0.253045 96:-0.379044 97:-0.584034 98:0.0318559 99:-0.672379 100:0.167393 101:0.0797572 102:-0.104645 103:0.288918 104:-0.914499 105:5.81199 106:0.664144 107:-0.288469 108:-0.44131 109:-0.566791 110:-0.257552 111:0.269133 112:-0.470326 113:-0.393212 114:0.0739221 115:-0.259471 116:0.326693 117:0.145918 118:5.79375 119:0.677981 120:-0.245808 121:-0.511971 122:-0.524024 123:-0.390842 124:0.0529581 125:-0.359584 126:-0.181412 127:0.127107 128:-0.0542778 129:0.285086 130:-0.125311 131:6.00281 132:0.527938 133:-0.243302 134:-0.727846 135:-0.445769 136:-0.331271 137:0.103046 138:-0.314587 139:-0.0732801 140:0.19062 141:-0.0966695 142:0.444477 143:-0.186066 144:6.10287 145:0.473882 146:-0.27269 147:-0.873836 148:-0.479306 149:-0.331974 150:0.147979 151:-0.312239 152:-0.0800239 153:0.322229 154:-0.222913 155:0.348883 156:-0.153978 157:5.92884 158:0.49344 159:-0.32515 160:-0.928228 161:-0.423417 162:-0.394378 163:0.214428 164:-0.167773 165:-0.00407373 166:0.356966 167:-0.230573 168:0.185735 169:-0.242544 170:5.76219 171:0.560979 172:-0.356288 173:-0.843901 174:-0.371658 175:-0.280288 176:0.223488 177:-0.146845 178:0.0173175 179:0.355967 180:-0.160652 181:0.181911 182:-0.200329 183:5.51252 184:0.631607 185:-0.228037 186:-0.719673 187:-0.478324 188:-0.284978 189:0.20647 190:-0.106516 191:-0.029539 192:0.378184 193:-0.249434 194:0.0267504 195:-0.216394 
0.5344565473586212 0.4828890017756718 1:1.30908 2:-0.341082 3:-0.453141 4:-0.335449 5:-0.27562 6:-0.351853 7:-0.275161 8:-0.0626978 9:-0.0935238 10:-0.0303977 11:0.111784 12:0.147658 13:0.0694965 14:1.17121 15:-0.341856 16:-0.330526 17:-0.287425 18:-0.256246 19:-0.290439 20:-0.321092 21:-0.171255 22:-0.065547 23:-0.0260449 24:0.0962169 25:0.248711 26:0.121156 27:1.11205 28:-0.40881 29:-0.349403 30:-0.277776 31:-0.193298 32:-0.245204 33:-0.271297 34:-0.161282 35:-0.0649895 36:-0.126878 37:-0.0600422 38:0.121546 39:0.101588 40:5.74407 41:0.135377 42:0.0721162 43:0.847163 44:0.0816875 45:-0.231468 46:-0.303951 47:-0.0478336 48:-0.0326457 49:-0.0660988 50:-0.656503 51:0.201309 52:-0.0942829 53:5.22787 54:-0.179475 55:0.558264 56:1.19925 57:0.126045 58:-0.309013 59:-0.54224 60:-0.235821 61:-0.320795 62:-0.261725 63:-0.180024 64:0.567509 65:0.190807 66:5.8229 67:-0.820979 68:-0.238376 69:-0.131379 70:-0.324602 71:0.145025 72:-0.539523 73:0.122405 74:-0.226586 75:-0.13493 76:-0.0682533 77:-0.118486 78:0.172889 79:6.15609 80:0.523439 81:-0.0622532 82:0.0447503 83:-0.426774 84:-0.0516943 85:-0.236175 86:-0.0833342 87:-0.571486 88:-0.355457 89:-0.0197325 90:0.138168 91:0.00988967 92:4.66112 93:0.644346 94:0.718533 95:0.226876 96:-0.955398 97:-0.420111 98:0.472186 99:-0.0418663 100:-0.274523 101:-0.288026 102:-0.52046 103:-0.048413 104:-0.166179 105:6.47689 106:-0.247237 107:-0.512816 108:-0.4861 109:-0.469697 110:-0.0873354 111:-0.444325 112:-0.0889383 113:-0.354445 114:-0.202196 115:-0.210144 116:0.015549 117:0.200809 118:6.30203 119:-0.0804942 120:-0.227942 121:-0.301747 122:-0.323333 123:-0.0568952 124:-0.372021 125:0.0641828 126:-0.0754609 127:0.0194697 128:-0.139813 129:0.0211461 130:0.162938 131:6.72418 132:0.336951 133:-0.512498 134:0.286681 135:-0.270593 136:-0.189658 137:-0.447529 138:-0.417858 139:0.0100576 140:-0.0952421 141:0.101808 142:-0.0355958 143:-0.140273 144:6.81963 145:0.310444 146:-0.446668 147:0.289568 148:-0.34263 149:-0.310006 150:-0.570786 151:-0.522058 152:0.0452451 153:-0.0200824 154:0.267824 155:-0.0204361 156:0.0182 157:6.61631 158:0.371485 159:-0.464529 160:0.379072 161:-0.44912 162:-0.264409 163:-0.595725 164:-0.447645 165:0.0619515 166:0.0405395 167:0.232936 168:-0.0867548 169:0.0441855 170:6.70302 171:0.27144 172:-0.366105 173:0.301503 174:-0.450067 175:-0.271461 176:-0.555983 177:-0.410437 178:0.00834227 179:0.142266 180:0.21829 181:-0.114195 182:-0.0326008 183:6.59993 184:0.303867 185:-0.381913 186:0.334572 187:-0.479249 188:-0.34129 189:-0.590357 190:-0.338455 191:0.0523007 192:0.0384479 193:0.32074 194:-0.0776385 195:0.0280761 
0.4031788460835971 0.365742023420378 1:5.92492 2:-0.122992 3:0.308953 4:-0.339387 5:-1.30219 6:-0.732041 7:-0.342639 8:-0.444135 9:0.354502 10:-0.244061 11:-0.474344 12:-0.974052 13:-0.450722 14:5.65496 15:-0.124497 16:0.310686 17:-0.431768 18:-1.25134 19:-0.636904 20:-0.483774 21:-0.669193 22:0.347532 23:-0.401346 24:-0.452406 25:-0.930199 26:-0.630787 27:5.47776 28:-0.127056 29:0.273727 30:-0.57689 31:-1.12121 32:-0.650813 33:-0.800925 34:-0.475729 35:0.280585 36:-0.635874 37:-0.562181 38:-0.873243 39:-0.389948 40:5.40211 41:-0.333561 42:-0.399218 43:-0.537411 44:-1.14649 45:-0.677891 46:0.0939653 47:-0.133421 48:-0.0517262 49:0.101956 50:-0.0491743 51:-0.683692 52:0.230356 53:5.60424 54:0.295303 55:-0.299515 56:-0.322085 57:-0.719089 58:-0.054454 59:-0.0951553 60:-0.25188 61:-0.486494 62:-0.331966 63:0.259885 64:-0.407385 65:0.022669 66:5.29178 67:0.264227 68:-0.343159 69:-0.349017 70:-0.376018 71:0.0559081 72:-0.296676 73:-0.217226 74:-0.160154 75:-0.32918 76:0.160068 77:-0.18017 78:-0.281679 79:5.2597 80:-0.0457046 81:-0.318935 82:-0.0982765 83:-0.498441 84:-0.259078 85:-0.60664 86:-0.126179 87:-0.43652 88:-0.0613678 89:-0.137888 90:-0.332643 91:-0.140083 92:4.40335 93:-0.166983 94:-0.607594 95:-0.30103 96:-0.205107 97:-0.167061 98:-0.461836 99:-0.291025 100:-0.148144 101:-0.130352 102:-0.0414538 103:-0.0572469 104:0.00330983 105:4.31435 106:-0.255497 107:-0.483806 108:-0.27028 109:-0.105522 110:-0.122705 111:-0.277004 112:-0.240216 113:-0.284643 114:-0.149817 115:-0.0473744 116:-0.0677744 117:-0.0457748 118:4.2713 119:-0.241326 120:-0.516565 121:-0.341922 122:-0.0461559 123:-0.0609949 124:-0.219949 125:-0.223398 126:-0.313525 127:-0.085712 128:0.171439 129:0.0459313 130:0.0239505 131:4.2384 132:-0.240267 133:-0.662392 134:-0.39007 135:-0.194336 136:-0.165068 137:-0.139168 138:-0.270806 139:-0.175876 140:-0.105864 141:-0.0595681 142:-0.0591859 143:-0.105048 144:4.74742 145:-0.392195 146:-0.499281 147:-0.331814 148:-0.285654 149:0.0923935 150:-0.267921 151:-0.298633 152:0.00716242 153:-0.491361 154:0.363556 155:-0.265469 156:-0.292313 157:6.02457 158:-0.0584375 159:-0.570448 160:-0.452429 161:-0.648876 162:-0.183587 163:-0.267668 164:-0.538149 165:-0.096554 166:-0.417829 167:0.279767 168:-0.229221 169:-0.270887 170:6.72279 171:-0.1149 172:-0.634803 173:-0.521696 174:-0.528293 175:-0.502935 176:-0.267885 177:-0.405686 178:-0.156053 179:-0.591787 180:-0.087806 181:-0.348232 182:-0.439604 183:6.53413 184:-0.171669 185:-0.504015 186:-0.463651 187:-0.693313 188:-0.625993 189:-0.144543 190:-0.529454 191:-0.279304 192:-0.732017 193:-0.227789 194:-0.39515 195:-0.354788 
0.005856697906645522 0.004764790178969016 1:4.82161 2:-0.137852 3:-0.0163686 4:-0.40446 5:-0.241904 6:-0.0511861 7:-0.155333 8:0.0911412 9:-0.147991 10:-0.181015 11:0.242262 12:0.266982 13:0.341957 14:5.10079 15:-0.166554 16:0.191039 17:-0.198603 18:0.000862823 19:0.223352 20:-0.24195 21:0.106418 22:-0.289249 23:0.0127935 24:0.0684988 25:0.0118882 26:0.212386 27:5.6054 28:0.334365 29:0.204059 30:-0.196658 31:-0.159026 32:-0.219956 33:-0.485052 34:-0.192918 35:-0.0271103 36:-0.0600159 37:-0.0573613 38:-0.076356 39:-0.0388655 40:5.41338 41:0.468211 42:-0.110814 43:0.616494 44:-0.312522 45:-0.601564 46:-0.444535 47:-0.144257 48:0.231508 49:-0.561891 50:0.291863 51:0.0334033 52:0.0570108 53:5.15665 54:-0.337328 55:-0.243222 56:-0.335221 57:0.180037 58:0.175673 59:-0.590996 60:-0.161349 61:-0.186419 62:0.0926568 63:-0.0649376 64:-0.574414 65:0.0740563 66:4.28074 67:-0.0135171 68:-0.18348 69:-0.390166 70:-0.0804778 71:0.243845 72:-0.252357 73:-0.264527 74:-0.0746362 75:-0.0148041 76:0.133363 77:-0.0576428 78:-0.160459 79:4.40566 80:0.520896 81:0.0760806 82:-0.179584 83:-0.600291 84:-0.51804 85:-0.196757 86:0.0956104 87:-0.192955 88:-0.212127 89:0.0620603 90:0.187071 91:0.287383 92:5.0319 93:-0.247475 94:0.0197155 95:-0.494533 96:-0.0943482 97:-0.216134 98:-0.290215 99:0.20051 100:0.0986449 101:-0.019957 102:0.0155155 103:-0.20385 104:0.182165 105:5.58342 106:0.612688 107:-0.0897754 108:-0.284498 109:-0.414181 110:-0.476213 111:-0.0268678 112:-0.04053 113:0.0221361 114:-0.668349 115:0.683132 116:0.0918226 117:-0.231928 118:5.51568 119:0.583851 120:-0.0727903 121:-0.338692 122:-0.468401 123:-0.459565 124:-0.0105919 125:-0.0327585 126:0.0932771 127:-0.567932 128:0.642665 129:-0.0401095 130:0.0214626 131:5.63053 132:0.636082 133:-0.314853 134:-0.213749 135:-0.523483 136:-0.319076 137:-0.0910491 138:-0.0626092 139:0.0234646 140:-0.515049 141:0.689712 142:0.0212457 143:-0.118172 144:5.73046 145:0.360022 146:-0.15979 147:-0.496349 148:-0.532167 149:-0.376431 150:-0.178751 151:0.0744301 152:-0.350046 153:-0.198829 154:0.58022 155:0.376478 156:-0.278721 157:4.98052 158:0.362241 159:-0.0336046 160:-0.330799 161:-0.330576 162:-0.232483 163:-0.18144 164:-0.0138201 165:-0.212001 166:0.0150955 167:0.253249 168:0.129506 169:-0.250829 170:5.74564 171:0.463723 172:-0.236109 173:-0.133442 174:-0.369165 175:-0.344731 176:-0.308149 177:0.00338713 178:0.0193235 179:-0.0644775 180:0.491164 181:-0.310978 182:-0.0597032 183:5.37342 184:0.314711 185:-0.458213 186:-0.289956 187:-0.294483 188:-0.390864 189:-0.387072 190:-0.0127653 191:0.00312974 192:-0.150869 193:0.551505 194:-0.269464 195:-0.00297666 
0 0.003789899442523156 1:5.78197 2:-0.371529 3:-0.0710099 4:-0.0663886 5:-0.0417009 6:0.0681656 7:-0.275271 8:-0.336786 9:0.0184899 10:0.0769722 11:-0.103246 12:0.0678561 13:0.00805207 14:6.08304 15:-0.0966151 16:0.0339462 17:0.267997 18:0.113557 19:-0.277834 20:-0.242704 21:0.0959521 22:-0.12663 23:-0.151688 24:-0.0131697 25:0.041907 26:0.0720145 27:6.081 28:0.0216623 29:0.185886 30:0.305678 31:0.0341619 32:-0.366342 33:-0.226222 34:-0.270062 35:0.0242544 36:-0.0592569 37:-0.0524927 38:0.0397926 39:-0.135202 40:6.22373 41:-0.709799 42:-0.362858 43:-0.300637 44:0.281771 45:0.106839 46:-0.678652 47:-0.237399 48:-0.188259 49:0.108126 50:-0.218235 51:-0.353465 52:0.00780245 53:6.62337 54:0.409156 55:-0.193076 56:-0.5175 57:-0.536925 58:-0.231618 59:0.160958 60:-0.283685 61:0.0154802 62:0.00205584 63:0.110222 64:0.189504 65:-0.304076 66:6.50455 67:0.396212 68:-0.0516468 69:-0.467063 70:-0.628791 71:-0.206058 72:0.11149 73:-0.281275 74:0.00387359 75:-0.214346 76:0.236228 77:0.309405 78:-0.171095 79:6.46457 80:0.355772 81:-0.2047 82:-0.303697 83:-0.261485 84:-0.421216 85:-0.303546 86:-0.0933289 87:0.131711 88:0.0794895 89:0.157512 90:-0.129181 91:-0.26151 92:6.11122 93:0.327898 94:-0.0937046 95:-0.259053 96:-0.359786 97:-0.0998765 98:-0.170499 99:-0.625038 100:0.010859 101:0.254878 102:0.186698 103:-0.116715 104:-0.320602 105:6.44538 106:0.264016 107:-0.211115 108:-0.305184 109:-0.429255 110:-0.248143 111:-0.158759 112:-0.322354 113:0.0961418 114:0.266067 115:0.229444 116:-0.158146 117:-0.245423 118:6.38665 119:0.271407 120:-0.276843 121:-0.262428 122:-0.338208 123:-0.322743 124:-0.0657613 125:-0.16179 126:0.0183097 127:0.300724 128:0.0937745 129:-0.0172255 130:-0.429604 131:6.24234 132:0.327324 133:-0.269529 134:-0.297534 135:-0.383553 136:-0.316679 137:0.0156932 138:-0.149096 139:0.001877 140:0.129644 141:0.12347 142:0.0484294 143:-0.458079 144:6.18774 145:0.310394 146:-0.252161 147:-0.326492 148:-0.426828 149:-0.39285 150:-0.0223484 151:-0.0717063 152:-0.0264242 153:0.0504596 154:0.148372 155:0.202328 156:-0.546047 157:6.19795 158:0.300491 159:-0.238948 160:-0.264882 161:-0.374437 162:-0.404265 163:-0.025674 164:-0.00413987 165:-0.0189323 166:0.0517227 167:0.059384 168:0.155788 169:-0.468671 170:6.16477 171:0.346607 172:-0.222784 173:-0.343815 174:-0.377524 175:-0.385918 176:-0.0127887 177:0.0364436 178:-0.131394 179:0.0755419 180:0.0813239 181:0.135835 182:-0.422119 183:6.10849 184:0.351549 185:-0.188003 186:-0.390789 187:-0.334072 188:-0.299366 189:-0.0149483 190:-0.0879837 191:-0.0581426 192:0.0538074 193:0.162068 194:0.0627623 195:-0.45621 
0.1673323441323612 0.1496532443926214 1:4.65042 2:-0.0651647 3:-0.316771 4:-0.225526 5:-0.451836 6:-0.266802 7:-0.451443 8:-0.0277866 9:0.0879888 10:0.00654016 11:0.0447383 12:0.0748427 13:-0.112297 14:4.66108 15:-0.262748 16:-0.530101 17:-0.097198 18:-0.475626 19:-0.262532 20:-0.537485 21:-0.0898475 22:0.151888 23:-0.0684727 24:0.000861495 25:0.0497811 26:0.00832159 27:4.86138 28:-0.150086 29:-0.470762 30:-0.0329503 31:-0.340634 32:-0.324067 33:-0.530872 34:-0.188819 35:-0.119384 36:-0.235232 37:0.064835 38:-0.0452072 39:-0.121581 40:5.70048 41:0.0393329 42:-0.285413 43:-0.249805 44:-0.486205 45:-1.06075 46:-0.414713 47:-0.687187 48:-0.920462 49:-0.415904 50:-0.715757 51:-0.299317 52:-0.0954534 53:6.07601 54:0.461208 55:-0.704744 56:-0.457414 57:-0.703857 58:0.0905489 59:-0.192537 60:-0.469237 61:-0.0970072 62:-0.080134 63:0.203504 64:-0.293706 65:-0.0925405 66:5.06125 67:0.154525 68:-0.188682 69:-0.666136 70:-0.107065 71:-0.100797 72:0.202799 73:-0.121328 74:-0.281011 75:-0.00604785 76:0.0644934 77:-0.0911227 78:-0.26491 79:5.69717 80:-0.0447491 81:-0.166116 82:-0.182449 83:-0.304593 84:-0.256658 85:-0.380784 86:-0.163057 87:-0.114173 88:0.115136 89:-0.169013 90:0.0170153 91:0.0252401 92:6.07326 93:0.359645 94:-0.936596 95:-0.0832803 96:-0.376646 97:-0.110525 98:-0.136996 99:-0.183458 100:0.510236 101:-0.38024 102:0.210902 103:-0.930073 104:1.14299 105:5.8243 106:0.48075 107:-0.824044 108:-0.189194 109:-0.562322 110:0.321834 111:-0.300045 112:-0.775202 113:0.198967 114:-0.0324265 115:0.56193 116:-0.910531 117:0.855328 118:5.85032 119:0.443138 120:-0.834643 121:-0.160983 122:-0.71841 123:0.31405 124:-0.245649 125:-0.886224 126:0.360047 127:-0.046605 128:0.518488 129:-0.958817 130:1.00391 131:5.8072 132:0.408763 133:-0.81063 134:-0.254334 135:-0.800964 136:0.322831 137:-0.329886 138:-0.734738 139:0.289523 140:0.0532154 141:0.308829 142:-1.07457 143:1.0925 144:5.73241 145:0.387343 146:-0.820919 147:-0.222185 148:-0.788671 149:0.325933 150:-0.41155 151:-0.670838 152:0.364355 153:-0.128324 154:0.299168 155:-1.11163 156:1.20067 157:5.70826 158:0.394931 159:-0.853456 160:-0.220289 161:-0.76275 162:0.245887 163:-0.190608 164:-0.777548 165:0.166392 166:-0.324325 167:0.447609 168:-0.795347 169:1.12579 170:5.78036 171:0.448569 172:-0.736685 173:-0.268363 174:-0.672397 175:0.253427 176:-0.253151 177:-0.532382 178:0.235678 179:-0.267891 180:0.288207 181:-0.752389 182:0.793539 183:5.72227 184:0.393119 185:-0.468455 186:-0.300858 187:-0.398443 188:0.196903 189:-0.322484 190:-0.503457 191:0.0542848 192:-0.112435 193:0.112718 194:-0.466274 195:0.402638 
0.0370133818726431 0.03271519418744229 1:5.65185 2:-0.479185 3:-0.0972879 4:-0.197057 5:-0.24297 6:-0.0385558 7:-0.188811 8:-0.302792 9:-0.213107 10:-0.0696659 11:0.151818 12:-0.208126 13:0.0170788 14:6.02212 15:-0.0155886 16:0.0553728 17:-0.103003 18:0.0641412 19:-0.0547811 20:-0.326957 21:-0.312071 22:-0.146312 23:0.0520454 24:0.100939 25:-0.254347 26:0.0985776 27:6.60647 28:0.27903 29:-0.349653 30:0.161859 31:0.116751 32:-0.32662 33:-0.556611 34:-0.409318 35:0.0353428 36:-0.326533 37:0.258213 38:-0.0259215 39:0.0387463 40:6.09941 41:-0.0860854 42:0.0756045 43:0.586988 44:0.0467607 45:-0.0418244 46:-0.194027 47:-0.352362 48:0.156309 49:-0.774527 50:0.0921447 51:0.32458 52:0.00238376 53:5.93073 54:-0.483482 55:0.168675 56:-0.219629 57:0.168735 58:0.0435981 59:-0.387703 60:0.160346 61:-0.0848756 62:-0.0811723 63:0.0451893 64:-0.0448619 65:0.305221 66:6.2633 67:0.397484 68:-0.0687225 69:-0.0802349 70:-0.767896 71:-0.0968433 72:-0.0197078 73:-0.0158226 74:-0.318629 75:-0.349431 76:0.172067 77:0.171687 78:0.0198421 79:5.66221 80:-0.551527 81:-0.0126556 82:-0.251232 83:0.00442846 84:-0.0437675 85:-0.338541 86:-0.27115 87:-0.130371 88:0.0932687 89:0.304242 90:-0.0640406 91:0.0113485 92:5.48972 93:-0.249762 94:-0.117302 95:-0.557215 96:-0.132095 97:-0.0704022 98:-0.265922 99:-0.25081 100:-0.131721 101:0.0657024 102:0.00228532 103:-0.233698 104:0.177431 105:5.68049 106:0.378663 107:-0.0869044 108:-0.359393 109:-0.484452 110:-0.0815745 111:-0.0991627 112:-0.0715944 113:-0.682082 114:-0.0783183 115:0.115101 116:0.249482 117:-0.00401397 118:5.57893 119:0.367237 120:-0.0868618 121:-0.366292 122:-0.470934 123:-0.15102 124:-0.129394 125:-0.124894 126:-0.712286 127:0.00102419 128:0.0724962 129:0.133129 130:-0.0291847 131:5.72992 132:0.420219 133:-0.372123 134:-0.291947 135:-0.576528 136:-0.211897 137:0.0882433 138:-0.0659134 139:-0.357183 140:0.0185533 141:0.192219 142:0.0433386 143:-0.191408 144:5.76079 145:0.426876 146:-0.33277 147:-0.392294 148:-0.486345 149:-0.18722 150:-0.0150456 151:-0.0591541 152:-0.479028 153:0.217224 154:0.254553 155:-0.15725 156:-0.274788 157:5.64006 158:0.455128 159:-0.31124 160:-0.508989 161:-0.393757 162:-0.169699 163:-0.0756534 164:-0.0502533 165:-0.417857 166:0.245846 167:0.143518 168:-0.100391 169:-0.223845 170:5.41678 171:0.480515 172:-0.21699 173:-0.443727 174:-0.378902 175:-0.148878 176:-0.0536955 177:0.0209298 178:-0.433084 179:0.153689 180:0.303522 181:-0.0633044 182:-0.416516 183:5.4143 184:0.452156 185:-0.279939 186:-0.464624 187:-0.328445 188:-0.0809456 189:0.0258352 190:-0.0847822 191:-0.349164 192:0.218657 193:0.0645582 194:-0.0963156 195:-0.204428 
0.03528079391518815 0.03213068948964332 1:5.7405 2:-0.0475461 3:-0.417981 4:-0.117145 5:-0.110884 6:-0.347182 7:-0.558176 8:-0.392841 9:-0.188581 10:0.179593 11:0.523136 12:0.050496 13:-0.00248873 14:5.53636 15:-0.0354344 16:-0.421477 17:0.0995093 18:0.123437 19:-0.548787 20:-0.227869 21:-0.512324 22:-0.0778613 23:0.117809 24:0.236318 25:-0.0125442 26:-0.100857 27:5.53447 28:-0.0100617 29:-0.285128 30:0.263899 31:-0.0260713 32:-0.404151 33:0.0802558 34:-0.181249 35:-0.188499 36:-0.0617138 37:0.273418 38:-0.0701763 39:-0.0741761 40:6.18811 41:-0.00193603 42:0.367276 43:0.250969 44:-0.0361795 45:-0.505728 46:-0.548654 47:-0.0243226 48:-0.213686 49:-0.394177 50:0.101781 51:0.45241 52:0.108948 53:5.96204 54:-0.570619 55:0.288961 56:-0.231464 57:0.264255 58:-0.209966 59:-0.683975 60:0.0580562 61:0.125653 62:0.128501 63:-0.353019 64:-0.093146 65:-0.0693778 66:5.20065 67:-0.291404 68:0.180408 69:-0.274188 70:-0.0435169 71:-0.0979582 72:-0.461222 73:0.0294936 74:-0.20582 75:-0.0153366 76:-0.0167006 77:0.138304 78:-0.0910385 79:6.77787 80:0.189258 81:-0.230831 82:0.169267 83:-0.213492 84:-0.520895 85:-0.729477 86:-0.541078 87:0.21369 88:-0.0942391 89:0.0283248 90:0.125902 91:0.0426099 92:6.47448 93:0.250361 94:-0.244427 95:0.2702 96:-0.302683 97:-0.445885 98:-0.518566 99:-0.756752 100:0.335417 101:-0.235285 102:0.225718 103:-0.0230717 104:-0.0390565 105:6.32664 106:0.282364 107:-0.15513 108:0.371456 109:-0.367632 110:-0.664328 111:-0.0142684 112:-1.18736 113:0.399973 114:-0.605688 115:0.381155 116:-0.464689 117:-0.176151 118:6.62341 119:0.355318 120:-0.247992 121:0.121005 122:-0.623103 123:-0.473525 124:-0.281583 125:-0.674762 126:0.314969 127:-0.120466 128:0.421527 129:-0.464754 130:-0.0587338 131:6.6689 132:0.324174 133:-0.370886 134:-0.0796129 135:-0.52879 136:-0.48867 137:-0.233667 138:-0.194557 139:0.0890332 140:0.35326 141:0.0702011 142:-0.203094 143:-0.182718 144:6.6869 145:0.27965 146:-0.415248 147:-0.246326 148:-0.342197 149:-0.261775 150:-0.232405 151:-0.180298 152:-0.0646336 153:0.474677 154:0.0787643 155:-0.147254 156:-0.325643 157:6.57582 158:0.266725 159:-0.599263 160:-0.275746 161:-0.37655 162:-0.285872 163:-0.148713 164:-0.330049 165:-0.256861 166:0.349699 167:-0.00564779 168:-0.0142317 169:-0.391512 170:6.16992 171:0.266045 172:-0.383913 173:-0.272638 174:-0.320184 175:-0.200434 176:-0.0309624 177:-0.100213 178:-0.140961 179:0.25613 180:0.0144481 181:-0.0758221 182:-0.225083 183:6.17256 184:0.371826 185:-0.433199 186:-0.494357 187:-0.127909 188:-0.128679 189:-0.132871 190:-0.143487 191:-0.206593 192:0.223423 193:0.243983 194:0.0502097 195:-0.183091 
-0 0.8863883320916365 1:4.95285 2:5.95192 3:5.86536 4:5.97119 5:6.40995 6:6.37695 7:5.95958 8:6.07629 9:5.83982 10:5.78004 11:5.71349 12:5.86182 13:5.96157 14:5.98678 15:5.7703 16:0.0112764 17:-0.0989628 18:-0.207386 19:0.0549185 20:0.0573534 21:-0.292227 22:-0.0552374 23:0.349817 24:0.374164 25:0.355573 26:0.367146 27:0.32006 28:0.280507 29:0.242988 30:0.197189 31:-0.141098 32:-0.248523 33:-0.424703 34:-0.0833474 35:-0.053933 36:0.0793673 37:-0.245844 38:-0.252342 39:-0.245883 40:-0.139743 41:-0.227363 42:-0.32287 43:-0.163251 44:-0.191649 45:-0.301229 46:-0.207777 47:-0.116496 48:-0.0864574 49:0.124668 50:0.407854 51:0.204096 52:-0.521173 53:-0.280814 54:-0.253855 55:-0.217047 56:-0.221176 57:-0.498871 58:-0.608699 59:-0.436365 60:-0.417342 61:-0.423007 62:-0.439028 63:-0.43408 64:-0.45572 65:-0.255417 66:-0.348779 67:-0.740059 68:-0.772545 69:-0.788697 70:-0.719097 71:-0.847339 72:-1.03743 73:-0.916487 74:-0.875933 75:-0.571256 76:-0.178026 77:-0.345094 78:-0.293518 79:0.0215757 80:-0.144703 81:-0.140179 82:0.0556911 83:-0.186647 84:-0.271175 85:-0.248718 86:-0.148243 87:-0.053329 88:-0.0296426 89:0.187664 90:0.188828 91:-0.418134 92:-0.719121 93:-0.457042 94:-0.590867 95:-0.740124 96:-0.702111 97:-0.351285 98:-0.490974 99:-0.367646 100:-0.363943 101:-0.250303 102:-0.44965 103:-0.606257 104:-0.387642 105:-0.379617 106:-0.231962 107:-0.439135 108:-0.463638 109:-0.435869 110:-0.346566 111:-0.39266 112:-0.390379 113:0.00168542 114:-0.129262 115:-0.309879 116:-0.449529 117:-0.249641 118:0.0243583 119:-0.0134868 120:-0.103838 121:-0.198143 122:-0.0996317 123:-0.0570508 124:-0.229088 125:-0.308957 126:0.0223781 127:0.0658118 128:-0.308439 129:-0.393826 130:-0.400211 131:-0.416721 132:-0.32377 133:-0.568454 134:-0.307487 135:-0.460259 136:-0.203741 137:0.0349282 138:0.223236 139:0.145032 140:-0.30622 141:-0.195049 142:-0.0366409 143:0.443411 144:0.0461518 145:0.00524507 146:0.0101098 147:0.203241 148:0.405836 149:0.222041 150:0.169203 151:-0.162574 152:-0.101602 153:-0.282897 154:-0.184836 155:0.104501 156:-0.281301 157:-0.059843 158:0.270972 159:0.268649 160:0.163554 161:0.322642 162:0.296503 163:0.218835 164:0.0783955 165:0.208846 166:0.0552263 167:-0.119466 168:-0.200699 169:-0.140618 170:-0.0259366 171:-0.148543 172:-0.208787 173:-0.0772747 174:-0.0780031 175:0.0581663 176:0.155696 177:-0.0719543 178:-0.115222 179:-0.0451534 180:-0.363771 181:0.212846 182:0.00615105 183:0.0476707 184:0.103842 185:0.0391269 186:0.164916 187:0.0967365 188:-0.0148942 189:0.0212358 190:0.133656 191:-0.0390354 192:0.110884 193:-0.121337 194:-0.26352 195:-0.152455 
-0.0562608294407543 1 1:5.22744 2:5.3909 3:6.28293 4:5.75372 5:5.31828 6:4.17283 7:6.2124 8:6.72224 9:6.52117 10:6.48455 11:6.3224 12:6.29962 13:6.31772 14:6.17467 15:6.09417 16:-0.118699 17:0.253073 18:0.368046 19:0.109431 20:-0.279875 21:-0.0259283 22:0.350166 23:0.419003 24:0.407325 25:0.421967 26:0.452725 27:0.43401 28:0.391012 29:0.368707 30:0.391929 31:-0.29735 32:0.16085 33:-0.0917033 34:-0.490458 35:-0.0668502 36:0.127716 37:-0.34091 38:-0.61616 39:-0.572318 40:-0.565441 41:-0.531115 42:-0.492682 43:-0.624209 44:-0.577534 45:-0.646339 46:0.233471 47:0.340083 48:0.572556 49:-0.166899 50:-0.237374 51:-0.173477 52:0.191897 53:-0.220137 54:-0.0918295 55:-0.10138 56:-0.1751 57:-0.212751 58:-0.0896099 59:-0.167018 60:-0.0880358 61:-0.174309 62:0.039982 63:-0.048717 64:-0.159348 65:-0.115827 66:-0.104108 67:-0.41972 68:-0.394711 69:-0.569879 70:-0.532015 71:-0.433625 72:-0.420589 73:-0.4463 74:-0.481433 75:-0.397111 76:-0.362996 77:-0.379038 78:-0.613048 79:-0.199156 80:-0.133189 81:-0.0970121 82:-0.261788 83:-0.0597381 84:0.200174 85:0.143704 86:0.108989 87:0.0971858 88:0.0864649 89:0.136103 90:-0.0258551 91:-0.392995 92:-0.37097 93:-0.385217 94:-0.416795 95:-0.147786 96:-0.0647437 97:-0.370871 98:-0.133062 99:-0.23084 100:-0.242831 101:-0.200929 102:-0.273325 103:-0.265098 104:-0.303503 105:-0.240281 106:-0.192771 107:-0.163599 108:-0.126586 109:-0.11466 110:-0.0569146 111:-0.124044 112:-0.0181916 113:-0.0815754 114:-0.19967 115:-0.184129 116:-0.179895 117:-0.125151 118:-0.105605 119:-0.0483121 120:-0.0304451 121:0.258398 122:-0.198175 123:-0.315494 124:-0.0807682 125:0.0754617 126:-0.0540934 127:0.0244666 128:-0.0014134 129:0.0919469 130:0.0863405 131:0.111956 132:0.0785772 133:0.099345 134:0.116481 135:0.109653 136:0.0714282 137:-0.0894412 138:-0.228878 139:0.219294 140:-0.00153419 141:0.00533042 142:0.0909576 143:0.1521 144:0.159766 145:0.13463 146:0.0647678 147:0.0205148 148:0.0297386 149:-0.0446685 150:-0.101324 151:-0.118109 152:0.0150582 153:0.250243 154:-0.125251 155:-0.138504 156:0.0714936 157:-0.198553 158:-0.19553 159:-0.0240722 160:-0.0397924 161:-0.162796 162:-0.22621 163:-0.203974 164:-0.353132 165:-0.434134 166:0.0882502 167:0.0628147 168:-0.0553641 169:0.0302335 170:0.121892 171:0.0484583 172:-0.0931231 173:-0.220748 174:-0.330292 175:-0.332408 176:-0.233315 177:-0.15001 178:-0.239164 179:-0.0872981 180:-0.325 181:0.0318576 182:0.173089 183:0.416932 184:0.167258 185:0.0417434 186:0.103209 187:0.201791 188:0.12631 189:0.191341 190:0.232363 191:0.147455 192:0.172321 193:0.158219 194:0.139419 195:0.0468329 
-0.2098651078737233 0.3568033705527028 1:5.36541 2:5.7188 3:6.4256 4:6.03404 5:6.5247 6:6.03178 7:6.11354 8:6.87198 9:6.14537 10:5.88082 11:5.78744 12:5.94483 13:6.0655 14:6.02122 15:5.96855 16:-0.0737824 17:0.0830873 18:0.247253 19:-0.184156 20:0.198214 21:-0.638848 22:-0.562732 23:0.211813 24:0.363245 25:0.318918 26:0.333387 27:0.273898 28:0.188695 29:0.194236 30:0.208321 31:-0.29167 32:-0.0793358 33:-0.135254 34:0.126423 35:-0.00258475 36:-0.159556 37:-0.248142 38:-0.383244 39:0.0584305 40:0.244088 41:0.293716 42:0.147682 43:0.036741 44:-0.117165 45:-0.227339 46:-0.0179886 47:0.171843 48:0.0820135 49:0.281221 50:-0.204347 51:-0.201574 52:-0.256519 53:-0.248879 54:-0.312442 55:-0.260099 56:-0.264291 57:-0.292771 58:-0.421049 59:-0.437192 60:-0.431356 61:-0.275457 62:-0.118937 63:-0.501806 64:0.269004 65:-0.923224 66:-0.287073 67:-0.282284 68:-0.438442 69:-0.785971 70:-0.789832 71:-0.800701 72:-0.772687 73:-0.682119 74:-0.673375 75:-0.69835 76:-0.18541 77:-0.0852673 78:-0.114097 79:-0.267897 80:-0.703611 81:-0.23431 82:-0.120363 83:-0.523225 84:-0.67003 85:-0.764432 86:-0.712584 87:-0.6464 88:-0.739587 89:-0.593364 90:-0.526098 91:0.263864 92:0.0925213 93:0.317088 94:-0.3069 95:0.400139 96:-0.101987 97:0.066048 98:0.135609 99:0.418863 100:0.202535 101:0.208587 102:0.186536 103:0.539872 104:0.444155 105:0.437756 106:-0.154947 107:-0.230442 108:-0.465554 109:-0.15064 110:-0.0798217 111:-0.235856 112:-0.0249669 113:-0.643374 114:-0.0402086 115:-0.144 116:-0.180398 117:-0.0231739 118:-0.0917922 119:-0.064842 120:-0.0829842 121:-0.256516 122:-0.0984394 123:-0.179317 124:0.157677 125:0.0253204 126:0.044108 127:0.111177 128:0.156141 129:-0.0834016 130:0.0881838 131:0.129819 132:0.14848 133:0.0497133 134:-0.105103 135:-0.0430733 136:0.158788 137:0.0615736 138:-0.367607 139:-0.279245 140:-0.170645 141:0.0246924 142:0.149552 143:0.0457564 144:-0.278242 145:-0.235257 146:-0.217524 147:-0.201886 148:-0.356492 149:-0.266665 150:-0.222716 151:-0.169672 152:-0.09293 153:0.014144 154:-0.423765 155:0.0816349 156:-0.162691 157:-0.209651 158:0.418746 159:0.158169 160:0.286334 161:0.297121 162:0.177977 163:0.272384 164:0.385098 165:0.39703 166:0.229403 167:0.102197 168:0.361606 169:-0.0535563 170:-0.0901836 171:0.06329 172:0.0278149 173:0.065114 174:0.0514807 175:-0.0327488 176:-0.19995 177:-0.192277 178:0.0904246 179:0.0644353 180:0.171687 181:0.221218 182:0.0566711 183:-0.239039 184:-0.174531 185:0.218004 186:0.0827156 187:0.0228727 188:-0.463167 189:0.011704 190:-0.0122975 191:-0.10867 192:-0.0359607 193:-0.0575193 194:0.0734225 195:-0.0778126 
-0 1 1:5.23412 2:5.32116 3:5.81106 4:6.00683 5:5.91917 6:6.24 7:5.6009 8:4.60904 9:5.65121 10:5.64405 11:5.50006 12:5.23903 13:5.3804 14:5.41631 15:5.35947 16:0.0525995 17:0.0858903 18:0.344433 19:0.101107 20:0.123404 21:0.516832 22:0.588466 23:-0.355724 24:0.409958 25:0.416672 26:0.443298 27:0.39547 28:0.378763 29:0.392688 30:0.375893 31:-0.518894 32:-0.788531 33:-0.378716 34:-0.0430155 35:0.0170168 36:-0.184571 37:0.016519 38:0.0977146 39:0.0490461 40:0.131941 41:0.127217 42:0.128431 43:-0.052264 44:-0.164973 45:-0.300876 46:0.0629085 47:0.0972915 48:0.26522 49:0.886494 50:0.829792 51:-0.358007 52:-0.177496 53:0.0938217 54:-0.205698 55:-0.168061 56:-0.125982 57:-0.119763 58:-0.0845939 59:-0.461743 60:-0.458355 61:-0.199259 62:-0.117877 63:-0.181594 64:0.032597 65:0.0218161 66:-0.547186 67:-0.758441 68:-0.590835 69:-0.666472 70:-0.667412 71:-0.620551 72:-0.563907 73:-0.513576 74:-0.52033 75:-0.522753 76:-0.100091 77:-0.203077 78:-0.291344 79:-0.275291 80:-0.402493 81:-0.175228 82:-0.467053 83:-0.2245 84:-0.0945167 85:-0.23642 86:-0.0574239 87:-0.0682713 88:-0.0656985 89:0.0976109 90:0.0389453 91:-0.194908 92:0.140457 93:-0.110134 94:-0.191149 95:-0.385443 96:0.121517 97:0.0100489 98:-0.392378 99:-0.213286 100:-0.177896 101:-0.378826 102:-0.418896 103:-0.10841 104:-0.0210121 105:0.170597 106:-0.345957 107:0.0177464 108:-0.258658 109:-0.152897 110:-0.291312 111:-0.140279 112:-0.0835564 113:-0.606446 114:0.109116 115:0.0283936 116:0.187547 117:0.367489 118:0.284399 119:0.34513 120:0.287769 121:-0.290138 122:-0.037852 123:-0.267051 124:-0.340181 125:-0.210085 126:0.000939898 127:-0.0516534 128:-0.00892891 129:-0.343351 130:-0.1682 131:-0.161132 132:-0.34112 133:-0.377943 134:-0.523882 135:-0.400315 136:-0.107525 137:-0.00506859 138:0.0695727 139:-0.376958 140:-0.379276 141:-0.156532 142:-0.261609 143:0.144237 144:0.150209 145:0.134971 146:0.023101 147:0.0920779 148:0.151162 149:0.205817 150:0.14382 151:-0.0746282 152:-0.162141 153:-0.19612 154:-0.340306 155:-0.18053 156:0.387794 157:0.0843275 158:0.140662 159:0.19812 160:0.0985953 161:0.134851 162:0.28939 163:0.0960826 164:0.211057 165:0.217668 166:0.164976 167:0.177544 168:0.0716309 169:0.218579 170:0.115166 171:0.304265 172:0.182383 173:0.0898188 174:-0.00145371 175:0.0249097 176:-0.188987 177:-0.185463 178:0.0513427 179:-0.146688 180:-0.0828291 181:0.00405724 182:0.185441 183:0.140269 184:-0.238728 185:0.00667395 186:-0.258368 187:-0.196747 188:0.0235871 189:-0.0627435 190:0.000602386 191:0.151193 192:0.0958895 193:0.114781 194:-0.0790706 195:0.0112742 
-0.4980210008749817 0 1:1.00307 2:1.76965 3:2.03627 4:4.09705 5:3.15873 6:4.8777 7:4.00095 8:6.07098 9:5.63643 10:4.96302 11:4.89182 12:4.26075 13:4.78992 14:4.38614 15:4.16673 16:-0.399229 17:-0.420077 18:-0.410724 19:0.910656 20:-0.808338 21:0.441302 22:-0.774839 23:0.159093 24:0.179546 25:0.301054 26:0.493102 27:0.413732 28:0.347177 29:0.223983 30:0.435354 31:-0.225547 32:-0.53323 33:-0.666028 34:0.768406 35:0.841643 36:0.247469 37:1.28445 38:-0.417881 39:-0.0968658 40:0.12347 41:0.169095 42:0.0485436 43:-0.255856 44:-0.356366 45:-0.386084 46:-0.300886 47:-1.33328 48:-1.72224 49:-0.950423 50:-0.144639 51:-2.02936 52:-1.29793 53:-0.875491 54:-1.48331 55:-1.25749 56:-1.26522 57:-1.3094 58:-1.49511 59:-1.40112 60:-1.4694 61:-0.206658 62:-0.193309 63:-0.244103 64:0.697183 65:0.436964 66:-0.589436 67:-0.559299 68:-0.540622 69:-0.638423 70:-0.567168 71:-0.783215 72:-0.892715 73:-1.18107 74:-1.13871 75:-0.905494 76:-0.1525 77:0.936645 78:1.31776 79:0.381129 80:-0.121772 81:0.797073 82:1.02708 83:-0.0856541 84:0.0840806 85:0.032243 86:0.161208 87:0.198659 88:0.535425 89:0.465114 90:0.438605 91:-0.117615 92:0.175476 93:0.327202 94:-0.840331 95:-0.957893 96:-0.64875 97:-0.532517 98:-0.419502 99:-0.472503 100:-0.420991 101:-0.239326 102:-0.316884 103:0.0315845 104:0.0325061 105:-0.0345894 106:-0.169675 107:0.197967 108:0.300151 109:-1.24123 110:-0.284948 111:-0.177816 112:-0.232159 113:-0.432544 114:-0.68136 115:-0.654895 116:-1.05313 117:-1.02375 118:-1.28424 119:-1.23205 120:-1.03381 121:-0.158713 122:-1.53706 123:-1.96399 124:-0.469377 125:-0.308626 126:0.131679 127:0.0889239 128:0.333933 129:0.0403354 130:-0.135796 131:-0.112133 132:-0.084764 133:-0.219195 134:-0.318045 135:0.0894526 136:-0.0708906 137:0.274301 138:0.336668 139:0.275801 140:0.131563 141:-0.0872995 142:-0.0736341 143:0.218764 144:0.424151 145:0.102784 146:0.197305 147:0.360959 148:1.15295 149:1.49335 150:1.11266 151:-0.0223523 152:-0.250602 153:-0.304488 154:1.11772 155:0.297732 156:0.335731 157:0.124951 158:-0.468073 159:0.0238282 160:0.0414701 161:-0.0267009 162:-0.104896 163:-0.73848 164:-1.00818 165:-0.652239 166:0.0629869 167:0.725267 168:0.920083 169:0.0113304 170:-0.598276 171:0.12126 172:-0.230269 173:-0.192198 174:0.111928 175:-0.0140668 176:0.108831 177:-0.125671 178:0.0515725 179:0.0355784 180:-0.17531 181:0.0841182 182:0.129686 183:0.106361 184:0.176543 185:-0.147538 186:-0.110188 187:-0.444566 188:0.236807 189:0.0985318 190:-0.0106222 191:0.0214987 192:-0.0172422 193:0.15453 194:0.154548 195:0.214394 
-0.02058232679353951 0.4120627171413338 1:4.40014 2:6.07877 3:5.71147 4:6.11822 5:5.98125 6:6.02918 7:6.11296 8:7.01459 9:6.40761 10:6.22126 11:6.10395 12:6.13098 13:6.20389 14:6.2959 15:6.37492 16:-0.158088 17:-0.427013 18:-0.506022 19:-0.233215 20:-0.570823 21:-0.593919 22:-0.133692 23:-0.0854571 24:0.0769627 25:0.155213 26:0.0713567 27:-0.00643883 28:-0.0324371 29:-0.041387 30:-0.0494452 31:-0.381091 32:-0.57562 33:-0.642452 34:0.19183 35:-0.0843103 36:-0.0762312 37:0.0536885 38:-0.267371 39:-0.130308 40:-0.0406446 41:0.00208721 42:-0.0849057 43:-0.263041 44:-0.248885 45:-0.320214 46:-0.139723 47:-0.246977 48:-0.198862 49:0.250012 50:-0.633549 51:-0.514938 52:0.112253 53:-0.0537566 54:-0.367692 55:-0.50367 56:-0.528553 57:-0.539039 58:-0.665764 59:-0.636697 60:-0.570033 61:-0.05227 62:-0.105745 63:-0.327932 64:-0.00807967 65:-0.44303 66:-0.396488 67:0.0489377 68:0.0458643 69:-0.455913 70:-0.413418 71:-0.366669 72:-0.399009 73:-0.233337 74:-0.322015 75:-0.177567 76:0.100279 77:0.17105 78:0.301448 79:-0.335109 80:-0.297309 81:-0.277524 82:-0.223739 83:-0.413407 84:-0.0657881 85:0.183335 86:0.207991 87:0.238803 88:0.234222 89:0.140244 90:0.1738 91:-0.159476 92:-0.215719 93:-0.0451283 94:-0.682537 95:-0.473895 96:-0.483989 97:-0.703492 98:-1.02564 99:-0.425039 100:-0.673749 101:-0.709947 102:-0.586824 103:-0.479982 104:-0.537122 105:-0.497798 106:-0.255666 107:-0.383314 108:-0.360054 109:0.294984 110:0.0217298 111:-0.0676709 112:-0.145647 113:-0.312256 114:-0.23154 115:-0.105586 116:-0.103094 117:0.0781447 118:-0.00912539 119:-0.243456 120:-0.0734854 121:-0.300851 122:-0.831393 123:-0.612893 124:-0.357765 125:-0.139159 126:-0.0850614 127:-0.330006 128:-0.449404 129:-0.63712 130:-0.496544 131:-0.537893 132:-0.492418 133:-0.46462 134:-0.479602 135:-0.453676 136:-0.184632 137:-0.21287 138:-0.0248851 139:-0.36253 140:0.154108 141:0.0138617 142:-0.120087 143:0.0373502 144:-0.243542 145:-0.385038 146:-0.497637 147:-0.18804 148:0.0558278 149:-0.07706 150:-0.0509994 151:0.00260636 152:-0.0435238 153:0.310613 154:0.134642 155:0.13476 156:0.141771 157:-0.104802 158:0.376275 159:0.261037 160:0.327327 161:0.335623 162:0.491462 163:0.421934 164:0.26305 165:0.276188 166:0.120964 167:0.201362 168:0.124449 169:0.12985 170:-0.192415 171:-0.0848311 172:0.0230628 173:0.213339 174:0.439288 175:0.282198 176:0.16434 177:0.108107 178:-0.161132 179:-0.192511 180:-0.164163 181:-0.31123 182:-0.143185 183:0.0465495 184:0.097858 185:-0.30194 186:-0.391064 187:-0.0380723 188:-0.0941402 189:0.0476681 190:0.144218 191:0.104502 192:-0.170014 193:-0.403763 194:-0.376415 195:-0.474235 
-0 1 1:4.36418 2:5.23135 3:6.23479 4:5.23136 5:5.70779 6:5.9194 7:5.85944 8:6.02659 9:6.34034 10:6.31057 11:6.36492 12:6.5013 13:6.34302 14:6.10381 15:5.97326 16:-0.0574465 17:-0.0287456 18:-0.00598594 19:0.183623 20:0.110412 21:-0.169657 22:-0.491139 23:0.582665 24:0.486883 25:0.460947 26:0.455869 27:0.344939 28:0.344589 29:0.359926 30:0.298986 31:-0.330005 32:-0.341628 33:-0.327437 34:-0.239909 35:-0.281301 36:0.159873 37:-0.0112837 38:-0.106485 39:-0.187833 40:-0.152302 41:-0.264366 42:-0.398262 43:-0.413064 44:-0.321622 45:-0.162429 46:-0.278362 47:-0.325203 48:-0.343341 49:-0.22105 50:-0.580477 51:-0.355045 52:-0.547936 53:-0.588959 54:-0.639051 55:-0.624872 56:-0.637581 57:-0.497544 58:-0.456128 59:-0.488866 60:-0.311471 61:-0.407072 62:-0.510522 63:-0.567373 64:-0.325618 65:-0.335057 66:0.211153 67:0.142895 68:-0.578272 69:-0.417854 70:-0.428417 71:-0.314883 72:-0.337025 73:-0.347869 74:-0.233479 75:-0.292435 76:-0.350666 77:-0.0069368 78:0.0426888 79:-0.244338 80:0.355674 81:0.0285542 82:-0.236562 83:0.206333 84:0.268593 85:0.250081 86:0.208842 87:0.316671 88:0.289185 89:0.280209 90:0.198232 91:-0.079802 92:-0.206236 93:-0.226096 94:-0.112729 95:-0.136563 96:-0.240208 97:-0.58387 98:-0.198495 99:-0.238775 100:-0.168261 101:-0.0885243 102:-0.148193 103:-0.0936627 104:-0.0863886 105:0.0447073 106:-0.101352 107:-0.265984 108:-0.238246 109:-0.372207 110:-0.000551629 111:-0.13543 112:0.151233 113:-0.258473 114:-0.114251 115:-0.138711 116:-0.170696 117:-0.21782 118:-0.151182 119:-0.119043 120:-0.162554 121:-0.0558368 122:-0.00948062 123:0.0269398 124:-0.160345 125:-0.438885 126:-0.222962 127:-0.0522489 128:-0.0484734 129:0.0315228 130:0.120374 131:0.159054 132:0.162592 133:-0.0151849 134:-0.0305674 135:-0.159867 136:0.0586251 137:0.0531621 138:0.183607 139:0.190858 140:0.042551 141:0.103141 142:0.0930131 143:0.151034 144:0.250271 145:0.0862874 146:0.0950653 147:0.102619 148:0.190087 149:0.207436 150:0.107623 151:-0.0150325 152:-0.0738556 153:0.0369025 154:-0.403612 155:-0.13438 156:0.00889534 157:-0.0390208 158:0.156996 159:-0.349456 160:-0.358356 161:-0.43115 162:-0.368692 163:-0.392578 164:-0.504495 165:-0.420765 166:0.159701 167:-0.0790972 168:-0.0964834 169:-0.0883576 170:0.0223936 171:-0.0813606 172:-0.169441 173:-0.0941151 174:-0.163122 175:-0.108608 176:-0.0281383 177:-0.0908679 178:-0.119659 179:-0.0578241 180:-0.130222 181:0.061254 182:0.0687912 183:0.166041 184:-0.0894594 185:-0.0815704 186:-0.1787 187:0.0670076 188:-0.11307 189:-0.00470736 190:0.0643008 191:0.089419 192:0.163758 193:0.120082 194:0.125027 195:0.168198 
-0 0.09498338200174151 1:5.19248 2:5.23438 3:5.2661 4:5.61815 5:5.92511 6:4.52691 7:6.4085 8:6.0141 9:5.43226 10:5.58105 11:6.08412 12:6.17068 13:6.04349 14:6.01592 15:5.62851 16:0.0594979 17:-0.121814 18:0.0640025 19:0.113541 20:-0.56438 21:-0.126992 22:0.413516 23:0.53325 24:0.566857 25:0.503366 26:0.405479 27:0.381507 28:0.450372 29:0.387035 30:0.339279 31:-0.054402 32:-0.300013 33:-0.278163 34:-0.531623 35:0.111242 36:0.0770492 37:-0.464255 38:-0.312485 39:0.13662 40:0.00750515 41:-0.128435 42:-0.185007 43:-0.340632 44:-0.336428 45:-0.312882 46:0.0722591 47:0.0129547 48:0.0126118 49:-0.190138 50:-0.168774 51:-0.150748 52:-0.121279 53:-0.187927 54:-0.113765 55:-0.0338455 56:-0.234197 57:-0.206906 58:-0.262189 59:-0.2988 60:-0.255753 61:-0.298852 62:-0.229972 63:-0.1441 64:-0.112391 65:-0.182816 66:0.0461757 67:-0.327708 68:-0.433976 69:-0.488903 70:-0.36298 71:-0.533408 72:-0.504943 73:-0.383537 74:-0.296134 75:-0.0951152 76:0.110106 77:-0.0373203 78:-0.384729 79:-0.169555 80:-0.339616 81:-0.053173 82:-0.0103541 83:0.0648169 84:0.0771255 85:-0.20397 86:0.186174 87:0.217853 88:0.111109 89:0.0183414 90:-0.00662701 91:-0.315006 92:0.0898922 93:-0.298649 94:-0.497409 95:-0.35869 96:-0.1547 97:-0.305219 98:-0.118412 99:-0.27765 100:-0.123871 101:-0.0464812 102:-0.0755892 103:-0.121039 104:-0.0512828 105:0.0132831 106:-0.196016 107:-0.144806 108:-0.290868 109:-0.0205333 110:0.00874145 111:-0.0558036 112:-0.0331057 113:-0.24251 114:-0.381314 115:-0.199338 116:-0.237412 117:-0.203367 118:-0.0955173 119:-0.111261 120:-0.0344785 121:-0.0429894 122:-0.166277 123:-0.21362 124:-0.0674875 125:-0.0322507 126:0.000328264 127:0.0304485 128:-0.0757921 129:-0.00569306 130:-0.0977591 131:0.0884406 132:0.114989 133:0.00384492 134:0.000857849 135:-0.0762703 136:0.0573886 137:0.207999 138:0.132227 139:-0.0277321 140:-0.122682 141:0.142885 142:0.0379973 143:0.205191 144:-0.127713 145:-0.235134 146:-0.0150856 147:-0.0402172 148:0.184986 149:0.196832 150:0.284806 151:0.00607383 152:-0.186916 153:-0.212531 154:0.00466326 155:-0.0234325 156:-0.229642 157:-0.249607 158:-0.0803467 159:0.10866 160:0.26235 161:0.0209643 162:-0.0409785 163:-0.208962 164:-0.295776 165:-0.291474 166:0.0118902 167:-0.428615 168:-0.0922603 169:-0.120002 170:0.198516 171:-0.0917539 172:-0.12172 173:-0.184013 174:-0.0474316 175:0.0118532 176:-0.193014 177:-0.272594 178:-0.219633 179:-0.108811 180:-0.120096 181:0.0374645 182:-0.0659928 183:0.160499 184:0.164982 185:-0.00298799 186:-0.0963692 187:0.0289935 188:0.0706916 189:0.14821 190:-0.159912 191:-0.0813874 192:0.00787876 193:0.114111 194:0.132585 195:0.15004 
-0 1 1:3.75799 2:4.76935 3:4.48218 4:6.03912 5:4.04577 6:6.29524 7:4.36809 8:6.23281 9:5.35973 10:5.3369 11:5.0294 12:4.9302 13:4.86225 14:5.17127 15:4.64522 16:-0.115128 17:-0.220172 18:-0.246162 19:0.0315192 20:-0.340866 21:0.198398 22:-0.65428 23:0.0379296 24:0.215402 25:0.217888 26:0.257657 27:0.325976 28:0.371575 29:0.278884 30:0.295637 31:-0.261366 32:-0.383944 33:-0.377006 34:-0.26995 35:-0.00166883 36:-0.802164 37:0.188741 38:-0.493707 39:-0.25242 40:-0.384309 41:-0.537611 42:-0.545725 43:-0.563504 44:-0.685225 45:-0.626339 46:-0.0624344 47:-0.145015 48:-0.411813 49:0.205624 50:-0.245709 51:-0.468205 52:-0.313971 53:-0.822645 54:-0.739672 55:-0.824708 56:-0.634671 57:-0.54605 58:-0.586969 59:-0.598648 60:-0.56124 61:-0.316668 62:-0.6605 63:-0.477623 64:-0.616189 65:0.151202 66:-0.524126 67:0.0454115 68:-0.455382 69:-0.436407 70:-0.572044 71:-0.462072 72:-0.410575 73:-0.357387 74:-0.352479 75:-0.343743 76:-0.0463616 77:0.290131 78:0.159804 79:-0.631643 80:-0.101518 81:-0.0749005 82:-0.0230426 83:-0.0428287 84:-0.0248025 85:-0.0789763 86:-0.188239 87:-0.09756 88:-0.0846894 89:-0.0282435 90:-0.139958 91:-0.192362 92:-0.39848 93:-0.407318 94:-0.553977 95:-0.29233 96:-0.390696 97:-0.416087 98:-0.189613 99:-0.160902 100:-0.146705 101:-0.161361 102:-0.261271 103:-0.313314 104:-0.415114 105:-0.389388 106:-0.285261 107:-0.450504 108:-0.272291 109:-0.180825 110:0.00696076 111:-0.134157 112:0.00104533 113:-0.138463 114:-0.430049 115:-0.448372 116:-0.370254 117:-0.433554 118:-0.383311 119:-0.32163 120:-0.342617 121:-5.90903e-05 122:-0.0909744 123:-0.347359 124:-0.445219 125:-0.07134 126:-0.282162 127:-0.277816 128:-0.585013 129:-0.624018 130:-0.447852 131:-0.390302 132:-0.343562 133:-0.230621 134:-0.204721 135:-0.0942258 136:-0.106557 137:0.012186 138:-0.0836468 139:-0.0175711 140:-0.256593 141:0.0506544 142:0.0765849 143:0.0056688 144:-0.0783075 145:0.287557 146:0.207963 147:-0.0296414 148:-0.0914686 149:-0.0943174 150:-0.104342 151:-0.135243 152:0.0808977 153:0.0262534 154:0.339611 155:-0.177102 156:0.5558 157:-0.158157 158:0.30029 159:0.198293 160:0.224944 161:0.188481 162:0.295628 163:0.286874 164:0.318301 165:0.231433 166:0.0777475 167:0.0783792 168:-0.233147 169:0.127882 170:-0.0992776 171:-0.185099 172:-0.162265 173:-0.254986 174:0.0117792 175:-0.296105 176:-0.334759 177:-0.418051 178:-0.0868399 179:0.0987232 180:0.127298 181:0.094755 182:-0.0637953 183:-0.0591197 184:0.201266 185:0.0994568 186:-0.195861 187:0.304197 188:-0.154142 189:0.0692382 190:-0.257112 191:-0.0975439 192:-0.244102 193:-0.153452 194:-0.507886 195:-0.416728 
-0 0.9735945733990055 1:4.90653 2:5.12839 3:5.3643 4:5.58474 5:5.43936 6:5.19464 7:5.52822 8:5.17438 9:6.19189 10:6.08109 11:6.09892 12:6.18434 13:5.98638 14:5.79833 15:5.55059 16:-0.256703 17:-0.217863 18:-0.205324 19:-0.10427 20:-0.8506 21:-0.722948 22:-0.145629 23:0.307148 24:0.502094 25:0.587562 26:0.566852 27:0.53288 28:0.595183 29:0.576904 30:0.444683 31:-0.370186 32:-0.436523 33:-0.260028 34:-0.159574 35:-0.0312752 36:-0.223348 37:-0.582145 38:0.14256 39:-0.418994 40:-0.536045 41:-0.533453 42:-0.599838 43:-0.53453 44:-0.405128 45:-0.348319 46:-0.305451 47:-0.331326 48:-0.28981 49:-0.0955349 50:-0.364771 51:-0.0930974 52:-0.28234 53:-0.233456 54:-0.207816 55:-0.103109 56:-0.125724 57:-0.100836 58:-0.25091 59:-0.202216 60:-0.015805 61:-0.356794 62:-0.400901 63:-0.240061 64:-0.0629966 65:-0.258209 66:0.284253 67:-0.247396 68:-0.521306 69:-0.530152 70:-0.596258 71:-0.559388 72:-0.528081 73:-0.420826 74:-0.522798 75:-0.332581 76:-0.258086 77:-0.251471 78:-0.371648 79:-0.341913 80:-0.359549 81:0.102672 82:-0.166664 83:-0.265965 84:-0.675843 85:-0.681117 86:-0.654718 87:-0.583539 88:-0.572806 89:-0.463791 90:-0.410248 91:-0.364501 92:-0.412379 93:-0.476422 94:-0.505276 95:-0.630733 96:-0.863312 97:-0.517349 98:-0.228766 99:0.261469 100:0.293902 101:0.24556 102:0.202896 103:0.154589 104:0.163661 105:0.156583 106:-0.498818 107:-0.364386 108:-0.260703 109:-0.150853 110:0.0471294 111:-0.528747 112:-0.285546 113:0.226332 114:-0.164531 115:-0.210869 116:-0.264257 117:-0.306246 118:-0.296418 119:-0.516631 120:-0.474207 121:-0.268603 122:-0.147139 123:-0.523411 124:-0.431755 125:-0.131328 126:-0.167849 127:-0.150032 128:-0.50727 129:-0.462858 130:-0.413948 131:-0.402992 132:-0.330586 133:-0.325628 134:-0.158173 135:0.00175332 136:0.253783 137:0.215842 138:0.179432 139:0.141789 140:0.106819 141:0.187496 142:0.159941 143:-0.0936105 144:0.0685549 145:0.0357265 146:0.090027 147:0.0817541 148:0.0473532 149:0.249766 150:0.19903 151:0.0630278 152:0.0396168 153:0.228403 154:0.137282 155:0.167292 156:0.331299 157:0.335902 158:0.0783444 159:0.25488 160:0.284534 161:0.333857 162:0.383631 163:0.579304 164:0.406341 165:0.345697 166:0.0104869 167:-0.24465 168:-0.157782 169:-0.0285263 170:0.0364932 171:0.0484209 172:-0.0731056 173:-0.0210303 174:0.441503 175:0.453222 176:0.410003 177:0.334228 178:0.319442 179:0.194613 180:-0.098869 181:-0.0502463 182:0.0171677 183:0.0227134 184:0.0494982 185:0.201259 186:-0.0603453 187:0.19921 188:0.0223183 189:-0.311959 190:-0.439006 191:-0.524042 192:-0.401354 193:-0.575965 194:-0.522536 195:-0.437866 
-0.002697665034690862 1 1:5.47526 2:5.38305 3:5.80712 4:5.67924 5:5.72095 6:5.70271 7:5.96719 8:6.70184 9:6.14309 10:6.16326 11:6.11868 12:6.04327 13:5.92297 14:5.61598 15:5.22704 16:-0.252044 17:-0.0533057 18:0.268382 19:-0.0634393 20:0.0309658 21:-0.00163352 22:-0.552371 23:0.196821 24:0.350076 25:0.350302 26:0.375163 27:0.389693 28:0.404522 29:0.414256 30:0.285355 31:-0.0380422 32:0.00908382 33:0.0763498 34:0.064939 35:0.0299658 36:0.0447051 37:-0.114994 38:-0.15889 39:-0.411302 40:-0.533727 41:-0.596085 42:-0.568267 43:-0.579018 44:-0.508244 45:-0.303451 46:-0.0844589 47:0.0542619 48:0.0145797 49:0.360522 50:0.174218 51:0.193852 52:-0.608982 53:0.10589 54:-0.360561 55:-0.263884 56:-0.188316 57:-0.226454 58:-0.173 59:-0.106258 60:-0.0152868 61:-0.188508 62:-0.123901 63:-0.213298 64:-0.869068 65:-0.548117 66:-0.495367 67:0.194041 68:-0.214104 69:-0.304114 70:-0.318735 71:-0.322445 72:-0.261071 73:-0.31961 74:-0.27064 75:-0.310761 76:-0.0945775 77:-0.0270672 78:0.0345268 79:-0.744324 80:-0.834337 81:-0.830514 82:-0.409768 83:-0.898499 84:-0.194996 85:-0.26974 86:-0.328732 87:-0.331589 88:-0.347341 89:-0.332806 90:-0.303265 91:-0.00292733 92:-0.0536713 93:-0.212378 94:0.153927 95:0.0411859 96:0.0203397 97:-0.0176468 98:-0.143773 99:0.0159359 100:0.0464083 101:0.107815 102:0.0556453 103:0.0406585 104:0.0137915 105:0.081428 106:-0.189344 107:-0.189677 108:-0.636798 109:-0.697545 110:-0.746556 111:-0.636939 112:-0.098656 113:-0.372121 114:-0.469335 115:-0.427747 116:-0.39582 117:-0.352657 118:-0.244791 119:-0.193033 120:-0.165121 121:-0.0124586 122:-0.111118 123:0.275565 124:-0.881064 125:-0.86171 126:-0.95895 127:-0.14461 128:-0.0747661 129:0.354006 130:0.30039 131:0.268194 132:0.25386 133:0.123717 134:0.019841 135:0.115111 136:0.00400064 137:-0.162021 138:0.0509287 139:-0.44463 140:-0.43325 141:-0.671694 142:0.155969 143:0.12608 144:0.19466 145:0.231558 146:0.25486 147:0.317152 148:0.358278 149:0.341764 150:0.223392 151:-0.158503 152:-0.352833 153:-0.515992 154:-0.484858 155:-0.659573 156:-0.722189 157:-0.204886 158:-0.135037 159:-0.631332 160:-0.64667 161:-0.58675 162:-0.587848 163:-0.498714 164:-0.307437 165:-0.187899 166:0.216204 167:0.0724879 168:-0.0181973 169:-0.738005 170:-0.439283 171:-0.315279 172:0.0728122 173:0.358339 174:-0.0580189 175:-0.0660663 176:-0.128769 177:-0.157298 178:-0.210037 179:-0.291993 180:-0.344546 181:0.0829093 182:-0.0479869 183:0.132066 184:0.123029 185:0.0641431 186:0.170275 187:0.0288071 188:0.225115 189:0.0422375 190:0.0446462 191:0.0935836 192:0.0867815 193:0.0989732 194:0.104305 195:0.133093 
-0 0.7648271810749115 1:5.35104 2:5.38579 3:5.27106 4:6.0722 5:5.53109 6:4.97409 7:5.56436 8:6.36436 9:5.58684 10:5.61653 11:5.91648 12:5.94274 13:5.81203 14:5.75265 15:5.66032 16:-0.0294776 17:-0.251035 18:-0.158763 19:0.252344 20:-0.15507 21:0.49931 22:-0.239605 23:0.424396 24:0.704631 25:0.672117 26:0.595732 27:0.542482 28:0.511812 29:0.565766 30:0.48735 31:-0.511218 32:-0.621336 33:-0.355823 34:-0.0782222 35:-0.300265 36:0.445047 37:0.0369909 38:-0.228435 39:0.00996152 40:0.0797541 41:-0.00828111 42:-0.057407 43:-0.148775 44:-0.410115 45:-0.462699 46:-0.218282 47:0.109253 48:0.172868 49:0.58989 50:-0.378987 51:-0.0204472 52:-0.270406 53:-0.0497087 54:-0.0180327 55:-0.0796972 56:-0.314272 57:-0.428087 58:-0.373112 59:-0.404138 60:-0.324565 61:0.0307014 62:-0.090165 63:-0.174789 64:0.0661789 65:-0.153636 66:-0.81213 67:-0.320403 68:0.0396505 69:-0.69001 70:-0.656714 71:-0.777857 72:-0.68118 73:-0.526964 74:-0.372372 75:-0.234046 76:0.0718594 77:0.0418571 78:0.204811 79:-0.143502 80:0.0948982 81:-0.385035 82:0.155026 83:-0.314908 84:-0.169132 85:-0.0695074 86:0.236712 87:0.196408 88:0.135329 89:-0.0668483 90:0.126439 91:-0.086329 92:-0.322574 93:-0.122373 94:-0.445069 95:-0.175381 96:0.0908363 97:0.0353888 98:-0.441309 99:0.0943551 100:-0.140155 101:0.0805736 102:0.179786 103:0.220579 104:0.260158 105:0.35333 106:-0.344529 107:-0.462937 108:-0.394345 109:-0.258372 110:-0.388765 111:-0.627522 112:-0.548345 113:-0.482949 114:-0.152047 115:-0.174575 116:-0.298497 117:-0.248045 118:-0.284484 119:-0.322845 120:-0.345378 121:0.0242745 122:0.00603003 123:-0.13402 124:-0.340385 125:-0.259709 126:0.129053 127:0.161114 128:0.000797231 129:-0.0810764 130:-0.00401281 131:-0.000544496 132:-0.0431 133:-0.0386591 134:-0.205844 135:-0.164908 136:-0.0854894 137:-0.202051 138:-0.114143 139:-0.0940143 140:-0.0134726 141:-0.155085 142:-0.264857 143:0.0735559 144:-0.320523 145:-0.315148 146:-0.489257 147:-0.23976 148:-0.207159 149:-0.0372725 150:0.112192 151:-0.0938622 152:-0.196374 153:0.108482 154:0.00182053 155:0.248966 156:0.0370466 157:-0.0441379 158:0.110481 159:0.321688 160:0.269846 161:0.477762 162:0.31474 163:0.25321 164:0.314605 165:0.259528 166:0.177692 167:0.151523 168:0.078207 169:-0.218005 170:-0.105452 171:-0.0252545 172:0.0321802 173:0.0379128 174:-0.00470983 175:0.0177963 176:0.0968976 177:-0.104442 178:-0.318537 179:-0.219927 180:-0.208402 181:0.385586 182:0.268729 183:0.0559615 184:0.357016 185:-0.00112549 186:0.286126 187:-0.148365 188:-0.0590618 189:0.173303 190:0.193989 191:0.406807 192:0.147643 193:0.0799625 194:0.163279 195:-0.0413696 
-0 1 1:2.3231 2:5.02396 3:5.17831 4:5.61775 5:4.81462 6:5.47326 7:6.02429 8:6.2273 9:5.61515 10:5.50286 11:5.90295 12:6.00385 13:6.13746 14:6.17249 15:6.12221 16:-0.311996 17:-0.506536 18:-0.67201 19:-0.298897 20:-0.519639 21:-0.117017 22:0.256716 23:0.0688885 24:0.316389 25:0.290496 26:0.1931 27:0.186921 28:0.157522 29:0.142783 30:0.160291 31:0.0956634 32:-0.181772 33:-0.234242 34:-0.114023 35:-0.185318 36:-0.753363 37:-0.397257 38:-0.363702 39:-0.377433 40:-0.316214 41:-0.551743 42:-0.643361 43:-0.685144 44:-0.663621 45:-0.633115 46:0.0733102 47:0.164992 48:0.0783011 49:0.174571 50:-0.357066 51:-0.426255 52:-0.1931 53:-0.137245 54:-0.247057 55:-0.188295 56:-0.128135 57:-0.13442 58:-0.120789 59:-0.165085 60:-0.199474 61:-0.37909 62:-0.440821 63:-0.510919 64:-0.356076 65:-0.050611 66:-0.409071 67:-0.788062 68:-0.32582 69:-0.544503 70:-0.500774 71:-0.572982 72:-0.611232 73:-0.691813 74:-0.763837 75:-0.691653 76:-0.0178268 77:-0.14021 78:-0.145814 79:-0.357457 80:-0.0380417 81:-0.165267 82:0.0581439 83:-0.414808 84:-0.179833 85:-0.210206 86:-0.221189 87:-0.0226192 88:0.0455978 89:0.0481252 90:0.0743942 91:-0.200903 92:-0.186894 93:-0.323852 94:-0.600788 95:-0.755092 96:-0.612392 97:-0.163026 98:-0.56123 99:-0.574345 100:-0.521702 101:-0.43055 102:-0.188809 103:-0.275081 104:-0.283978 105:-0.260297 106:0.29022 107:0.380374 108:-0.109213 109:-0.313513 110:-0.00137893 111:-0.440158 112:-0.510162 113:-0.109931 114:-0.519295 115:-0.531267 116:-0.546299 117:-0.541496 118:-0.339968 119:-0.285464 120:-0.291175 121:-0.076909 122:-0.269266 123:-0.367944 124:-0.341867 125:-0.00361245 126:-0.181045 127:-0.445765 128:0.0701534 129:0.0186942 130:-0.00572765 131:0.0767375 132:0.00759929 133:0.0454517 134:0.0796439 135:0.105963 136:-0.210217 137:-0.225328 138:0.0154746 139:-0.240051 140:0.162219 141:-0.0147844 142:-0.361777 143:-0.0661081 144:0.0771518 145:0.0843209 146:0.176439 147:-0.0346927 148:-0.0199298 149:0.0442825 150:0.0828904 151:0.0771606 152:0.0438021 153:0.0647858 154:-0.25737 155:-0.0335934 156:0.0613934 157:0.34699 158:-0.273265 159:-0.250066 160:-0.125074 161:-0.10418 162:-0.243783 163:-0.291153 164:-0.280371 165:-0.318484 166:0.102982 167:-0.112288 168:0.0272614 169:0.100742 170:-0.119307 171:0.0242145 172:0.235234 173:-0.00584724 174:-0.170648 175:-0.0501002 176:0.176986 177:-0.0725484 178:-0.199454 179:-0.162477 180:-0.14064 181:0.0980518 182:0.224908 183:0.121748 184:0.127674 185:0.182553 186:0.157019 187:0.41042 188:0.461103 189:0.420807 190:0.199226 191:0.112143 192:0.381085 193:0.398153 194:0.293941 195:0.188114 
-0 0.2487889333031505 1:4.63479 2:5.02079 3:5.07275 4:5.47041 5:5.55631 6:5.82211 7:5.70693 8:6.31937 9:5.25158 10:5.12483 11:5.42638 12:5.67283 13:5.62081 14:5.66289 15:5.8004 16:-0.245202 17:-0.578691 18:-0.45759 19:0.0295026 20:-0.952277 21:-0.783789 22:-0.906289 23:0.0858788 24:0.271797 25:0.218343 26:0.217559 27:0.222049 28:0.186016 29:0.183244 30:0.207105 31:-0.296517 32:-0.413063 33:-0.204614 34:0.308079 35:0.449869 36:0.272475 37:0.28449 38:-0.259408 39:0.0772546 40:0.152157 41:-0.0628136 42:-0.203127 43:-0.152844 44:-0.146097 45:-0.23431 46:-0.0502863 47:-0.0628415 48:0.0571386 49:0.212409 50:0.419295 51:0.139873 52:0.0166711 53:-0.292036 54:-0.255691 55:-0.153854 56:-0.0866594 57:-0.349242 58:-0.322524 59:-0.272142 60:-0.399885 61:-0.159355 62:-0.438358 63:-0.225398 64:-0.121319 65:0.552825 66:0.0316512 67:0.0795757 68:-0.0861781 69:-0.247081 70:-0.37427 71:-0.524163 72:-0.378698 73:-0.408272 74:-0.375455 75:-0.214206 76:-0.324928 77:-0.247072 78:-0.0263631 79:0.113741 80:0.0730415 81:0.286001 82:0.228319 83:-0.510238 84:0.109691 85:0.220053 86:-0.268332 87:-0.211954 88:-0.256911 89:-0.245345 90:-0.123883 91:-0.088327 92:0.0677411 93:0.0506081 94:-0.168065 95:-0.516775 96:-0.289319 97:-0.207806 98:-0.190413 99:-0.630385 100:-0.575262 101:-0.397039 102:-0.38475 103:-0.15706 104:-0.14242 105:-0.210316 106:0.143552 107:0.0662654 108:0.000266046 109:-0.251566 110:-0.147396 111:-0.144243 112:0.460386 113:0.252049 114:-0.104592 115:-0.286588 116:0.0429283 117:0.349078 118:0.370359 119:0.47696 120:0.471967 121:0.0815497 122:-0.0544941 123:-0.100536 124:-0.102594 125:-0.169826 126:0.233793 127:0.28055 128:0.180104 129:0.0407849 130:-0.0425832 131:-0.122905 132:-0.260917 133:-0.120505 134:-0.317835 135:-0.380812 136:0.0986017 137:0.164453 138:0.219633 139:0.239414 140:-0.430714 141:0.185438 142:0.150876 143:0.0684503 144:-0.109072 145:0.134928 146:0.438203 147:0.608692 148:0.396874 149:0.418528 150:0.603499 151:0.41856 152:0.21568 153:-0.192158 154:-0.144794 155:-0.0823589 156:0.00133202 157:0.118079 158:0.1645 159:0.0148252 160:-0.204723 161:-0.0191256 162:-0.0171835 163:-0.158061 164:-0.173618 165:-0.136046 166:0.310374 167:-0.204246 168:-0.431384 169:-0.169889 170:0.226031 171:-0.350889 172:0.00294311 173:-0.386648 174:-0.124078 175:-0.181133 176:-0.31827 177:-0.556725 178:-0.363775 179:-0.432363 180:-0.586493 181:0.165553 182:0.36627 183:0.0953878 184:0.0758326 185:0.273688 186:-0.134452 187:0.088627 188:0.0204201 189:0.0392775 190:0.240285 191:0.140404 192:0.212693 193:0.0719463 194:0.14916 195:0.0209917 
-0.272434045557178 0.511037661895436 1:1.35026 2:1.25557 3:1.537 4:5.87275 5:5.24288 6:5.34442 7:4.32066 8:4.00422 9:6.11105 10:6.40715 11:6.51386 12:6.42526 13:6.42349 14:6.28125 15:6.14344 16:-0.58611 17:-0.539866 18:-0.503775 19:-0.729886 20:-0.348784 21:-0.828378 22:-0.643709 23:-0.754051 24:-0.00843648 25:0.000503492 26:-0.0405098 27:-0.0417791 28:-0.0557862 29:-0.0871631 30:-0.011517 31:0.0879142 32:-0.0455688 33:-0.393327 34:-0.524664 35:-0.559837 36:-0.297624 37:-0.200569 38:-0.256581 39:-0.353368 40:-0.470251 41:-0.550197 42:-0.552384 43:-0.565917 44:-0.512096 45:-0.419821 46:-0.307559 47:-0.237472 48:-0.32669 49:-0.243707 50:-0.420981 51:0.0654838 52:-0.135792 53:-0.126644 54:0.232829 55:-0.0723472 56:-0.123035 57:-0.124291 58:-0.183707 59:-0.172967 60:-0.14557 61:0.119679 62:0.0519034 63:0.200515 64:-0.145355 65:-0.428881 66:-0.33133 67:-0.219493 68:-0.318532 69:-0.605093 70:-0.710752 71:-0.573048 72:-0.560254 73:-0.627829 74:-0.706468 75:-0.821275 76:-0.278763 77:-0.259201 78:-0.0736927 79:0.479587 80:-0.151403 81:0.00480337 82:0.0118468 83:0.0232533 84:-0.402559 85:-0.146608 86:-0.0922869 87:-0.0749404 88:0.00613124 89:-0.041118 90:-0.0799881 91:0.226338 92:0.168189 93:0.448219 94:-0.289702 95:-0.401408 96:-0.449538 97:-0.24822 98:-0.328518 99:-0.488286 100:-0.373816 101:-0.336633 102:-0.154856 103:-0.0903661 104:0.011223 105:-0.106518 106:-0.18766 107:-0.222317 108:-0.516037 109:-0.661308 110:-0.60533 111:-0.348615 112:-0.394021 113:-0.388467 114:-0.417623 115:-0.393634 116:-0.14728 117:-0.0765255 118:0.0263748 119:0.227358 120:0.231606 121:0.194058 122:0.170964 123:-0.687571 124:0.0291062 125:0.124369 126:0.0168636 127:-0.112247 128:0.0911396 129:-0.171084 130:-0.00010908 131:-0.0916301 132:-0.0669992 133:-0.199675 134:-0.346642 135:-0.307982 136:0.0593508 137:0.0922653 138:0.517311 139:-0.143943 140:0.0546952 141:-0.422763 142:-0.271684 143:-0.121355 144:0.0525606 145:0.234563 146:0.055222 147:-0.127946 148:-0.0502674 149:-0.116149 150:-0.118468 151:-0.245363 152:-0.252087 153:0.307505 154:0.0718165 155:0.27943 156:0.0384705 157:0.000365823 158:-0.144737 159:0.395313 160:0.261483 161:0.409469 162:0.404801 163:0.198425 164:0.187222 165:0.139488 166:0.576869 167:0.501069 168:0.0378899 169:0.235909 170:-0.0180016 171:-0.0349482 172:-0.132658 173:-0.216425 174:0.0287032 175:-0.0143961 176:-0.0738458 177:-0.0552884 178:0.0478161 179:0.0884796 180:0.00520215 181:-0.2618 182:-0.23357 183:-0.391181 184:-0.145436 185:-0.109972 186:-0.122339 187:-0.188275 188:-0.0288961 189:-0.200535 190:-0.204799 191:-0.222799 192:-0.248043 193:-0.224871 194:-0.292755 195:-0.1187 
-0.173910436518055 0.9697641523617923 1:5.57041 2:5.74047 3:5.61264 4:6.21301 5:5.99571 6:5.47719 7:5.73103 8:5.84673 9:5.22375 10:5.09893 11:4.87483 12:4.81624 13:4.65878 14:4.32781 15:4.22004 16:-0.428437 17:-0.382529 18:-0.131693 19:0.281815 20:0.260815 21:0.352391 22:-0.745734 23:-0.798834 24:0.619555 25:0.534083 26:0.483017 27:0.492494 28:0.452431 29:0.492044 30:0.61518 31:-0.228479 32:-0.206113 33:-0.00242359 34:-0.0643519 35:-0.000408609 36:0.161371 37:-0.237991 38:-0.0990788 39:-0.385254 40:-0.421397 41:-0.479617 42:-0.556776 43:-0.457199 44:-0.403478 45:-0.237016 46:0.00855463 47:0.0198524 48:-0.0592726 49:-0.0917822 50:0.153769 51:0.255788 52:-0.093947 53:-0.10207 54:-0.360179 55:-0.456454 56:-0.535533 57:-0.330037 58:-0.259934 59:-0.314992 60:-0.664746 61:-0.55771 62:-0.589352 63:-0.343025 64:-0.981544 65:-1.08503 66:-1.22143 67:-0.693458 68:-0.598233 69:-0.565283 70:-0.505459 71:-0.483611 72:-0.754064 73:-0.899868 74:-0.831588 75:-0.592664 76:0.16465 77:0.138677 78:0.147147 79:-0.534053 80:-0.570403 81:-0.499282 82:0.0984151 83:0.0802231 84:-0.471003 85:-0.332613 86:-0.0303708 87:0.207051 88:0.235027 89:0.196437 90:0.597486 91:-0.0552225 92:-0.0630706 93:-0.20491 94:0.266511 95:0.0736215 96:0.167181 97:-0.273663 98:-0.511401 99:0.098455 100:-0.0504756 101:-0.0373072 102:-0.0878856 103:-0.0429895 104:-0.0808402 105:-0.211136 106:-0.148316 107:-0.297302 108:-0.0896904 109:-0.0434374 110:-0.143597 111:-0.0695043 112:-0.199545 113:-0.0968883 114:0.204396 115:0.502693 116:0.573767 117:0.630843 118:0.439545 119:0.459191 120:0.375614 121:0.0167088 122:0.201987 123:-0.115884 124:-0.317521 125:-0.126006 126:-0.177733 127:-0.0578811 128:-0.0971926 129:-0.186315 130:-0.36412 131:-0.421238 132:-0.588821 133:-0.517334 134:-0.554745 135:-0.459717 136:-0.0254316 137:0.0679655 138:0.00716579 139:-0.26232 140:-0.189892 141:-0.155648 142:-0.338892 143:-0.253168 144:-0.206505 145:-0.269114 146:0.0306806 147:0.166711 148:0.330225 149:0.319085 150:0.429714 151:-0.16613 152:0.00739078 153:0.101329 154:-0.196965 155:-0.145692 156:0.0248721 157:-0.258627 158:-0.0674697 159:0.0137512 160:0.29293 161:0.171643 162:0.175385 163:0.106252 164:-0.169978 165:-0.0616235 166:-0.017696 167:0.218707 168:-0.0176712 169:0.26034 170:0.0572187 171:-0.0848113 172:0.0754066 173:0.0509288 174:0.505838 175:0.27877 176:0.153009 177:0.0858541 178:0.0657291 179:0.129047 180:-0.0291449 181:0.120714 182:0.0158106 183:-0.00522555 184:0.0119621 185:-0.250671 186:-0.451128 187:-0.138939 188:-0.0242565 189:-0.582972 190:-0.570821 191:-0.367928 192:-0.313935 193:-0.454829 194:-0.476855 195:-0.344396 
-0 1 1:4.77592 2:6.11267 3:5.48441 4:5.80494 5:5.47317 6:5.44658 7:5.20383 8:6.0438 9:5.97967 10:5.92775 11:5.85835 12:6.0372 13:5.9203 14:5.83171 15:5.65729 16:-0.0337772 17:-0.0865589 18:-0.0744238 19:0.128954 20:-0.383878 21:-0.415396 22:-0.285678 23:0.527601 24:0.432885 25:0.406794 26:0.392951 27:0.351313 28:0.374383 29:0.403749 30:0.324892 31:-0.260923 32:-0.609544 33:-0.562447 34:-0.247096 35:-0.109544 36:-0.172862 37:-0.268771 38:-0.522694 39:-0.56991 40:-0.514364 41:-0.486463 42:-0.608733 43:-0.528149 44:-0.537174 45:-0.492321 46:-0.0304431 47:-0.445885 48:-0.32457 49:0.175539 50:-0.285089 51:-0.267614 52:-0.212777 53:-0.435633 54:-0.388254 55:-0.386068 56:-0.426776 57:-0.319554 58:-0.368492 59:-0.478019 60:-0.461486 61:-0.309953 62:-0.413139 63:-0.454472 64:-1.01551 65:-0.277379 66:-0.193963 67:-0.14241 68:-0.808795 69:-0.578605 70:-0.571987 71:-0.534024 72:-0.79542 73:-0.681228 74:-0.662135 75:-0.557034 76:-0.384543 77:-0.343613 78:-0.299942 79:-0.445629 80:-0.658964 81:-0.660136 82:-0.481367 83:0.0799815 84:0.0268014 85:0.105455 86:0.140475 87:0.152499 88:0.108737 89:0.134543 90:-0.0125487 91:-0.268968 92:-0.409426 93:-0.451865 94:-0.423703 95:-0.385713 96:-0.470313 97:-0.375405 98:0.0937753 99:0.0437837 100:0.0633907 101:0.14936 102:0.109826 103:0.0685148 104:0.0612075 105:-0.0136085 106:-0.0691532 107:-0.114351 108:-0.17539 109:-0.321765 110:-0.259652 111:-0.130083 112:-0.234669 113:-0.23781 114:0.110319 115:-0.0258423 116:-0.0857973 117:-0.19056 118:-0.160636 119:-0.122717 120:-0.0585554 121:-0.0455702 122:-0.128037 123:-0.134151 124:-0.272519 125:0.0204753 126:0.125349 127:-0.0322878 128:-0.0133659 129:0.175334 130:0.286453 131:0.230154 132:0.282847 133:0.266674 134:0.247586 135:0.2749 136:0.0627808 137:-0.256837 138:-0.24784 139:-0.388283 140:-0.1098 141:-0.258842 142:-0.150247 143:0.025387 144:0.0564907 145:0.00829846 146:0.0559278 147:0.153175 148:0.257512 149:0.21056 150:0.177638 151:-0.0200398 152:-0.314093 153:-0.203278 154:-0.315607 155:-0.161476 156:-0.472947 157:-0.251434 158:-0.0392551 159:-0.197846 160:-0.199183 161:-0.075286 162:0.00251828 163:-0.0783479 164:-0.157906 165:-0.180878 166:-0.0866324 167:-0.0702501 168:-0.16393 169:-0.362426 170:0.15656 171:-0.0152496 172:0.00284647 173:-0.284073 174:-0.127626 175:-0.0513341 176:-0.0371042 177:-0.0729001 178:-0.197723 179:-0.229379 180:-0.15383 181:0.0380935 182:-0.115806 183:-0.0165781 184:-0.0652191 185:0.000851878 186:0.167861 187:0.113697 188:-0.0602512 189:-0.0231548 190:-0.0818309 191:-0.139894 192:-0.138476 193:-0.178321 194:-0.0897887 195:-0.0536285 
-0 1 1:4.11221 2:3.98453 3:4.00713 4:4.00795 5:5.69623 6:5.83129 7:5.98221 8:5.38751 9:5.45722 10:5.61037 11:5.69002 12:5.54155 13:5.43894 14:5.27143 15:5.26331 16:-0.249384 17:-0.342801 18:-0.256272 19:-0.242139 20:0.276082 21:-0.0510178 22:0.445184 23:0.409849 24:0.456796 25:0.373835 26:0.373446 27:0.317048 28:0.359015 29:0.317956 30:0.268421 31:-0.283402 32:-0.383426 33:-0.25913 34:-0.255344 35:-0.0243621 36:0.141433 37:-0.116856 38:0.0806304 39:-0.00742297 40:-0.0502535 41:-0.0683472 42:-0.0235522 43:-0.127 44:-0.101222 45:-0.10002 46:-0.165991 47:-0.269778 48:-0.172405 49:-0.173062 50:0.870043 51:-0.0279885 52:-0.0674268 53:0.0529043 54:-0.0625978 55:-0.000792713 56:-0.176425 57:-0.0196827 58:-0.231168 59:-0.157424 60:-0.168723 61:-0.162504 62:-0.210004 63:-0.160197 64:-0.266162 65:0.07247 66:-0.433247 67:-0.420137 68:-0.589348 69:-0.534636 70:-0.525077 71:-0.585022 72:-0.452782 73:-0.325284 74:-0.327923 75:-0.37515 76:-0.0912322 77:-0.247942 78:-0.109334 79:-0.165696 80:-0.447106 81:0.132757 82:0.0254917 83:-0.0964494 84:0.102017 85:0.196165 86:0.310262 87:0.268522 88:0.292833 89:0.154585 90:0.277281 91:-0.0031812 92:-0.20089 93:-0.12408 94:-0.0501808 95:-0.176221 96:-0.349046 97:0.209303 98:0.233499 99:0.0505321 100:-0.0539174 101:-0.0384544 102:-0.121866 103:-0.0532263 104:-0.03471 105:-0.128954 106:-0.038549 107:-0.281758 108:-0.0338562 109:-0.0208968 110:-0.0124147 111:-0.0629385 112:-0.824279 113:-0.317445 114:-0.258501 115:-0.153495 116:-0.166415 117:-0.296407 118:-0.371402 119:-0.313221 120:-0.233235 121:0.0402199 122:-0.161667 123:-0.0123458 124:-0.102449 125:-0.0662761 126:0.00983935 127:0.12909 128:-0.023606 129:0.0201918 130:0.0342487 131:0.057324 132:0.250866 133:0.122781 134:0.0943114 135:0.138293 136:-0.0311432 137:-0.0552181 138:-0.138938 139:-0.132141 140:-0.528863 141:0.0426962 142:0.0764657 143:0.0839863 144:0.0689812 145:0.255864 146:0.183269 147:-0.0169473 148:0.0128268 149:0.146963 150:0.215363 151:-0.0735101 152:-0.134682 153:-0.0711757 154:-0.0133245 155:-0.0380386 156:-0.00643558 157:0.147387 158:0.18706 159:0.142867 160:0.0721449 161:0.10413 162:0.0159564 163:-0.1543 164:-0.327387 165:0.0346355 166:0.0907842 167:-0.0894128 168:-0.0673294 169:-0.0960504 170:-0.170749 171:-0.202599 172:-0.255676 173:-0.194633 174:-0.177548 175:-0.376752 176:-0.250605 177:-0.276374 178:-0.266898 179:-0.314942 180:-0.262052 181:0.128616 182:-0.0805377 183:0.0296452 184:-0.0368787 185:-0.365967 186:0.149188 187:-0.0936309 188:-0.285408 189:-0.08973 190:-0.0134664 191:-0.129772 192:-0.118116 193:-0.13469 194:-0.0572941 195:-0.0709223 
-0.2210377819449506 1 1:5.00762 2:5.25905 3:5.17873 4:5.44623 5:5.90268 6:5.91074 7:5.2801 8:5.11582 9:5.09901 10:5.21316 11:5.29527 12:5.19625 13:5.17679 14:5.1051 15:4.95045 16:0.231933 17:0.0327316 18:0.00941013 19:0.428489 20:0.853013 21:0.794038 22:0.77231 23:1.20689 24:1.35926 25:1.28414 26:1.13353 27:1.24945 28:1.35108 29:1.31095 30:1.25864 31:-0.223844 32:-0.37214 33:-0.374996 34:0.184356 35:-0.0365784 36:-0.317578 37:0.18202 38:-0.209443 39:-0.605642 40:-0.713904 41:-0.62905 42:-0.719794 43:-0.837178 44:-0.734931 45:-0.550448 46:0.0738368 47:0.0050172 48:0.0116752 49:0.593786 50:-0.554374 51:-0.166507 52:-0.500657 53:-0.937144 54:-0.823085 55:-0.613203 56:-0.62301 57:-0.552167 58:-0.425786 59:-0.349744 60:-0.244698 61:-0.101643 62:-0.301579 63:-0.231127 64:0.0565166 65:-0.255971 66:-0.0291042 67:-0.147859 68:0.0805149 69:0.385457 70:0.424712 71:0.408704 72:0.38948 73:0.30125 74:0.417278 75:0.531984 76:-0.193136 77:-0.421941 78:-0.218306 79:-0.34795 80:-0.220362 81:-0.520456 82:-0.193546 83:-0.321774 84:-0.434763 85:-0.687762 86:-0.640103 87:-0.57271 88:-0.445608 89:-0.482789 90:-0.514055 91:0.0671973 92:-0.146127 93:0.0734985 94:-0.18754 95:-0.0802534 96:-0.593397 97:-0.279571 98:-0.230936 99:-0.250546 100:0.112471 101:0.184275 102:0.137439 103:0.100519 104:0.165809 105:0.169005 106:-0.0308568 107:-0.305616 108:-0.284267 109:0.143873 110:-0.15726 111:-0.147363 112:-0.00354821 113:-0.0500548 114:-0.215832 115:-0.636165 116:-0.60843 117:-0.660052 118:-0.845559 119:-0.840685 120:-0.730541 121:-0.0602433 122:-0.159094 123:-0.120319 124:-0.411566 125:-0.195691 126:-0.0782995 127:-0.103403 128:-0.210331 129:0.0265453 130:0.299368 131:0.327126 132:0.302314 133:0.444114 134:0.482563 135:0.456049 136:0.272918 137:0.137877 138:0.00770018 139:-0.323858 140:-0.0570888 141:-0.0211027 142:-0.341297 143:-0.31936 144:0.0318986 145:0.233879 146:0.389089 147:0.422622 148:0.429993 149:0.403977 150:0.134852 151:0.0641298 152:0.0290891 153:-0.160122 154:0.119327 155:0.0775697 156:-0.0973916 157:-0.160017 158:0.22457 159:0.0919128 160:-0.177148 161:-0.21256 162:-0.258152 163:-0.548046 164:-0.615395 165:-0.58858 166:0.147933 167:0.136125 168:-0.178049 169:0.105203 170:0.457246 171:-0.108471 172:0.0341419 173:-0.0911934 174:-0.183469 175:-0.115712 176:0.0135252 177:-0.0805366 178:0.122146 179:0.0611751 180:-0.0285738 181:0.169387 182:-0.00140227 183:-0.149622 184:-0.0116969 185:-0.391199 186:-0.0385448 187:0.00904916 188:-0.243883 189:0.188694 190:0.356369 191:0.355118 192:0.430697 193:0.50144 194:0.5108 195:0.448676 
-0 1 1:5.02344 2:5.55802 3:5.45657 4:6.22615 5:6.07364 6:5.12487 7:5.42667 8:6.17728 9:6.36715 10:6.27659 11:6.09445 12:6.03634 13:5.96167 14:5.94379 15:5.67345 16:-0.168657 17:-0.513888 18:-0.634767 19:0.376297 20:0.456811 21:-0.0951767 22:-0.651347 23:0.308259 24:0.228712 25:0.202709 26:0.170989 27:0.194673 28:0.30453 29:0.287105 30:0.367985 31:-0.4278 32:-0.452326 33:-0.351219 34:-0.467327 35:-0.398199 36:-0.106571 37:-0.224655 38:-0.623567 39:-0.762482 40:-0.777103 41:-0.780724 42:-0.73349 43:-0.660308 44:-0.548492 45:-0.405218 46:0.0765368 47:0.15699 48:-0.114795 49:-0.165941 50:-0.157101 51:-0.332132 52:-0.40051 53:-0.228096 54:-0.146358 55:-0.0281931 56:0.0840058 57:0.0489594 58:-0.0295019 59:-0.211458 60:-0.223725 61:-0.221099 62:-0.586927 63:-0.58755 64:-1.05054 65:-1.03606 66:-0.483523 67:0.024342 68:-0.780808 69:-0.810482 70:-0.736707 71:-0.54412 72:-0.496093 73:-0.45983 74:-0.442502 75:-0.444535 76:-0.381392 77:-0.32128 78:-0.267648 79:0.00494598 80:-0.0758161 81:-0.437685 82:-0.250138 83:0.0781641 84:0.130692 85:0.208241 86:0.154609 87:0.0392996 88:0.0342504 89:0.0264887 90:0.128703 91:-0.44751 92:-0.246003 93:-0.39281 94:-0.01412 95:-0.09678 96:-0.183891 97:-0.319499 98:-0.451734 99:-0.475137 100:-0.633771 101:-0.723885 102:-0.692862 103:-0.675402 104:-0.570707 105:-0.418217 106:-0.230607 107:-0.298424 108:-0.138006 109:-0.361551 110:-0.426598 111:0.13162 112:0.0237274 113:-0.175572 114:-0.380544 115:-0.354938 116:-0.512893 117:-0.569294 118:-0.42843 119:-0.337638 120:-0.210854 121:-0.154454 122:-0.257895 123:-0.064677 124:-0.216576 125:-0.109055 126:-0.225894 127:-0.0777591 128:-0.188303 129:-0.0577085 130:-0.141729 131:-0.177611 132:-0.120429 133:-0.181691 134:-0.260155 135:-0.244748 136:0.0144785 137:0.0962205 138:0.0263313 139:0.160652 140:0.155797 141:0.00789505 142:-0.00350567 143:0.0378799 144:0.461378 145:0.460871 146:0.494562 147:0.473004 148:0.352555 149:0.443739 150:0.357656 151:-0.0109968 152:-0.0301907 153:0.128454 154:0.154201 155:0.19506 156:-0.0590755 157:-0.00391248 158:0.050926 159:0.125225 160:0.20516 161:0.46305 162:0.585946 163:0.498795 164:0.259555 165:-0.0729179 166:-0.0122771 167:0.134632 168:0.241501 169:-0.0863542 170:-0.0992056 171:-0.0888638 172:0.0793716 173:-0.151272 174:-0.42943 175:-0.301681 176:-0.312714 177:-0.242827 178:-0.198314 179:-0.11801 180:-0.147783 181:0.0290712 182:0.150829 183:0.110871 184:-0.159695 185:-0.100622 186:-0.309708 187:0.0135184 188:0.309958 189:0.0593677 190:-0.04883 191:-0.102698 192:-0.136064 193:-0.12806 194:-0.0640693 195:0.153065 
-0 0.201144363210161 1:3.87609 2:5.75526 3:5.69683 4:5.94678 5:5.78394 6:5.43235 7:5.82824 8:5.74142 9:5.42578 10:5.14913 11:5.01356 12:4.95835 13:5.24417 14:5.42111 15:5.68044 16:-0.0459302 17:-0.0896021 18:-0.0682922 19:0.24587 20:0.532836 21:0.548985 22:-0.738048 23:-0.811498 24:0.400873 25:0.397478 26:0.440826 27:0.424276 28:0.354946 29:0.432717 30:0.428467 31:-0.077916 32:-0.25936 33:-0.205294 34:-0.145497 35:-0.280578 36:0.0809964 37:-0.171276 38:-0.0663474 39:-0.108875 40:0.0748826 41:0.122638 42:0.184121 43:0.216734 44:-0.0636095 45:-0.235835 46:-0.124083 47:0.192891 48:0.168081 49:0.749608 50:-0.256477 51:-0.343853 52:-0.129327 53:-0.0304843 54:-0.182917 55:-0.283807 56:-0.206889 57:-0.204849 58:-0.274758 59:-0.262647 60:-0.252741 61:-0.183279 62:-0.286461 63:-0.203598 64:0.159607 65:-0.574116 66:-0.707798 67:-0.496519 68:-0.43794 69:-0.48873 70:-0.530738 71:-0.417233 72:-0.433591 73:-0.556372 74:-0.513666 75:-0.562673 76:-0.198067 77:-0.195938 78:0.102651 79:-0.737262 80:0.0694276 81:0.00205286 82:-0.0532701 83:0.0415213 84:-0.0262129 85:-0.10153 86:-0.0475544 87:0.027885 88:-0.0504461 89:-0.0933361 90:0.0110294 91:-0.0108831 92:-0.026266 93:-0.259787 94:0.0678731 95:-0.0616593 96:-0.168823 97:-0.334928 98:-0.333116 99:-0.167135 100:-0.0619 101:-0.13477 102:-0.139297 103:0.0918753 104:0.146959 105:-0.109746 106:-0.0994188 107:-0.249808 108:-0.121207 109:-0.270296 110:0.25266 111:0.163705 112:0.00356648 113:-0.067267 114:0.0649691 115:0.00750561 116:-0.107715 117:-0.0063586 118:-0.112667 119:-0.00839787 120:0.0545325 121:-0.169033 122:-0.533779 123:-0.308461 124:-0.133376 125:-0.389553 126:-0.525769 127:-0.0132873 128:-0.0507643 129:-0.533958 130:-0.586526 131:-0.402295 132:-0.56043 133:-0.495831 134:-0.442887 135:-0.2229 136:-0.00646071 137:0.121743 138:0.00732503 139:-0.516003 140:-0.25901 141:-0.00877692 142:0.226564 143:-0.0259513 144:0.316779 145:0.210314 146:-0.0189636 147:-0.0228593 148:-0.0646787 149:0.263964 150:0.414884 151:-0.0897178 152:-0.00999289 153:0.102698 154:0.0565089 155:0.300266 156:0.232926 157:0.209238 158:0.157546 159:0.216028 160:-0.0133452 161:0.0316972 162:0.0531057 163:0.222153 164:0.305747 165:0.168695 166:-0.199879 167:-0.100283 168:0.116041 169:-0.0211461 170:-0.0823947 171:-0.169841 172:-0.0300687 173:-0.220107 174:-0.121922 175:-0.120239 176:0.000500562 177:0.079588 178:-0.0332353 179:-0.339425 180:-0.225617 181:-0.164878 182:0.359843 183:0.177461 184:-0.315208 185:-0.21214 186:0.222533 187:0.101516 188:0.114497 189:-0.124522 190:0.270685 191:0.168533 192:0.193893 193:0.254134 194:0.0734082 195:-0.0274504 
-0 0.05073835260601098 1:5.57883 2:5.27272 3:5.14829 4:5.23392 5:5.92485 6:5.52348 7:6.5826 8:6.52911 9:6.06849 10:5.99194 11:5.82221 12:5.52709 13:5.34187 14:5.35073 15:5.42764 16:0.0603022 17:-0.115449 18:-0.134306 19:0.240831 20:-0.576131 21:-0.235402 22:0.249143 23:0.410707 24:0.407485 25:0.400142 26:0.430341 27:0.508381 28:0.43192 29:0.387022 30:0.338095 31:-0.259701 32:-0.307925 33:-0.34195 34:0.283566 35:-0.0239632 36:-0.516865 37:-0.0597927 38:-0.286115 39:-0.0663386 40:-0.030078 41:0.133703 42:0.175819 43:0.275346 44:0.210471 45:0.104735 46:-0.440831 47:-0.591909 48:-0.489655 49:-0.140728 50:-0.0835173 51:-0.35584 52:-0.330616 53:-0.273592 54:-0.218767 55:-0.187779 56:-0.222098 57:-0.298396 58:-0.128825 59:-0.0579054 60:-0.126977 61:-0.259968 62:-0.493305 63:-0.204066 64:-0.00373381 65:0.275033 66:-0.211554 67:-0.462598 68:-0.716321 69:-0.70927 70:-0.783625 71:-0.916004 72:-0.712899 73:-0.749043 74:-0.687517 75:-0.709102 76:0.0362745 77:-0.0372327 78:0.0129577 79:-0.0253602 80:0.197697 81:0.00864011 82:0.000368109 83:-0.168272 84:-0.0586946 85:-0.0580023 86:-0.0480333 87:-0.188864 88:-0.102196 89:-0.214126 90:-0.0197223 91:-0.2799 92:-0.339029 93:-0.111366 94:-0.276554 95:-0.490449 96:-0.431763 97:-0.056995 98:0.00309676 99:-0.195564 100:-0.136694 101:-0.00726754 102:-0.183096 103:-0.460267 104:-0.393722 105:-0.162071 106:-0.305554 107:-0.201211 108:-0.0760829 109:-0.170145 110:0.0801222 111:-0.444481 112:-0.142817 113:-0.281205 114:-0.249212 115:-0.165688 116:-0.242074 117:-0.19247 118:-0.190782 119:-0.226496 120:-0.365087 121:-0.12615 122:-0.158425 123:-0.119749 124:-0.274382 125:-0.0685331 126:0.014919 127:-0.259998 128:-0.318112 129:-0.262342 130:-0.37977 131:-0.39643 132:-0.223737 133:-0.106863 134:-0.218497 135:-0.291092 136:-0.186664 137:-0.21821 138:-0.156185 139:-0.321143 140:0.23848 141:-0.194635 142:-0.158355 143:-0.145971 144:0.15054 145:0.0765522 146:-0.0867379 147:-0.227891 148:-0.129988 149:0.0249816 150:-0.0207706 151:-0.0576301 152:-0.0745796 153:0.02939 154:-0.0435009 155:-0.202671 156:0.219876 157:0.28177 158:0.342811 159:0.617593 160:0.64082 161:0.504603 162:0.398403 163:0.37191 164:0.427015 165:0.340545 166:0.100594 167:0.116096 168:-0.0158699 169:0.0359998 170:-0.360677 171:-0.0253243 172:-0.231653 173:-0.0982567 174:-0.245908 175:-0.301078 176:-0.0743013 177:0.155009 178:-0.00285424 179:-0.0394302 180:-0.117439 181:0.397374 182:0.396395 183:0.220056 184:-0.00820479 185:0.135357 186:0.201753 187:-0.0318925 188:0.0977872 189:-0.25604 190:-0.0587737 191:0.0770135 192:0.149532 193:0.177956 194:0.129742 195:0.156207 
-0 1 1:4.72272 2:4.69484 3:5.84061 4:6.04693 5:5.15911 6:4.7543 7:6.89152 8:6.12414 9:6.11539 10:6.14615 11:6.05378 12:6.00842 13:5.95006 14:6.0007 15:5.96561 16:-0.244032 17:-0.00690362 18:0.36567 19:0.199329 20:-0.0877139 21:-0.663781 22:0.167211 23:0.456205 24:0.377889 25:0.335273 26:0.346482 27:0.362019 28:0.371424 29:0.338411 30:0.31565 31:-0.260023 32:-0.07365 33:-0.0356215 34:-0.138497 35:-0.317642 36:0.329211 37:-0.565161 38:-0.346748 39:-0.34384 40:-0.405684 41:-0.373328 42:-0.402488 43:-0.370512 44:-0.355844 45:-0.29455 46:-0.362231 47:-0.260597 48:-0.122386 49:0.222291 50:-0.463252 51:-0.115393 52:-0.340074 53:-0.477168 54:-0.57855 55:-0.547854 56:-0.53943 57:-0.533852 58:-0.484229 59:-0.407803 60:-0.406836 61:0.130001 62:0.255777 63:0.109923 64:-0.0871568 65:0.00445637 66:-0.359164 67:-0.269438 68:-0.598066 69:-0.384732 70:-0.287974 71:-0.206612 72:-0.244262 73:-0.324263 74:-0.267446 75:-0.197081 76:-0.178366 77:-0.0948598 78:-0.852762 79:-0.7798 80:0.102028 81:0.116042 82:-0.440618 83:-0.0765868 84:-0.128194 85:-0.160331 86:-0.149374 87:-0.164138 88:-0.163514 89:-0.1453 90:-0.0868868 91:-0.224581 92:-0.360312 93:-0.573259 94:-0.39897 95:-0.359284 96:-0.263358 97:-0.27184 98:-0.0842681 99:-0.110311 100:-0.121123 101:-0.174939 102:-0.174775 103:-0.163263 104:-0.172523 105:-0.0906856 106:-0.372789 107:-0.35084 108:0.0427964 109:-0.206762 110:-0.378805 111:0.0307377 112:0.0526608 113:-0.368898 114:-0.363238 115:-0.290599 116:-0.174704 117:-0.14834 118:-0.154213 119:-0.202947 120:-0.160224 121:-0.291401 122:-7.90098e-05 123:-0.0918069 124:-0.333042 125:0.223697 126:0.00577862 127:0.389407 128:0.100919 129:0.232333 130:0.304056 131:0.298956 132:0.186258 133:0.271247 134:0.410738 135:0.236156 136:-0.0290187 137:0.102084 138:0.128668 139:-0.0213374 140:0.102274 141:0.0310341 142:-0.0228931 143:0.173689 144:0.369216 145:0.271545 146:0.211016 147:0.178896 148:0.0877082 149:-0.0219755 150:0.127771 151:0.148574 152:-0.237786 153:-0.213811 154:0.167194 155:-0.0936842 156:0.0205183 157:-0.105958 158:0.132747 159:-0.0140895 160:-0.229449 161:-0.247764 162:-0.296709 163:-0.234204 164:-0.24297 165:-0.126585 166:0.0960923 167:-0.142371 168:-0.198012 169:-0.024444 170:-0.484142 171:-0.0456575 172:-0.336908 173:-0.272881 174:-0.230726 175:-0.273062 176:-0.274199 177:-0.25719 178:-0.35834 179:-0.28015 180:-0.322781 181:-0.138975 182:0.0390787 183:0.103923 184:0.237102 185:-0.0921332 186:0.110195 187:0.29914 188:-0.0841131 189:-0.148392 190:-0.0363164 191:0.0369239 192:-0.0408131 193:0.133211 194:0.0623082 195:0.0845319 
-0 1 1:4.19301 2:4.03752 3:3.82403 4:3.70517 5:5.3679 6:5.31381 7:6.01633 8:5.20483 9:5.16506 10:5.26603 11:5.29464 12:5.37313 13:5.43006 14:5.45262 15:5.41176 16:0.0464319 17:0.0234442 18:-0.09025 19:-0.193572 20:-0.0451805 21:-0.259606 22:0.643183 23:0.733387 24:0.682405 25:0.678733 26:0.69815 27:0.640869 28:0.689285 29:0.667129 30:0.617854 31:-0.390233 32:-0.158803 33:-0.145694 34:-0.265325 35:-0.525331 36:-0.215596 37:-0.718319 38:-0.120874 39:-0.0575282 40:-0.26756 41:-0.334298 42:-0.410153 43:-0.419115 44:-0.443578 45:-0.421981 46:-0.550578 47:-0.2224 48:-0.128166 49:-0.199579 50:-0.294413 51:-0.506896 52:-0.429247 53:-0.690677 54:-0.586543 55:-0.597764 56:-0.630589 57:-0.549566 58:-0.60339 59:-0.460671 60:-0.42769 61:-0.356962 62:-0.320425 63:-0.12651 64:-0.108326 65:-0.217905 66:-0.0200767 67:-0.215544 68:-0.448187 69:-0.462407 70:-0.286896 71:-0.256315 72:-0.11602 73:-0.186939 74:-0.130747 75:-0.10695 76:-0.341867 77:-0.191539 78:-0.144466 79:-0.159885 80:-0.387493 81:-0.148411 82:-0.27192 83:-0.265127 84:-0.342849 85:-0.285191 86:-0.132608 87:-0.178516 88:-0.326768 89:-0.265982 90:-0.374735 91:-0.301652 92:-0.137659 93:-0.127922 94:-0.144263 95:-0.240395 96:-0.0213551 97:-0.226856 98:-0.114739 99:-0.143963 100:-0.249885 101:-0.253828 102:-0.183427 103:-0.207558 104:-0.264723 105:-0.312673 106:-0.204714 107:-0.102336 108:-0.0157373 109:-0.160631 110:0.165314 111:0.103295 112:0.160076 113:0.0547753 114:0.247463 115:0.0701452 116:-0.0256479 117:0.010273 118:0.192862 119:0.0631594 120:0.247541 121:-0.0492616 122:-0.0557862 123:-0.0645663 124:-0.240775 125:-0.201304 126:-0.0672804 127:-0.0175966 128:-0.204173 129:0.00890947 130:0.139697 131:0.177046 132:0.0497708 133:0.0390297 134:-0.00283132 135:0.116902 136:0.0333759 137:0.0355428 138:0.0456953 139:-0.212527 140:0.0369008 141:0.187848 142:0.0232057 143:-0.0922996 144:-0.122988 145:-0.000491092 146:0.124895 147:0.137078 148:5.1663e-05 149:0.101921 150:-0.134016 151:-0.0564384 152:-0.0459969 153:0.0205083 154:-0.0821534 155:-0.0641743 156:-0.171626 157:-0.0635848 158:0.208066 159:-0.0130201 160:-0.0146907 161:-0.0292387 162:-0.0357645 163:-0.134776 164:-0.0746647 165:-0.0672993 166:-0.0335813 167:-0.0436085 168:0.054773 169:-0.0745037 170:-0.13891 171:-0.12669 172:-0.228214 173:0.10658 174:0.146944 175:-0.0778623 176:-0.266365 177:-0.314398 178:-0.227087 179:-0.393613 180:-0.18393 181:0.0640334 182:-0.02532 183:0.172556 184:-0.00616535 185:0.0358702 186:-0.0349029 187:0.0807147 188:-0.0808405 189:0.00460358 190:-0.19897 191:-0.205756 192:-0.229838 193:-0.166541 194:0.0118285 195:0.0704543 
-0 0.08722622112635409 1:0.915007 2:3.98057 3:5.16529 4:6.53659 5:5.2715 6:6.31661 7:6.28489 8:5.15491 9:6.05514 10:5.7474 11:5.46074 12:5.25073 13:5.00687 14:4.91263 15:5.16997 16:-0.427644 17:-0.374116 18:-0.336626 19:0.145824 20:-0.72521 21:0.370683 22:0.388957 23:0.86413 24:0.285369 25:0.346205 26:0.480867 27:0.532496 28:0.58665 29:0.750825 30:0.675149 31:-0.281932 32:-0.390888 33:-0.441298 34:-0.653058 35:-0.711712 36:-0.634938 37:-0.54239 38:-0.381001 39:-0.492813 40:-0.358107 41:-0.248442 42:-0.296499 43:-0.374494 44:-0.423156 45:-0.563709 46:-0.301773 47:-0.125086 48:-0.0196752 49:0.273657 50:-0.471168 51:-0.894449 52:-0.959549 53:-0.9985 54:-0.660717 55:-0.713387 56:-0.610113 57:-0.435555 58:-0.441019 59:-0.48913 60:-0.380685 61:-0.223072 62:-0.614409 63:-0.737361 64:-0.127907 65:-0.290159 66:-0.222657 67:-0.195738 68:-0.371189 69:-0.711207 70:-0.690188 71:-0.617075 72:-0.622071 73:-0.692898 74:-0.922616 75:-1.02088 76:-0.223334 77:-0.0871029 78:-0.102181 79:-0.500587 80:0.0205887 81:-0.372626 82:-0.481454 83:-0.816884 84:-0.290748 85:-0.419038 86:-0.655489 87:-0.71672 88:-0.587579 89:-0.406196 90:-0.255598 91:-0.167839 92:-0.354481 93:-0.245494 94:-0.554193 95:-0.469986 96:-0.112942 97:0.0378133 98:-0.422938 99:-0.226445 100:-0.105298 101:0.0443272 102:-0.0158355 103:-0.0668854 104:-0.0734586 105:-0.16091 106:-0.102715 107:-0.236769 108:-0.238602 109:-0.556245 110:-0.484464 111:-0.0757311 112:-0.146897 113:0.0876178 114:-0.262686 115:-0.324126 116:-0.486102 117:-0.727346 118:-0.852431 119:-0.739269 120:-0.380691 121:-0.130686 122:-0.428635 123:-0.241301 124:-0.132899 125:-0.00636092 126:-0.0737411 127:-0.050886 128:-0.131844 129:-0.102089 130:-0.00723669 131:-0.144487 132:0.160049 133:0.154023 134:0.0791967 135:-0.045452 136:-0.0325115 137:-0.294541 138:-0.23869 139:-0.322246 140:-0.207157 141:-0.20208 142:-0.116824 143:0.152629 144:-0.224078 145:-0.204221 146:-0.136279 147:-0.182888 148:-0.247584 149:-0.184024 150:-0.184308 151:-0.110415 152:0.0919875 153:-0.093233 154:0.164478 155:-0.249646 156:-0.0697414 157:-0.185132 158:-0.312548 159:0.234398 160:0.0544891 161:-0.0145633 162:-0.0700845 163:-0.0693735 164:0.0572409 165:0.00796711 166:-0.0177502 167:-0.0463239 168:0.00528882 169:0.275643 170:0.0300624 171:0.330627 172:0.406014 173:0.38635 174:0.371381 175:0.338316 176:0.358647 177:0.48972 178:0.480497 179:0.489543 180:0.392162 181:-0.0192864 182:0.0978197 183:-0.177939 184:-0.0920173 185:-0.219752 186:-0.116721 187:-0.155533 188:0.625691 189:-0.0957592 190:-0.128146 191:-0.225598 192:-0.321918 193:-0.262929 194:-0.142977 195:0.0527053 
-0 0.4426407592357635 1:5.00151 2:4.89471 3:4.6931 4:5.22568 5:6.02916 6:5.30376 7:6.70449 8:6.05514 9:5.89266 10:6.26461 11:6.47232 12:6.47077 13:6.29024 14:5.97476 15:5.41249 16:-0.183305 17:-0.415482 18:-0.268277 19:0.27492 20:-0.372278 21:0.0145929 22:0.0559081 23:0.388756 24:0.429571 25:0.330247 26:0.228112 27:0.176711 28:0.155938 29:0.170656 30:0.36139 31:-0.196057 32:-0.40538 33:-0.364639 34:-0.222909 35:-0.442813 36:0.249056 37:-0.810172 38:-0.682958 39:-0.314525 40:-0.445625 41:-0.595876 42:-0.61989 43:-0.578603 44:-0.497807 45:-0.437544 46:-0.314408 47:-0.317719 48:-0.290351 49:-0.213657 50:0.637292 51:-0.740955 52:-0.573064 53:-0.59661 54:-0.49867 55:-0.704988 56:-0.566057 57:-0.526415 58:-0.44691 59:-0.382631 60:-0.362513 61:-0.343042 62:-0.203676 63:-0.283021 64:-0.452952 65:-0.661145 66:-0.461605 67:-0.576952 68:-0.877443 69:-0.603285 70:-0.595006 71:-0.658233 72:-0.640958 73:-0.551143 74:-0.498501 75:-0.318825 76:-0.243413 77:-0.234017 78:-0.133691 79:0.03637 80:-0.271023 81:0.0610848 82:-0.0817082 83:-0.0397422 84:-0.161352 85:-0.206698 86:-0.0208417 87:0.014529 88:-0.104734 89:-0.106837 90:-0.038989 91:-0.329095 92:-0.222957 93:-0.438587 94:-0.284491 95:-0.339381 96:-0.162665 97:-0.176691 98:-0.164017 99:-0.183054 100:-0.0960227 101:-0.0470767 102:-0.0955067 103:-0.0577777 104:-0.0428419 105:-0.0973107 106:-0.28798 107:-0.2365 108:-0.235631 109:-0.459227 110:-0.65513 111:-0.0255557 112:-0.240134 113:-0.556359 114:-0.706786 115:-0.556572 116:-0.366619 117:-0.34065 118:-0.287685 119:-0.280563 120:-0.16976 121:-0.158862 122:-0.103221 123:-0.074437 124:-0.550201 125:-1.02168 126:-0.412605 127:0.0494434 128:-0.0654859 129:-0.243574 130:0.0452897 131:0.169786 132:0.186223 133:0.117713 134:0.118401 135:0.0883555 136:0.0748197 137:0.148721 138:-0.0587692 139:0.0342837 140:-0.694521 141:-0.0158564 142:0.032683 143:0.143113 144:-0.123458 145:0.166775 146:0.17093 147:0.303247 148:0.307217 149:0.25828 150:0.134585 151:0.0336786 152:0.363691 153:0.187 154:-0.25131 155:-0.494583 156:-0.0639271 157:-0.411682 158:0.00900855 159:0.315958 160:0.152429 161:-0.0327503 162:-0.11269 163:-0.160111 164:-0.229141 165:-0.216678 166:0.204482 167:0.300368 168:-0.0182565 169:-0.207745 170:-0.367457 171:0.0521873 172:-0.331702 173:-0.236791 174:0.313285 175:-0.129775 176:-0.22506 177:-0.269028 178:-0.272388 179:-0.272507 180:-0.374163 181:0.146391 182:-0.0604491 183:0.0475698 184:-0.247969 185:0.0682675 186:-0.0953367 187:0.063289 188:0.0398399 189:0.161959 190:0.0847043 191:0.0106721 192:0.067146 193:0.0613548 194:0.137381 195:0.206998 
-0.2437571905035724 -1 1:3.53236 2:4.61673 3:4.69201 4:5.7458 5:4.33567 6:5.53964 7:4.5059 8:4.90391 9:5.02126 10:4.85425 11:4.79153 12:4.79648 13:4.51413 14:4.53944 15:4.43909 16:0.0309096 17:-0.145156 18:-0.128732 19:0.0631623 20:0.115196 21:0.505935 22:0.272552 23:-0.0457964 24:0.605795 25:0.556974 26:0.560836 27:0.628772 28:0.611492 29:0.643234 30:0.602313 31:-0.442634 32:-0.449571 33:-0.531488 34:-0.38338 35:-0.246951 36:-0.5703 37:-0.200727 38:-0.578244 39:-1.08729 40:-1.09814 41:-1.22047 42:-1.22593 43:-1.07171 44:-1.01059 45:-1.05495 46:-0.222564 47:-0.00939396 48:0.0771273 49:0.755921 50:0.296538 51:-0.20758 52:-0.47087 53:-0.227453 54:-0.194774 55:-0.205865 56:-0.296638 57:-0.166439 58:-0.205355 59:-0.161592 60:-0.170994 61:-0.20579 62:-0.265452 63:0.0683283 64:-0.477167 65:-0.378644 66:-1.04462 67:-0.72158 68:-0.57686 69:-0.28523 70:-0.301864 71:-0.39533 72:-0.208371 73:-0.364586 74:-0.176834 75:-0.165835 76:0.132748 77:-0.089735 78:-0.315069 79:-0.689932 80:-0.425069 81:-0.26507 82:-0.178326 83:-0.332067 84:-0.522919 85:-0.428427 86:-0.40267 87:-0.229388 88:-0.344732 89:-0.314026 90:-0.331558 91:-0.195786 92:-0.604544 93:-0.424218 94:-0.194867 95:-0.379339 96:0.292734 97:-0.0027703 98:-0.18982 99:-0.0848177 100:-0.174512 101:-0.104374 102:-0.0208452 103:-0.119091 104:-0.101505 105:-0.195641 106:-0.361975 107:-0.678226 108:-0.462673 109:-0.659724 110:-0.811607 111:-0.666205 112:-0.188475 113:0.265396 114:-0.340137 115:-0.529388 116:-0.381554 117:-0.297757 118:-0.280666 119:-0.232359 120:-0.265498 121:-0.0891342 122:0.0438077 123:0.232374 124:-0.130979 125:-0.595335 126:-0.150995 127:-0.545136 128:-0.206006 129:0.0154845 130:-0.103966 131:0.058623 132:-0.0900033 133:0.00899226 134:-0.130489 135:-0.0579185 136:-0.121626 137:0.157044 138:0.192061 139:-0.316981 140:-0.214094 141:-0.328464 142:-0.235548 143:-0.27027 144:0.0328071 145:0.0814589 146:0.0829922 147:0.0282752 148:0.00223594 149:-0.118592 150:0.124696 151:0.0217545 152:0.0235909 153:-0.214271 154:0.139816 155:-0.0416151 156:0.327398 157:-0.0981644 158:-0.132995 159:-0.0873564 160:0.00516612 161:-0.0176037 162:-0.10387 163:-0.00138023 164:-0.18638 165:0.0280371 166:0.118294 167:0.0951442 168:-0.137389 169:-0.00308914 170:0.238409 171:-0.0441728 172:0.0552616 173:-0.0988158 174:0.0102798 175:-0.069447 176:-0.0751935 177:-0.214216 178:-0.0418797 179:-0.117809 180:-0.097188 181:-0.129193 182:-0.0436509 183:-0.0195359 184:-0.127969 185:-0.102667 186:0.192119 187:0.221691 188:-0.0175766 189:-0.102642 190:-0.124635 191:-0.143941 192:-0.192091 193:-0.120244 194:-0.178378 195:-0.184073 
-0.3531362675161914 -1 1:1.80773 2:3.09354 3:4.77694 4:6.2368 5:5.95988 6:5.95479 7:6.04654 8:6.99939 9:6.67269 10:6.56651 11:6.54729 12:6.40736 13:6.12417 14:5.91758 15:5.442 16:0.00871474 17:0.326275 18:0.577142 19:-0.0146303 20:0.668268 21:0.699715 22:0.666563 23:0.0867681 24:0.157742 25:0.148585 26:0.150139 27:0.200155 28:0.274355 29:0.297802 30:0.36987 31:-0.0776452 32:0.100196 33:-0.0480365 34:0.0616825 35:-0.280121 36:-0.361148 37:-0.455855 38:-0.559483 39:-0.256532 40:-0.205389 41:-0.293585 42:-0.247772 43:-0.24871 44:-0.1234 45:-0.0386564 46:-0.225253 47:-0.266122 48:0.0655765 49:1.11811 50:0.0183315 51:0.157619 52:-0.0333792 53:-0.278988 54:-0.502427 55:-0.446397 56:-0.331623 57:-0.381823 58:-0.381849 59:-0.323715 60:-0.219661 61:-0.193934 62:-0.134376 63:-0.24399 64:-0.357907 65:-0.557209 66:-0.754115 67:-0.663218 68:-0.6409 69:-0.424644 70:-0.49845 71:-0.478609 72:-0.411277 73:-0.483611 74:-0.465956 75:-0.292797 76:-0.374549 77:-0.535869 78:0.0949021 79:-0.339771 80:-0.176903 81:-0.177429 82:-0.0740002 83:-0.0572871 84:0.0201103 85:-0.00287231 86:-0.0297544 87:-0.075313 88:0.0112846 89:0.0504082 90:0.0908312 91:-0.369714 92:-0.571201 93:-0.413974 94:-0.730532 95:-0.462777 96:-0.455171 97:-0.238503 98:-0.429613 99:-0.0173758 100:0.062386 101:0.0712802 102:0.0866477 103:0.02122 104:0.0154597 105:0.0741618 106:0.161575 107:0.000675019 108:0.21607 109:0.166385 110:0.326165 111:0.488756 112:0.510104 113:0.069757 114:0.064403 115:0.092578 116:0.162827 117:0.103452 118:-0.0537851 119:-0.10166 120:-0.112468 121:0.695581 122:1.03124 123:-0.126277 124:-0.330631 125:0.268094 126:0.123786 127:-0.192248 128:-0.0233153 129:-0.481167 130:-0.298707 131:-0.36373 132:-0.45633 133:-0.272976 134:-0.278104 135:-0.526418 136:0.381683 137:0.332342 138:-0.548958 139:-0.532 140:-0.771749 141:-0.602802 142:-0.342187 143:-0.199617 144:-0.0332676 145:-0.104616 146:0.000554495 147:0.040192 148:-0.042403 149:0.0899969 150:0.119641 151:-0.0863775 152:-0.470535 153:0.143944 154:-0.0452235 155:0.237034 156:0.301651 157:0.10694 158:-0.013034 159:0.14029 160:-0.0165554 161:-0.0818883 162:-0.0222388 163:-0.0660637 164:-0.00635604 165:0.104297 166:0.0182078 167:0.197326 168:0.161361 169:0.147671 170:0.292261 171:0.180837 172:0.341103 173:-0.117477 174:-0.0588991 175:0.0377509 176:0.0196956 177:0.111017 178:0.0589641 179:0.0520637 180:0.0879645 181:0.169595 182:-0.11449 183:-0.192936 184:0.264911 185:-0.218907 186:-0.101534 187:-0.368186 188:-0.290321 189:-0.345873 190:-0.330391 191:-0.295617 192:-0.307865 193:-0.382684 194:-0.522917 195:-0.614382 
-0 -1 1:4.46518 2:4.12292 3:4.85393 4:5.54317 5:4.48978 6:4.05585 7:4.90309 8:5.12574 9:5.52729 10:5.50867 11:5.60625 12:5.56649 13:5.45173 14:5.35194 15:5.2059 16:0.0250756 17:0.122609 18:0.546367 19:-0.155883 20:-0.340822 21:-0.0859254 22:0.110118 23:0.436207 24:0.358357 25:0.29731 26:0.349562 27:0.335999 28:0.353868 29:0.381063 30:0.384672 31:-0.542613 32:-0.445413 33:-0.520745 34:-0.359149 35:-0.0135694 36:-0.287334 37:-0.0321022 38:-0.448699 39:-0.60984 40:-0.771639 41:-0.989171 42:-1.03161 43:-0.993475 44:-1.04821 45:-1.01434 46:-0.175392 47:-0.294884 48:-0.130201 49:0.574489 50:-0.209121 51:-0.270389 52:-0.668443 53:0.0291496 54:-0.0168181 55:0.0676663 56:0.101142 57:0.0726957 58:0.0878316 59:-0.0488426 60:-0.156075 61:-0.419582 62:-0.342214 63:-0.12346 64:-1.04063 65:-0.00666981 66:0.0228614 67:-0.424828 68:-0.404395 69:-0.757008 70:-0.608765 71:-0.643681 72:-0.599959 73:-0.334231 74:-0.269186 75:-0.295594 76:-0.447324 77:-0.235201 78:-0.45984 79:-0.514489 80:-0.40484 81:-0.384454 82:-0.420316 83:-0.240862 84:-0.306011 85:-0.305582 86:-0.34005 87:-0.29811 88:-0.357986 89:-0.442181 90:-0.409474 91:-0.0857908 92:-0.132568 93:-0.440862 94:-0.604614 95:-0.358043 96:-0.400171 97:0.0928233 98:-0.653303 99:-0.349314 100:-0.226005 101:-0.0459213 102:-0.0871949 103:-0.114016 104:-0.0455772 105:0.0362611 106:-0.292078 107:-0.496001 108:-0.514418 109:-0.601653 110:-0.541569 111:-0.483981 112:-0.244244 113:-0.0326958 114:-0.000321619 115:-0.0991512 116:-0.0736024 117:-0.0722407 118:-0.299751 119:-0.379817 120:-0.254208 121:-0.0875221 122:-0.183099 123:-0.158202 124:-0.692272 125:-0.14514 126:-0.154068 127:-0.27145 128:0.320965 129:0.204989 130:0.157339 131:0.329322 132:0.366571 133:0.299649 134:0.229288 135:0.24831 136:0.297861 137:0.145585 138:0.0213889 139:-0.182428 140:-0.111804 141:-0.132735 142:-0.157454 143:-0.228181 144:0.0570533 145:0.04107 146:-0.10719 147:-0.157623 148:-0.19852 149:-0.342272 150:-0.207556 151:0.0919488 152:0.0168691 153:-0.264035 154:-0.339621 155:-0.208343 156:-0.323976 157:-0.285449 158:-0.355982 159:-0.240591 160:-0.216917 161:-0.277085 162:-0.223203 163:-0.065011 164:-0.204722 165:-0.27162 166:0.228714 167:0.0192854 168:0.124411 169:-0.567544 170:-0.0779579 171:-0.000723259 172:0.06638 173:0.00590916 174:-0.0076701 175:0.0201587 176:-0.115511 177:-0.126288 178:0.00928441 179:0.123841 180:0.229967 181:-0.0800692 182:-0.0728179 183:-0.140631 184:-0.262807 185:-0.17925 186:0.0320865 187:-0.24538 188:0.108714 189:0.205693 190:0.281533 191:0.236257 192:0.0457437 193:-0.0685392 194:-0.0666178 195:-0.258022 
